function [Y,Xf,Af] = myNeuralNetworkFunction(X,Xi,~)
%MYNEURALNETWORKFUNCTION neural network simulation function.
%
% Generated by Neural Network Toolbox function genFunction, 28-Jan-2018 10:43:07.
%
% [Y,Xf,Af] = myNeuralNetworkFunction(X,Xi,~) takes these arguments:
%
%   X = 1xTS cell, 1 inputs over TS timesteps
%   Each X{1,ts} = 42xQ matrix, input #1 at timestep ts.
%
%   Xi = 1x7 cell 1, initial 7 input delay states.
%   Each Xi{1,ts} = 42xQ matrix, initial states for input #1.
%
%   Ai = 2x0 cell 2, initial 7 layer delay states.
%   Each Ai{1,ts} = 42xQ matrix, initial states for layer #1.
%   Each Ai{2,ts} = 1xQ matrix, initial states for layer #2.
%
% and returns:
%   Y = 1xTS cell of 1 outputs over TS timesteps.
%   Each Y{1,ts} = 1xQ matrix, output #1 at timestep ts.
%
%   Xf = 1x7 cell 1, final 7 input delay states.
%   Each Xf{1,ts} = 42xQ matrix, final states for input #1.
%
%   Af = 2x0 cell 2, final 0 layer delay states.
%   Each Af{1ts} = 42xQ matrix, final states for layer #1.
%   Each Af{2ts} = 1xQ matrix, final states for layer #2.
%
% where Q is number of samples (or series) and TS is the number of timesteps.

%#ok<*RPMT0>

% ===== NEURAL NETWORK CONSTANTS =====

% Input 1
x1_step1.xoffset = [11.9;11.9;11.9;11.9;11.9;11.9;11.9;42;42;42;42;42;42;42;8;8;8;8;8;8;8;927.15;927.15;927.15;927.15;927.15;927.15;927.15;0;0;0;0;0;0;0;0.4;0.4;0.4;0.4;0.4;0.4;0.4];
x1_step1.gain = [0.149253731343284;0.149253731343284;0.149253731343284;0.149253731343284;0.149253731343284;0.149253731343284;0.149253731343284;0.0373831775700935;0.0373831775700935;0.0373831775700935;0.0373831775700935;0.0373831775700935;0.0373831775700935;0.0373831775700935;0.15748031496063;0.15748031496063;0.15748031496063;0.15748031496063;0.15748031496063;0.15748031496063;0.15748031496063;0.0950118764845608;0.0950118764845608;0.0950118764845608;0.0950118764845608;0.0950118764845608;0.0950118764845608;0.0950118764845608;0.689655172413793;0.689655172413793;0.689655172413793;0.689655172413793;0.689655172413793;0.689655172413793;0.689655172413793;0.275862068965517;0.275862068965517;0.275862068965517;0.275862068965517;0.275862068965517;0.275862068965517;0.275862068965517];
x1_step1.ymin = -1;

% Layer 1
b1 = [-0.0055798129948903523595;0.0061632667605703624764;-0.0043152291650210691451;-0.033504107004925065549;0.0032454640987770468595;0.0038161726707164334016;0.15781902748688123039;0.0038079291794760766234;-0.0018549222161270196609;-0.030998151604586705182;-0.01212663823220131408;0.0039712868363763172488;-0.00017884741541726440731;0.0063100255044323200551;-0.0047597026313770350592;0.0061236272522128360959;-0.0051750005766145893218;0.005398345190000708449;0.0064701873211284741463;0.0056449685847495701535;0.063410851184595509733;-0.0046341207329987591651;-0.0037777778411385797529;-0.0052734270726674283003;0.0067973148494221806437;0.013112347795227201688;0.042656449332657962736;-0.0044662347744555503867;-0.0011629655365938565501;0.003808250629028473843;0.0048349716281518859487;0.0059608086772662436867;0.0035460176302009060491;0.0036422312683345799307;0.0052383814331192187289;0.0030138426144195526457;0.0031221665322284739702;-0.016211514951376619631;0.0053372515947966029173;0.0055973048952019151953;-0.042537703339116966772;0.0063048956481336097465];
IW1_1 = [-0.0088155724107346813273 -0.0031429926744958717501 -0.002408714005743322218 -0.00099403371377116116897 -0.00043406829498923981412 -0.0048997963817783820109 -0.007574952588869812535 0.005096056304034744279 0.0020689136353895013452 -0.0032043648438569503727 -0.0029797290021022384936 -0.0028526664512825003137 -0.0013452111573516122283 0.002853224825292414394 0.00068580446929325132241 0.0011899484826047451464 -0.0046281573365306799897 -0.0034334691395200441465 0.00029053299567102514999 0.0018113719229536876399 0.0021107637902736745006 -0.0021285233764287070021 0.0011529615449393359333 -0.003587788827138517142 -0.0044889357856560769752 0.0029193789115079223431 -0.0025259873790415025493 -0.0097570292202603901843 -0.0029673164023878029899 -0.0051992912974150621783 -0.00071190127016550078329 0.00020534222514169864649 0.0024872498507783370736 0.0043835125843606883092 -0.00071616281188794164714 0.00020970055629426643108 -0.0021114321562779895733 -0.00016313215870068819343 0.00087187261426663049783 0.0096714503924586817107 0.0010869192180017405672 0.0053821901030458021639 -0.0054819313506290706997 -0.0088155724110940917454 -0.0031429926751194545327 -0.0024087140051923128931 -0.00099403371388671977332 -0.00043406829523035396316 -0.0048997963819412846884 0.0033768838755171772144 0.0050960563030287720637 0.0020689136351240882197 -0.0032043648439248418117 -0.0029797290024961373828 -0.0028526664512665252452 -0.0013452111573589663716 0.0029938925373198216166 0.00068580446929592680811 0.0011899484827186921927 -0.004628157336511707319 -0.0034334691394534190556 0.00029053299567993306346 0.0018113719229169301505 -0.0045562077859999236193 -0.002128523376480928684 0.0011529615449625387272 -0.0035877888271352359126 -0.0044889357856551176731 0.0029193789115087888375 -0.0025259873790415819129 0.0005323235654277494542 -0.0029673164023877500808 -0.0051992912974150821276 -0.00071190127016550251802 0.00020534222514174171642 0.0024872498507783548545 0.0043835125843606961155 -0.0038478863479996677256 0.00020970055629426965658 -0.0021114321562780025837 -0.00016313215870068342294 0.00087187261426667668485 0.0096714503924586817107 0.0010869192180017657207 -0.00077616457417842494356 -0.0054819313506290585566 -0.0088155724110940917454 -0.003142992675119452798 -0.0024087140051923141941 -0.00099403371388671890596 -0.00043406829523035157792 0.0051300627378797246728 0.0033768838755171429536 0.0050960563030287694616 0.0020689136351240899545 -0.0032043648439248470158 -0.0029797290024961391175 -0.0028526664512665248115 0.0011746395363489668673 0.0029938925373198060041 0.00068580446929592713337 0.0011899484827186941442 -0.0046281573365117090538 -0.0034334691394534194893 0.00029053299567993235873 -0.0013758910243407845592 -0.0045562077859999331603 -0.002128523376480929985 0.0011529615449625387272 -0.0035877888271352372136 -0.0044889357856551159384 0.0029193789115087897049 -0.0044304464683779564219 0.00053232356542774782789 -0.0029673164023877518156 -0.0051992912974150812602 -0.00071190127016550598747 0.00020534222514173957512 0.0024872498507783565892 -0.00438731848495569135 -0.0038478863479996551489 0.00020970055629426743397 -0.0021114321562780012827 -0.0001631321587006853474 0.00087187261426667560064 0.009671450392458679976 -0.0050759793988464857808 -0.00077616457417843025615 -0.0054819313506290559546 -0.0088155724110940917454 -0.0031429926751194549664 -0.0024087140051923141941 -0.00099403371388672194173 0.0022142532860002614621 0.0051300627378797220707 0.0033768838755171429536 0.0050960563030287711964 0.0020689136351240882197 -0.0032043648439248465822 -0.0029797290024961408522 -0.0013874508680129138578 0.0011746395362024564593 0.0029938925373198068715 0.0006858044692959294102 0.0011899484827186913253 -0.0046281573365117064517 -0.0034334691394534207903 -0.0037486254144179459273 -0.0013758910243407518163 -0.0045562077859419031906 -0.002128523376547935414 0.0011529615449625378598 -0.0035877888271352363463 -0.0044889357856288704396 0.00060836504829163526482 -0.0044304464683779416767 0.00053232356542774977946 -0.0029673164023879317931 -0.0051992912974134592938 -0.00071190127016550739693 0.00020534222514173949381 0.0045457934083422499999 -0.0043873184849556774723 -0.0038478863479996555826 0.00020970055629426811159 -0.0021114321562780017164 -0.00016313215870068654002 0.00087187261426667527538 0.00014007970556542855001 -0.0050759793988464987913 -0.00077616457417842917195 -0.0054819313506290576893 -0.0088155724110940917454 -0.0031429926751194554001 -0.0024087140051923163625 -0.001885717533183845461 0.0022142532860002475843 0.0051300627378797212033 0.0033768838755171420862 0.0050960563030287711964 0.0020689136351240882197 -0.0032043648439248435464 0.0039261958056243558002 -0.0013874508680129186283 0.0011746395362024566762 0.0029938925373198073052 0.00068580446929592810915 0.0011899484827186921927 -0.0046281573365117064517 0.00015992817297038491343 -0.0037486254144179567693 -0.001375891024340750949 -0.0045562077859999340276 -0.0021285233764809291176 0.0011529615449625382935 -0.0035877888271352376473 0.003263754830992574886 0.00060836504960105528515 -0.0044304464683779434114 0.00053232356542775541731 -0.0029673164023877513819 -0.0051992912974150786581 -0.00071190127016550674641 0.0086239147474375596469 0.004545793408342262143 -0.0043873184849556896153 -0.0038478863479996564499 0.00020970055629426925001 -0.002111432156278000849 -0.00016313215870068700081 -0.0051323876010059910416 0.00014007970556544389147 -0.005075979398846500526 -0.00077616457417842906353 -0.0054819313506290559546 -0.0088155724110940917454 -0.0031429926751194549664 -0.007261219407963631807 -0.001885717533183849581 0.0022142532860002471506 0.0051300627378797212033 0.0033768838755171420862 0.005096056303028770329 0.0020689136351240895208 -0.0016731682376206959573 0.0039261958056243384529 -0.0013874508680129186283 0.001174639536202455592 0.0029938925373198068715 0.00068580446929592735021 0.0011899484827186924095 -0.0032509414854448278123 0.00015992817297038282635 -0.0037486254144179550346 -0.0013758910243407498648 -0.0045562077859999357624 -0.0021285233764809291176 0.0011529615449625361251 -0.0036373960885082768681 0.0032637548309925779218 0.00060836504829294465579 -0.0044304464683779416767 0.00053232356542775476679 -0.0029673164023877513819 -0.0051992912974150812602 0.00083937688303634193192 0.0086239147474375735247 0.0045457934083422612756 -0.00438731848495569135 -0.0038478863479996551489 0.0002097005562942687079 -0.0021114321562780017164 -0.0058083982107035563719 -0.0051323876010059919089 0.00014007970556544638513 -0.0050759793988464996586 -0.00077616457417842938879 -0.0054819313506290542198 -0.0088155724110940917454 -0.0040979311026856923839 -0.0072612194079636387459 -0.0018857175331838510988 0.002214253286000246717 0.005130062737879720336 0.0033768838755171403515 0.0050960563030287711964 0.0037800407611112739684 -0.0016731682376206968247 0.0039261958056243393203 -0.0013874508680129184115 0.0011746395362024571098 0.0029938925373198068715 0.00068580446929592735021 0.0080898060449862002619 -0.0032509414854448338839 0.00015992817297038304319 -0.0037486254144179554683 -0.001375891024340750949 -0.0045562077859999357624 -0.0021285233764809295513 0.0030269755469473271642 -0.0036373960885082733986 0.0032637548309925787891 0.00060836504829294606525 -0.0044304464683779434114 0.00053232356542775498363 -0.0029673164023877509482 -0.0024018409393626286193 0.00083937688303635125606 0.0086239147474375735247 0.0045457934083422612756 -0.00438731848495569135 -0.0038478863479996564499 0.00020970055629426830133;0.0095550283071143757296 0.0034232442227717595727 0.0026170724812817325843 0.0010802034146205233105 0.00050842066696895379507 0.0052862090450994502627 0.0081445003016858228545 -0.0055085638263359781169 -0.0022439650543802981165 0.0035562273453213482516 0.0033159182072244391612 0.0031307017565655259964 0.0015175944755773877314 -0.0029635721282891941929 -0.00076118699353647353758 -0.0013202846376470787123 0.0050452853494431368006 0.0037460882466951138381 -0.00028082551248665679929 -0.0019101904254838963579 -0.0022646930464237432362 0.0023126591231996799537 -0.0011960057006497356973 0.0039047333654232199707 0.004871741105664236654 -0.0031216491764558154491 0.0027236984376206112811 0.010480018490220326804 0.0030825538368793427638 0.0054777634875242068452 0.00062442861660949068592 -0.0003652139285026493069 -0.0028186598084981415342 -0.0048355458821260589516 0.00066687207107127158354 -0.00030826244089387214902 0.0022011387458799225487 6.4486643097960645631e-05 -0.0010296853850262927682 -0.010507123745724459771 -0.0012519179248926179653 -0.0058803190587578841458 0.0059584954301286317813 0.0095550283069545192266 0.0034232442226179008761 0.0026170724815292620118 0.0010802034143221905544 0.00050842066701608417192 0.0052862090448755009314 -0.0036383888725433225289 -0.0055085638267851093006 -0.0022439650545103026306 0.003556227345090694214 0.0033159182070368283836 0.0031307017566271147513 0.0015175944756227676639 -0.0032130360477772156209 -0.00076118699338434620341 -0.001320284637629516155 0.0050452853494355864167 0.0037460882466421037244 -0.00028082551249286190516 -0.0019101904255405363804 0.0049375034258837798354 0.0023126591231318865266 -0.0011960057006318229426 0.0039047333654142033117 0.0048717411056624203985 -0.0031216491764567786543 0.0027236984376202864541 -0.00061039277180664872242 0.003082553836879319345 0.0054777634875242588869 0.00062442861660958793885 -0.0003652139285026873624 -0.0028186598084982529902 -0.0048355458821261847191 0.0041416835307646190575 -0.00030826244089389339938 0.002201138745879889589 6.4486643097964209946e-05 -0.0010296853850262348718 -0.010507123745724444158 -0.0012519179248926246874 0.00084906763412620782274 0.0059584954301286482611 0.0095550283069545192266 0.0034232442226179026108 0.0026170724815292676496 0.0010802034143221929396 0.00050842066701608514771 -0.005486661137950924437 -0.0036383888725433186258 -0.0055085638267851075658 -0.0022439650545103043654 0.0035562273450907033213 0.0033159182070368283836 0.0031307017566271121492 -0.0012740273494962956781 -0.0032130360477772095494 -0.00076118699338434696235 -0.001320284637629517456 0.0050452853494355864167 0.0037460882466421045918 -0.0002808255124928610378 0.0015328671960003449008 0.004937503425883747743 0.0023126591231318834908 -0.0011960057006318233763 0.0039047333654141981076 0.0048717411056624212659 -0.0031216491764567816901 0.0046781247388401484347 -0.00061039277180660969115 0.003082553836879319345 0.0054777634875242606216 0.00062442861660959422723 -0.0003652139285026868745 -0.0028186598084982564597 0.0046739368367442442678 0.0041416835307646572215 -0.00030826244089389280307 0.0022011387458798917574 6.4486643097963356136e-05 -0.0010296853850262366065 -0.010507123745724445893 0.0054701651207617755027 0.00084906763412625194977 0.0059584954301286499959 0.0095550283069545192266 0.0034232442226179034782 0.002617072481529268517 0.0010802034143221918554 -0.0022976295110314101482 -0.0054866611379509088245 -0.0036383888725433168911 -0.0055085638267851066985 -0.0022439650545103056664 0.0035562273450907033213 0.0033159182070368292509 0.001514114641108747902 -0.0012740273490070373047 -0.0032130360477772104168 -0.00076118699338434642025 -0.0013202846376295159381 0.005045285349435584682 0.0037460882466421054592 0.004077454214372381279 0.0015328671960003655006 0.0049375034260108943002 0.002312659123109149506 -0.0011960057006318220753 0.0039047333654141989749 0.0048717411056847263404 -0.0008410889803647453658 0.004678124738840137159 -0.00061039277180660904062 0.0030825538368791697251 0.0054777634875251531368 0.00062442861660959411881 -0.00036521392850268335085 -0.0050114194061510767761 0.0046739368367442503394 0.0041416835307646598235 -0.00030826244089389470042 0.0022011387458798904564 6.4486643097964724942e-05 -0.0010296853850262379076 -0.00014212863772177381774 0.005470165120761766829 0.00084906763412624923926 0.0059584954301286465264 0.0095550283069545192266 0.0034232442226179039119 0.0026170724815292663486 0.0021286223078713314462 -0.0022976295110314166534 -0.0054866611379509070898 -0.0036383888725433186258 -0.0055085638267851101679 -0.0022439650545103039317 0.0035562273450907007193 -0.004173036283446322596 0.0015141146411087379273 -0.0012740273490070364373 -0.0032130360477772108505 -0.00076118699338434848024 -0.0013202846376295163718 0.0050452853494355864167 -0.00016282750747552247883 0.0040774542143723821463 0.0015328671960003672353 0.004937503425883747743 0.0023126591231318834908 -0.0011960057006318207742 0.0039047333654141968065 -0.0036295111344761274777 -0.00084108898051114616094 0.0046781247388401440979 -0.00061039277180661370269 0.0030825538368793215134 0.0054777634875242597542 0.00062442861660959563669 -0.0093582853023674826554 -0.0050114194061510915212 0.0046739368367442520741 0.0041416835307646580888 -0.00030826244089389377885 0.0022011387458798917574 6.4486643097965904011e-05 0.0055212719549260925317 -0.00014212863772176923698 0.0054701651207617633596 0.00084906763412625097399 0.0059584954301286465264 0.0095550283069545192266 0.0034232442226179030445 0.0079130550050592867589 0.0021286223078713461913 -0.0022976295110314153523 -0.0054866611379509070898 -0.0036383888725433168911 -0.0055085638267851093006 -0.0022439650545103017633 0.0018698247177595440395 -0.0041730362834463165245 0.0015141146411087396621 -0.0012740273490070357868 -0.0032130360477772117178 -0.00076118699338434707077 -0.001320284637629516155 0.003484087018559532678 -0.00016282750747552142173 0.0040774542143723830137 0.0015328671960003668016 0.0049375034258837503451 0.0023126591231318843582 -0.0011960057006318212079 0.0038145803605099267396 -0.0036295111344761253093 -0.0008410889803656907901 0.0046781247388401388937 -0.0006103927718066142448 0.0030825538368793228144 0.0054777634875242571522 -0.0009736869118374265027 -0.0093582853023674757165 -0.0050114194061510915212 0.0046739368367442538088 0.004141683530764653752 -0.00030826244089389394148 0.0022011387458798900227 0.0062734856269172642809 0.0055212719549260760518 -0.00014212863772176872199 0.005470165120761764227 0.00084906763412625043189 0.0059584954301286491285 0.0095550283069545192266 0.0044987647798684620576 0.00791305500505927982 0.002128622307871345324 -0.0022976295110314179544 -0.0054866611379509079571 -0.0036383888725433151563 -0.0055085638267851084332 -0.0040193877740706731444 0.0018698247177595384017 -0.0041730362834463147897 0.0015141146411087400957 -0.0012740273490070366542 -0.0032130360477772117178 -0.0007611869933843482634 -0.0087377593313238532263 0.0034840870185595309433 -0.00016282750747552407803 0.0040774542143723821463 0.0015328671960003678858 0.0049375034258837503451 0.0023126591231318843582 -0.003339625473400298708 0.0038145803605099119944 -0.0036295111344761209725 -0.00084108898036568862169 0.0046781247388401380263 -0.00061039277180661359427 0.0030825538368793223808 0.0025219920535329747383 -0.00097368691183741696172 -0.0093582853023674774512 -0.0050114194061510906539 0.0046739368367442546762 0.0041416835307646528846 -0.000308262440893894592;-0.0071793992802148881224 -0.0025401076643295195621 -0.0019574975128450813888 -0.0008053169633245462573 -0.00030059753044523921479 -0.0040197302648983714718 -0.0062618540030995196305 0.0042068660006822407998 0.0017212819628705526738 -0.0024518859328215569793 -0.0022651982367971916152 -0.0022358255481617545814 -0.00097547801106306691269 0.0025347601208757903311 0.00052936004204892129783 0.00092747481634744132362 -0.0037184090764499403391 -0.0027491175341580894285 0.00028819891096850064685 0.0015464787661365526385 0.0017464918514514724511 -0.0017145784151230208329 0.0010191103219505625015 -0.0028890802367007202556 -0.0036324570636211603834 0.0024372770701038266698 -0.0020627641799176887373 -0.0080491749586187686522 -0.0026628712010164593688 -0.0044818246030935704471 -0.00083128272036218692122 -8.2389614116183497515e-05 0.0018035351050731329107 0.0033927788055326041014 -0.00078833964122604219607 1.0338930201803948607e-05 -0.0018656352951140105223 -0.000324739698327902661 0.00055353332281299252437 0.0077941630571627716975 0.00073956679330194484596 0.0042657767003245992965 -0.0044454570668970060446 -0.0071793992807385065974 -0.0025401076635982429777 -0.0019574975122856378383 -0.00080531696404055358885 -0.00030059752969150392446 -0.0040197302649309365682 0.0028169797803801908606 0.0042068660011072844807 0.0017212819629560084048 -0.0024518859334497051204 -0.0022651982364779773421 -0.0022358255482722070272 -0.00097547801092037322163 0.0024810753520940202928 0.00052936004204769810094 0.00092747481623652353825 -0.003718409076474406879 -0.0027491175342003034907 0.00028819891096927715245 0.0015464787660680672735 -0.00370033128832226825 -0.0017145784151171570339 0.0010191103219561463596 -0.0028890802367380003304 -0.0036324570636173435581 0.0024372770701039567741 -0.0020627641799177147582 0.0003458283943630157775 -0.0026628712010165222525 -0.0044818246030935444263 -0.00083128272036219136645 -8.2389614116184378429e-05 0.0018035351050731537274 0.0033927788055325993309 -0.0031950843945832544703 1.0338930201808397224e-05 -0.0018656352951140209306 -0.00032473969832790352836 0.00055353332281299740328 0.0077941630571627699628 0.00073956679330194365334 -0.00062658634815407929057 -0.0044454570668970164529 -0.00717939928073850573 -0.0025401076635982451461 -0.0019574975122856391394 -0.00080531696404055304675 -0.00030059752969150630971 0.0042996409187199945839 0.0028169797803801938964 0.0042068660011072862154 0.0017212819629560079712 -0.0024518859334497064215 -0.0022651982364779777758 -0.0022358255482722044251 0.0009492563024113224307 0.0024810753520940207265 0.00052936004205163982635 0.00092747481623652353825 -0.003718409076474406879 -0.002749117534200303057 0.0002881989109692763393 -0.001053502309402111134 -0.003700331288322266949 -0.001714578415117152697 0.0010191103219561426733 -0.0028890802367379990294 -0.0036324570636173435581 0.0024372770701039567741 -0.0038195812129649272214 0.00034582839436301729538 -0.0026628712010165235535 -0.0044818246030935452937 -0.00083128272036219917271 -8.2389614116186343546e-05 0.0018035351050731539442 -0.0037169452707875860753 -0.003195084394583256205 1.0338930201807828018e-05 -0.0018656352951140207138 -0.00032473969832790385362 0.00055353332281299523487 0.0077941630571627734322 -0.0041847087863424526147 -0.00062658634815408124213 -0.0044454570668970164529 -0.00717939928073850573 -0.0025401076635982464472 -0.001957497512285639573 -0.00080531696404055272149 0.0019799091345810660922 0.0042996409187199937166 0.002816979780380191728 0.004206866001107285348 0.0017212819629560073206 -0.0024518859334497072888 -0.0022651982364779769084 -0.0011124000203063724029 0.00094925630241132145492 0.0024810753520940185581 0.00052936004204769831778 0.00092747481623652342983 -0.0037184090764744064453 -0.002749117534200304358 -0.0030143542994766885784 -0.0010535023094021115676 -0.0037003312883161637581 -0.0017145784151171552991 0.0010191103219561413722 -0.002889080236737998162 -0.0036324570636518606521 0.00018290493753036791025 -0.0038195812129649233183 0.00034582839436301702433 -0.0026628712010170643536 -0.0044818246030935452937 -0.00083128272036220014849 -8.2389614116185367764e-05 0.0035340770982259408876 -0.0037169452707875873763 -0.0031950843945832566387 1.0338930201807197825e-05 -0.0018656352951140189791 -0.00032473969832790466677 0.00055353332281299772854 0.00012093480864911539292 -0.0041847087863424517473 -0.00062658634815408048319 -0.0044454570668970147182 -0.00717939928073850573 -0.0025401076635982451461 -0.001957497512285638272 -0.0013823848334784184008 0.0019799091345810647911 0.0042996409187199937166 0.0028169797803801925953 0.004206866001107285348 0.0017212819629560073206 -0.0024518859334497064215 0.0033033845145419103023 -0.0011124000203063719693 0.0009492563024113208044 0.0024810753520940189917 0.00052936004204769885988 0.00092747481623652397193 -0.0037184090764744055779 0.0001560882181007212943 -0.0030143542994766911805 -0.0010535023094021107003 -0.003700331288322266949 -0.0017145784151171535644 0.0010191103219561422396 -0.002889080236737998162 0.0024733303983903495021 0.00018290493683997366241 -0.0038195812129649241856 0.00034582839436301800011 -0.0026628712010165239872 -0.0044818246030935452937 -0.00083128272036219754641 0.0069533034739514710393 0.0035340770982259348161 -0.00371694527078758781 -0.003195084394583256205 1.0338930201808890197e-05 -0.001865635295114020497 -0.00032473969832790499203 -0.0042248587205737193548 0.00012093480864911531161 -0.0041847087863424526147 -0.00062658634815408070003 -0.0044454570668970173203 -0.0071793992807385048627 -0.0025401076635982438451 -0.0058143790524449725718 -0.0013823848334784136303 0.0019799091345810656585 0.0042996409187199937166 0.002816979780380193029 0.0042068660011072870827 0.0017212819629560077543 -0.0012730979088586122285 0.0033033845145419111697 -0.0011124000203063728366 0.00094925630241132178018 0.0024810753520940198591 0.00052936004204769918514 0.00092747481623652191195 -0.0026854407258112620964 0.0001560882181007202372 -0.0030143542994766907468 -0.0010535023094021098329 -0.0037003312883222665153 -0.0017145784151171537812 0.0010191103219561415891 -0.0031812442222678596719 0.0024733303983903482011 0.00018290493753036839815 -0.003819581212964925053 0.00034582839436301924694 -0.0026628712010165239872 -0.0044818246030935444263 0.00056316053487443851807 0.0069533034739514719066 0.0035340770982259356835 -0.003716945270787586509 -0.0031950843945832544703 1.0338930201808161749e-05 -0.0018656352951140200633 -0.0047500636095170571671 -0.0042248587205737193548 0.00012093480864911555555 -0.0041847087863424517473 -0.00062658634815408070003 -0.0044454570668970181876 -0.0071793992807385048627 -0.0032150680261027577214 -0.0058143790524449699697 -0.0013823848334784144976 0.0019799091345810660922 0.0042996409187199937166 0.002816979780380193029 0.0042068660011072862154 0.0031863328470286490963 -0.001273097908858612879 0.0033033845145419129044 -0.0011124000203063726198 0.00094925630241132199702 0.0024810753520940198591 0.00052936004204769853462 0.0066251343985209536214 -0.0026854407258112590606 0.00015608821810072050825 -0.0030143542994766907468 -0.0010535023094021104834 -0.0037003312883222665153 -0.0017145784151171537812 0.0023431349621104652706 -0.003181244222267862274 0.0024733303983903499358 0.00018290493753036801867 -0.003819581212964925053 0.00034582839436301930115 -0.0026628712010165239872 -0.0020858130633422521799 0.00056316053487443830123 0.0069533034739514710393 0.0035340770982259348161 -0.0037169452707875873763 -0.0031950843945832566387 1.0338930201808310826e-05;-0.0081936861738456968907 -0.020967167180912030244 0.002483012231330437164 -0.0069706604508882677451 0.023370105619959755799 -0.01163008234155070604 0.027028889101614869683 0.017262738473516777565 0.014256213576978454816 0.029730658915874067644 -0.014975075538316791335 -0.0065942648598200891141 0.092586251930967103374 0.074715564749931226429 -0.016174957070627708766 -0.0023122597978591460412 0.026911763920464910893 -0.022351916341664456594 0.047041497268170688606 0.1333310926751230252 0.085276330995857144157 0.037037913218745721622 0.034478573528228792511 0.0054422073188629734725 -0.015067861159868847429 0.021876524389262970438 0.0014325308290037285126 -0.041621325339986726954 -0.031932262910661687871 0.075191663334823716225 0.028383739298772039938 -0.044652522354981863395 0.012787418366586780077 -0.061919463580151025417 0.009588082066713280241 -0.02167353784950988918 0.029981224575518071462 0.022072573594844893674 -0.087453720133217532906 0.0077851030337724828889 -0.012749359376105658809 0.010593050994077136268 -0.020545456912587908155 -0.008193686176078544478 -0.020967167183277218151 0.0024830122304252428417 -0.0069706604508480056806 0.023370105620282858455 -0.011630082341879059704 -0.023528943286068762508 0.01726273847322723487 0.014256213577250159349 0.02973065891586443299 -0.014975075538183829985 -0.0065942648597406491873 0.092586251930987961689 -0.014245907277298686111 -0.016174957070720606678 -0.0023122597977748909556 0.02691176392041857296 -0.022351916341704580748 0.047041497269674381609 0.13333109267510970253 0.056966257621382944409 0.037037913218724863307 0.034478573528231963585 0.0054422073188570502592 -0.01506786115986743016 0.021876524389271984061 0.0014325308292058587089 -0.016636579874609772056 -0.031932262910656976362 0.075191663334896102766 0.028383739298766107184 -0.044652522355004928278 0.012787418366585428728 -0.061919463580154605886 -0.031518279371990802484 -0.021673537849505535025 0.029981224575592779064 0.022072573594780982992 -0.087453720133197965225 0.0077851030337536325163 -0.012749359376100362698 -0.032246701501865239481 -0.020545456912590621262 -0.0081936861760785358044 -0.020967167183278966752 0.002483012230426281941 -0.0069706604508479996091 0.023370105620283118664 -0.0090355232042031163875 -0.023528943286095744397 0.017262738473227245278 0.014256213577248709121 0.029730658915860318225 -0.014975075538184567242 -0.0065942648597404410205 -0.013341142950197625722 -0.014245907277164838317 -0.016174957070795071418 -0.0023122597977748254698 0.026911763920418607654 -0.022351916341704587687 0.047041497269674388548 0.053668275014828431546 0.056966257621391923338 0.037037913218724898001 0.034478573528232359102 0.0054422073188570554633 -0.015067861159867449242 0.021876524389271997939 -0.050995439487386509669 -0.016636579874597472867 -0.031932262910656913912 0.075191663334896102766 0.028383739298766079429 -0.044652522355004935217 0.012787418366585449545 -0.039953419228263925556 -0.031518279371977327152 -0.021673537849505531555 0.029981224575592834575 0.022072573594780937889 -0.08745372013319793747 0.0077851030337536195058 -0.01308489802415059404 -0.032246701501852055582 -0.020545456912590624732 -0.0081936861760785271308 -0.020967167183278970222 0.0024830122304262845431 -0.0069706604508479805271 0.038860122659853987837 -0.0090355232042292066286 -0.023528943286095751336 0.017262738473227245278 0.014256213577248710855 0.029730658915860325164 -0.01497507553818455163 -0.0041087881515127809909 -0.013341142950195426092 -0.0142459072771648175 -0.01617495707072053035 -0.0023122597977748293729 0.026911763920418614593 -0.022351916341704587687 0.022130542345859927078 0.053668275014834135317 0.056966257621218249763 0.037037913218724925757 0.034478573528232352163 0.0054422073188570467897 -0.015067861159877210531 -0.087151907718663781943 -0.05099543948604044058 -0.016636579874597479806 -0.031932262910641030784 0.075191663334896144399 0.028383739298766089837 -0.044652522355004928278 -0.063587816179169767694 -0.039953419228275777186 -0.031518279371977361847 -0.021673537849505545433 0.029981224575592813758 0.02207257359478093095 -0.087453720133197895836 0.024522870118036166343 -0.013084898024136027567 -0.032246701501852013949 -0.020545456912590614323 -0.008193686176078532335 -0.020967167183278973691 0.0024830122304262815074 -0.046148180717360653968 0.038860122659850018789 -0.0090355232042291840772 -0.023528943286095744397 0.017262738473227241809 0.014256213577248714325 0.029730658915860321695 0.0064271791671712567504 -0.0041087881515039833408 -0.013341142950195426092 -0.014245907277164829643 -0.01617495707072053035 -0.0023122597977748280719 0.026911763920418604185 -0.020957130628558359037 0.022130542345861137915 0.053668275014834135317 0.056966257621391902521 0.037037913218724911879 0.034478573528232352163 0.0054422073188570554633 0.040434141802893674988 -0.087151907718062276986 -0.050995439486040433641 -0.016636579874597486745 -0.031932262910656913912 0.075191663334896102766 0.028383739298766079429 0.030407593623400980265 -0.063587816179173972664 -0.039953419228275846575 -0.031518279371977361847 -0.021673537849505538494 0.029981224575592792941 0.022072573594780944828 0.0027013967626796039391 0.024522870117982951965 -0.013084898024136032771 -0.032246701501852027827 -0.020545456912590621262 -0.008193686176078532335 -0.020967167183278973691 -0.014508960883379815043 -0.046148180717386529104 0.03886012265985001185 -0.0090355232042291944855 -0.023528943286095747867 0.017262738473227241809 0.01425621357724871606 0.047227871499350482232 0.0064271791671440320001 -0.004108788151504000688 -0.013341142950195426092 -0.014245907277164852195 -0.01617495707072052688 -0.0023122597977748315413 -0.022147043786092918127 -0.020957130628609356437 0.022130542345861165671 0.053668275014834142256 0.05696625762139190946 0.037037913218724911879 0.034478573528232345224 -0.023127514987526392315 0.040434141802950705757 -0.087151907718685930893 -0.050995439486040454458 -0.016636579874597476336 -0.031932262910656906973 0.075191663334896116644 -0.012792057228451551854 0.030407593623353917217 -0.063587816179173972664 -0.03995341922827581882 -0.031518279371977361847 -0.021673537849505545433 0.029981224575592796411 0.060159109075916969434 0.002701396762678541421 0.024522870117982938087 -0.013084898024136050118 -0.032246701501852020888 -0.020545456912590624732 -0.0081936861760785288655 -0.080736700600221908419 -0.014508960883315448129 -0.046148180717386570737 0.038860122659850004911 -0.0090355232042291944855 -0.023528943286095754805 0.017262738473227241809 0.011795820245326093037 0.047227871499369585007 0.0064271791671440250612 -0.0041087881515039980859 -0.013341142950195429562 -0.014245907277164841787 -0.01617495707072052688 0.021682136501199104212 -0.022147043786087929063 -0.020957130628609349499 0.022130542345861165671 0.053668275014834135317 0.056966257621391902521 0.037037913218724898001 -0.020936592587863449288 -0.023127514987536953311 0.04043414180295069188 -0.087151907718685917015 -0.050995439486040447519 -0.016636579874597476336 -0.031932262910656906973 -0.032008659124048655098 -0.012792057228450212647 0.030407593623353920687 -0.063587816179173958786 -0.03995341922827581882 -0.031518279371977361847 -0.021673537849505538494;0.0057222645708188196387 0.0020182164924077228632 0.0015647939077185848457 0.00064039816567419867444 0.00021534931681283598975 0.0032149150487433223594 0.0050399046730387770526 -0.0034207346211459713908 -0.0014337651809984998646 0.0018260070638276124002 0.0016746802152553907743 0.0016985499572129921821 0.00067293963141371807967 -0.0021619675773142991125 -0.00040239293197498097283 -0.0007194620598079913814 0.0029264926543657240887 0.0021514489299708618522 -0.00025840877351778591227 -0.0012632992424191520891 -0.0014005057836356405582 0.001344753674747750042 -0.00085878273149276468119 0.0022740993419269909734 0.0028663818126206906667 -0.0019711086989269393892 0.0016322602806578170431 0.0064323386291900387299 0.0023088166124092088412 0.0037266338766668810449 0.00084154376690804492522 0.00024832573793087106334 -0.0012690700809860333814 -0.0025496423590486219646 0.00078873890308055910094 0.00012159038649545485537 0.0015844675577995725839 0.0003941011986349248061 -0.00031922881884268702922 -0.0061174174954075014737 -0.00046840753785986347568 -0.0032840971218565657812 0.0035380832081772736232 0.0057222645702604789386 0.002018216494082659962 0.0015647939085579336185 0.00064039816661243774421 0.00021534931742058635779 0.0032149150492760888986 -0.0023198422656867988614 -0.0034207346216112424417 -0.0014337651798381309716 0.0018260070640543424932 0.0016746802146394164888 0.0016985499570797294236 0.00067293963164084206335 -0.0019958781951682838529 -0.00040239293206868048929 -0.0007194620597325926013 0.0029264926542905398722 0.0021514489299998963527 -0.00025840877340855509126 -0.0012632992423760596064 0.0029319726852000587217 0.0013447536747620966388 -0.00085878273148811681489 0.0022740993419322497876 0.0028663818126191085989 -0.0019711086989285353348 0.0016322602806578671332 -0.0001850946276253999075 0.0023088166124092218516 0.0037266338766668975248 0.0008415437669080475273 0.00024832573793087399068 -0.0012690700809860344656 -0.0025496423590486210972 0.0026010751196881573902 0.00012159038649545223973 0.001584467557799575186 0.00039410119863492410136 -0.00031922881884269109498 -0.0061174174954075075453 -0.00046840753785986640302 0.00050411833392662518897 0.0035380832081772801284 0.0057222645702604780713 0.0020182164940826582272 0.0015647939085579360037 0.00064039816661243676842 0.00021534931742058611385 -0.0035108880309436571281 -0.0023198422656868031982 -0.003420734621611242008 -0.0014337651798381309716 0.00182600706405434683 0.0016746802146394158383 0.0016985499570797248699 -0.00074453700378197449315 -0.0019958781950291624996 -0.00040239293207010816671 -0.00071946205973259270972 0.0029264926542905385712 0.0021514489299998967864 -0.00025840877340855465758 0.00079531366270344189349 0.002931972685200059589 0.0013447536747620966388 -0.00085878273148811583911 0.0022740993419322497876 0.0028663818126191098999 -0.0019711086989285349011 0.0031955614933801973487 -0.00018509462762540297037 0.0023088166124092222853 0.0037266338766668953564 0.00084154376690805045465 0.00024832573793087605067 -0.0012690700809860388024 0.0030700335411304757217 0.0026010751196881578239 0.00012159038649545368985 0.0015844675577995756197 0.00039410119863492404715 -0.00031922881884269212497 -0.0061174174954075084126 0.0033683801613230111849 0.0005041183339266290921 0.0035380832081772792611 0.0057222645702604789386 0.0020182164940826603956 0.0015647939085579353532 0.0006403981666124355758 -0.0017029854226232531925 -0.0035108880309436562607 -0.0023198422656868040656 -0.003420734621611242008 -0.0014337651798381316221 0.0018260070640543472637 0.0016746802146394167057 0.00087538447942073660969 -0.00074453700378197449315 -0.001995878195168285154 -0.00040239293206868119402 -0.00071946205973259162551 0.0029264926542905377038 0.0021514489299998963527 0.002361912673856939298 0.00079531366270344080929 0.0029319726852000578543 0.0013447536747620955546 -0.00085878273156481598708 0.0022740993419322489202 0.0028663818126191085989 7.5180109480093199091e-05 0.003195561493379066309 -0.00018509462762540061223 0.002308816612409222719 0.0037266338766668957901 0.00084154376690697232401 0.00024832573793087615909 -0.0026781653465530030206 0.0030700335411304748544 0.0026010751196881573902 0.00012159038649545383893 0.0015844675577995767039 0.00039410119863492448083 -0.00031922881884269223339 -9.3295045372900498731e-05 0.0033683801613230120522 0.00050411833392662714053 0.00353808320817727796 0.0057222645702604780713 0.0020182164940826616967 0.0015647939085579349195 0.00098572011851128546293 -0.0017029854226232568788 -0.0035108880309436566944 -0.0023198422656868040656 -0.003420734621611243309 -0.001433765179838131839 0.0018260070640543459627 -0.0026749663838752137102 0.00087538447942073769389 -0.00074453700378197395105 -0.0019958781951682860213 -0.0004023929320686821156 -0.00071946205973259119183 0.0029264926542905385712 -0.00014993026518175865507 0.0023619126738569388643 0.00079531366270344145981 0.0029319726852000600227 0.0013447536747620957714 -0.00085878273148811616437 0.0022740993419322497876 -0.0018168805954726144607 7.5180109480093443037e-05 0.0031955614933801947466 -0.00018509462762540191327 0.0023088166124092235863 0.0037266338766668966574 0.00084154376690805099675 -0.0054490650310965501463 -0.0026781653465530030206 0.0030700335411304774565 0.0026010751196881560891 0.00012159038649545356788 0.0015844675577995749691 0.00039410119863492420978 0.0033747346845880888018 -9.3295045372901962404e-05 0.0033683801613230120522 0.00050411833392662898368 0.0035380832081772792611 0.0057222645702604780713 0.002018216494082661263 0.0045407410030934370129 0.00098572011851128437873 -0.0017029854226232568788 -0.0035108880309436566944 -0.0023198422656868040656 -0.003420734621611242008 -0.0014337651798381316221 0.0009589221154340590858 -0.0026749663838752141438 0.00087538447942073899493 -0.00074453700378197416789 -0.0019958781951682860213 -0.00040239293206868151928 -0.00071946205973259162551 0.0021393932942008605722 -0.00014993026518175865507 0.0023619126738569401654 0.00079531366270344059245 0.0029319726852000591553 0.0013447536747620962051 -0.00085878273148811627279 0.0026898262733114153625 -0.0018168805954726164123 7.5180109480092074232e-05 0.0031955614933801938793 -0.00018509462762540226564 0.0023088166124092235863 0.0037266338766668966574 -0.0003538426117798475299 -0.005449065031096551881 -0.0026781653465530034543 0.0030700335411304761554 0.0026010751196881552218 0.0001215903864954536492 0.0015844675577995756197 0.0037853274867672231062 0.0033747346845880896692 -9.3295045372901488066e-05 0.0033683801613230116186 0.00050411833392662757421 0.0035380832081772788274 0.0057222645702604789386 0.0024515052976008485687 0.0045407410030934361456 0.00098572011851128264401 -0.001702985422623256662 -0.0035108880309436562607 -0.0023198422656868031982 -0.003420734621611242008 -0.0025918468719874311265 0.0009589221154340590858 -0.0026749663838752137102 0.00087538447942073888651 -0.00074453700378197351737 -0.0019958781951682860213 -0.00040239293206868135665 -0.0052926884160467771445 0.0021393932942008614395 -0.00014993026518175781481 0.0023619126738569401654 0.00079531366270344091771 0.0029319726852000600227 0.001344753674762096422 -0.0017611602272243859039 0.0026898262733114153625 -0.0018168805954726172797 7.5180109480092169099e-05 0.0031955614933801960477 -0.0001850946276254010188 0.0023088166124092235863 0.0017428021460534123127 -0.00035384261177984617465 -0.0054490650310965510136 -0.0026781653465530021532 0.0030700335411304770228 0.0026010751196881565228 0.00012159038649545435393;0.0065115987304315611078 0.0022995770697063185398 0.0017767184097874401394 0.0007293391207192585551 0.0002579604820605937575 0.0036527659205100324394 0.0057072341368951812202 -0.0038476824617421018573 -0.0015889821118323984445 0.0021586841678448470856 0.0019881489661236952798 0.001986944106644744721 0.00083248776907333434105 -0.0023745085866492851405 -0.00046972946495551343681 -0.00082955052178909616765 0.0033530974710722673271 0.0024734974232292609476 -0.00027765971235325866183 -0.0014215331775501796347 -0.0015899422479207442685 0.001544712899032914255 -0.00095009655637813225128 0.002606013304938199597 0.0032810798966757780126 -0.0022275203600950698422 0.0018666197984567275189 0.0073167512617489998891 0.0025120144412785513736 0.0041489689539859382628 0.00084794501461911018971 0.00017002649122147697552 -0.0015486208628654712493 -0.0029995643935009719608 0.00079760675494372035126 5.7125155539903310262e-05 0.0017444274584401502082 0.00036584246209619882819 -0.00043934389350817713979 -0.0070240048768841888832 -0.00060942825859811684472 -0.0038120669978831639262 0.0040282016165363960722 0.0065115987307315346955 0.0022995770698962733625 0.0017767184097485003678 0.00072933912050442020834 0.00025796048217990321348 0.003652765920480269355 -0.0025906771681526940231 -0.0038476824617364271432 -0.0015889821117920312123 0.00215868416780875573 0.0019881489661697634638 0.0019869441066820620924 0.00083248776904781243875 -0.0022616686839716125187 -0.00046972946494254757144 -0.00082955052178769234268 0.0033530974711135767309 0.0024734974232497120364 -0.00027765971237404623272 -0.0014215331775393551771 0.0033482744305635830928 0.0015447128990362225896 -0.00095009655639551147 0.0026060133049284881814 0.0032810798966727691348 -0.0022275203600948382567 0.0018666197984568240129 -0.00026976335043721479503 0.0025120144412785643841 0.0041489689539859434669 0.00084794501461911647808 0.00017002649122148575755 -0.0015486208628654742851 -0.0029995643935009697924 0.0029251124779224651692 5.7125155539903533879e-05 0.0017444274584401543281 0.00036584246209620056292 -0.00043934389350818445815 -0.0070240048768841880159 -0.00060942825859811576052 0.0005695478131808460109 0.004028201616536400409 0.0065115987307315338281 0.0022995770698962763982 0.001776718409748500151 0.00072933912050442042518 0.00025796048217990380979 -0.0039440652743297230712 -0.0025906771681526940231 -0.0038476824617364267095 -0.0015889821117920318629 0.0021586841678087587658 0.0019881489661697634638 0.0019869441066820620924 -0.00085566535591540579097 -0.0022616686838069681789 -0.00046972946497219871193 -0.00082955052178769212584 0.0033530974711135767309 0.0024734974232497116027 -0.00027765971237404639535 0.0009318206400171656547 0.0033482744305635835265 0.0015447128990362208548 -0.00095009655639551179526 0.0026060133049284881814 0.0032810798966727691348 -0.0022275203600948369556 0.0035435050842728033245 -0.00026976335043721186768 0.0025120144412785643841 0.0041489689539859434669 0.00084794501461911973069 0.00017002649122148632676 -0.0015486208628654753693 0.0034269426372467073211 0.0029251124779224708071 5.7125155539904245387e-05 0.0017444274584401534608 0.00036584246209619964135 -0.00043934389350818570498 -0.0070240048768841888832 0.0038132290184257101873 0.00056954781318084904667 0.0040282016165363986743 0.0065115987307315355628 0.0022995770698962768319 0.0017767184097485016689 0.00072933912050441923255 -0.0018616846429758964355 -0.0039440652743297282753 -0.0025906771681526922883 -0.0038476824617364297453 -0.0015889821117920318629 0.0021586841678087574647 0.0019881489661697656322 0.0010027457091879880477 -0.00085566535591540438151 -0.0022616686839716133861 -0.0004697294649425473546 -0.00082955052178769158374 0.0033530974711135758635 0.0024734974232497129037 0.002714403650128878031 0.00093182064001716478734 0.0033482744305635826591 0.0015447128990362217222 -0.0009500965563908903835 0.0026060133049284877477 0.0032810798966727695684 -4.9378901999174916687e-05 0.0035435050842756513068 -0.00026976335043721072927 0.0025120144412785639504 0.0041489689539859391301 0.00084794501461761193073 0.00017002649122148860358 -0.0031347597060260015342 0.00342694263724670602 0.0029251124779224677713 5.7125155539905112748e-05 0.0017444274584401534608 0.00036584246209620067134 -0.00043934389350818196449 -0.00010901587240709953615 0.0038132290184257101873 0.00056954781318084850457 0.0040282016165364012764 0.0065115987307315381649 0.0022995770698962750972 0.0017767184097484995005 0.0011936617770893533097 -0.001861684642975897086 -0.003944065274329727408 -0.0025906771681526940231 -0.0038476824617364275768 -0.0015889821117920305618 0.0021586841678087565974 -0.0030226072001372202361 0.0010027457091879880477 -0.00085566535591540362257 -0.0022616686839716129524 -0.00046972946494254746302 -0.00082955052178769180058 0.0033530974711135758635 -0.00015401723331967361237 0.002714403650128878031 0.00093182064001716576312 0.0033482744305635826591 0.0015447128990362215054 -0.00095009655639551027738 0.002606013304928487314 -0.0021649688693210020901 -4.937890199917610931e-05 0.0035435050842727968193 -0.00026976335043721105453 0.0025120144412785652514 0.0041489689539859408648 0.00084794501461912038121 -0.0062629510430861354622 -0.003134759706026005871 0.0034269426372467077548 0.0029251124779224686387 5.712515553990536347e-05 0.001744427458440150425 0.00036584246209620002082 0.0038390155762554043807 -0.00010901587240709938707 0.0038132290184257114883 0.00056954781318084828773 0.0040282016165363986743 0.0065115987307315372976 0.0022995770698962750972 0.0052272900888692460514 0.0011936617770893487561 -0.0018616846429758964355 -0.003944065274329727408 -0.002590677168152692722 -0.0038476824617364288779 -0.0015889821117920305618 0.0011242019068448299342 -0.003022607200137218935 0.0010027457091879891319 -0.00085566535591540286362 -0.0022616686839716129524 -0.00046972946494254702934 -0.0008295505217876908248 0.0024388085333106107253 -0.00015401723331967285342 0.0027144036501288784646 0.00093182064001716554628 0.0033482744305635822255 0.0015447128990362221559 -0.00095009655639550973528 0.0029666768926057524546 -0.0021649688693210046922 -4.9378901999177586535e-05 0.0035435050842727989877 -0.00026976335043721110874 0.0025120144412785639504 0.0041489689539859408648 -0.00046199558976194184893 -0.0062629510430861354622 -0.00313475970602600457 0.0034269426372467073211 0.0029251124779224695061 5.7125155539905404128e-05 0.0017444274584401512924 0.0043096384945191532415 0.0038390155762554035133 -0.00010901587240709788274 0.0038132290184257110546 0.00056954781318084796247 0.0040282016165364012764 0.0065115987307315372976 0.0028609045183632382352 0.0052272900888692443166 0.0011936617770893504908 -0.001861684642975897086 -0.003944065274329727408 -0.0025906771681526931557 -0.0038476824617364288779 -0.0029206906227931825684 0.0011242019068448312353 -0.0030226072001372198024 0.0010027457091879882645 -0.00085566535591540297204 -0.0022616686839716125187 -0.00046972946494254719197 -0.006017086400492651678 0.0024388085333106102916 -0.00015401723331967426289 0.0027144036501288775973 0.00093182064001716576312 0.0033482744305635826591 0.0015447128990362212885 -0.0020717849790546933458 0.0029666768926057524546 -0.0021649688693210025238 -4.9378901999176963119e-05 0.0035435050842727976866 -0.00026976335043721219294 0.0025120144412785643841 0.0019358638663363346086 -0.00046199558976194190314 -0.0062629510430861354622 -0.0031347597060260050036 0.0034269426372467073211 0.0029251124779224690724 5.7125155539905885242e-05;0.034157673429479756821 0.021941145032814787785 -0.060302222892829188128 0.023232575979868642924 0.020391396406609082342 0.086528275655501654673 0.055740146814698889044 0.0062040000844778503755 0.052864351397531948729 0.022867198636773569675 0.035749019076690077834 0.06912605072235629422 -0.03208445732871342132 -0.064895167968705327888 0.0091181933508317908332 -0.028982057056153000957 -0.10826746110765830822 -0.017227824705835136088 0.021883363894593260007 -0.037647239399089663103 -0.029607890307586887807 0.038781147370165358623 -0.011351546779959089187 -0.028002050133240915381 -0.029442354561836175247 -0.046231152552656057386 0.047691977107115521295 0.093475481400202314886 -0.050440079292930664612 -0.02697165239261253844 -0.015429725060401820735 -0.063103164113202395158 -0.014648952635642004116 -0.034037182375442065485 0.00053601094127747985537 0.010312276373968923965 0.034926622253842236343 0.038268803330850295619 -0.016871887852709422512 0.0056021977810490715052 -0.046351877878864057581 0.030019268669602503646 0.017433197301257547657 0.034157673431466729908 0.02194114503341473843 -0.060302222892342063898 0.023232575980242687469 0.020391396406428043131 0.086528275655704825486 0.0087731514315135938203 0.0062040000843494895119 0.05286435139753206669 0.02286719863702102104 0.035749019076558849473 0.069126050722324541842 -0.032084457328631320328 -0.048611095076474569732 0.0091181933509240087332 -0.028982057056070723022 -0.10826746110768029063 -0.017227824705858065663 0.021883363894586733978 -0.0376472393991468951 0.026802004713771650224 0.03878114737016299246 -0.011351546779976734794 -0.02800205013325001574 -0.029442354561838093852 -0.046231152552660081945 0.047691977107119851165 -0.050358623151607967428 -0.050440079292789659349 -0.026971652392612389254 -0.015429725060311944712 -0.063103164113190821083 -0.014648952635648835457 -0.034037182375114764799 0.019039882295598126866 0.010312276374000428278 0.034926622253846385802 0.0382688033308706127 -0.016871887852690021364 0.0056021977810233811179 -0.046351877878896226293 0.083105923093221747977 0.017433197301257533779 0.034157673431466646641 0.021941145033094348882 -0.060302222892342036142 0.023232575980242663183 0.020391396406428032723 -0.038421941133632973864 0.0087731514315424214551 0.0062040000843514436779 0.05286435139753143525 0.022867198637025746427 0.03574901907656250627 0.069126050722324597353 0.00012427853769301174295 -0.048611095076921718994 0.0091181933509240174068 -0.028982057056070729961 -0.1082674611076803739 -0.017227824705858728327 0.021883363894586553566 -0.021998896496020582669 0.026802004713769620597 0.038781147370163089605 -0.01135154677997669663 -0.028002050133250040026 -0.02944235456183810079 -0.046231152552660102761 -0.084092163166149147546 -0.050358623151558722097 -0.050440079292789645471 -0.026971652392612368437 -0.015429725060311975937 -0.063103164113190821083 -0.014648952635648799028 -0.0083831874017200793542 0.019039882295590972866 0.0103122763740004144 0.03492662225384633029 0.038268803330870578006 -0.016871887852690059528 0.0056021977810234071388 0.10717277433235351813 0.083105923093216169106 0.017433197301257575412 0.034157673431466695213 0.021941145033094355821 -0.060302222892342056959 0.023232575980242638897 -0.10404607984320285441 -0.03842194113364171687 0.0087731514315424249245 0.0062040000843514688314 0.05286435139753143525 0.022867198637025739488 0.035749019076562485453 -0.019755362919248332237 0.00012427853769460603514 -0.048611095076474035437 0.0091181933509239983249 -0.0289820570560707369 -0.10826746110768036002 -0.01722782470585871098 -0.00066634207500112043777 -0.021998896496025811126 0.026802004713769627536 0.038781147370552028486 -0.011351546780452442809 -0.028002050133250040026 -0.02944235456183810426 -0.0061070584513008528693 -0.084092163166280931019 -0.05035862315155877067 -0.050440079292789645471 -0.026971652392612361498 -0.015429725060309502221 -0.063103164113190821083 0.028275696203038821336 -0.0083831874017407589927 0.019039882295590958988 0.010312276374000421339 0.034926622253846371924 0.038268803330870591883 -0.016871887852690059528 0.014123887740454343573 0.10717277433235351813 0.083105923093216196862 0.017433197301257533779 0.034157673431466702152 0.021941145033094345412 -0.06030222289234205002 0.049074543419563583513 -0.10404607984320324299 -0.038421941133641730748 0.0087731514315424110467 0.0062040000843514523515 0.052864351397531442189 0.022867198637025742958 -0.031790196111178350979 -0.019755362919250882281 0.00012427853769460229464 -0.048611095076474049315 0.0091181933509240017943 -0.028982057056070733431 -0.10826746110768034614 0.026686974346599792729 -0.0006663420750032705191 -0.021998896496025769492 0.026802004713769631006 0.038781147370163082666 -0.01135154677997672612 -0.028002050133250043495 -0.092606450055169972635 -0.0061070584511312931905 -0.084092163166325034629 -0.050358623151558756792 -0.050440079292789645471 -0.026971652392612358029 -0.01542972506031198808 -0.042590637692743835152 0.028275696202974518606 -0.0083831874017407624622 0.019039882295590972866 0.010312276374000430013 0.034926622253846358046 0.038268803330870578006 -0.0027728759095383428111 0.014123887740439822203 0.10717277433235349038 0.083105923093216196862 0.017433197301257537248 0.034157673431466702152 0.021941145033094348882 0.048290678773356715547 0.04907454341945181181 -0.10404607984320322911 -0.038421941133641751565 0.0087731514315424110467 0.0062040000843514523515 0.05286435139753143525 -0.068929653796775028352 -0.031790196113049548621 -0.019755362919250875342 0.00012427853769460676697 -0.048611095076474042376 0.0091181933509240000596 -0.028982057056070733431 -0.0017012883068838920153 0.026686974346569306699 -0.00066634207500323398149 -0.02199889649602578684 0.026802004713769627536 0.038781147370163082666 -0.01135154677997672959 -0.086339167631967542182 -0.092606450055198713533 -0.0061070584511313530385 -0.084092163166325034629 -0.050358623151558763731 -0.050440079292789638532 -0.02697165239261235456 -0.069322120459667957437 -0.042590637692778016143 0.028275696202974515137 -0.0083831874017407520538 0.019039882295590962458 0.010312276374000421339 0.034926622253846364985 -0.038759382256389404708 -0.0027728759095420689972 0.014123887740439832611 0.10717277433235351813 0.083105923093216196862 0.017433197301257554596 0.034157673431466702152 -0.025010205343653609672 0.048290678773240960919 0.049074543419451818749 -0.10404607984320321523 -0.038421941133641730748 0.0087731514315424075773 0.0062040000843514480147 -0.12277876869297546514 -0.068929653796758971751 -0.031790196113049548621 -0.019755362919250871873 0.000124278537694609613 -0.048611095076474056254 0.0091181933509240017943 0.020619776588812893658 -0.001701288306886136097 0.02668697434656929976 -0.00066634207500323506569 -0.02199889649602578684 0.026802004713769627536 0.038781147370163082666 -0.03332828982794304451 -0.086339167631190871788 -0.092606450055198755167 -0.00610705845113135911 -0.084092163166325034629 -0.050358623151558763731 -0.050440079292789645471 -0.013109779479170085778 -0.069322120459665084735 -0.042590637692778023082 0.028275696202974511667 -0.0083831874017407485844 0.019039882295590965927 0.010312276374000424808;0.006500414191530951187 0.0022955701517466181247 0.0017737039839555946916 0.00072807237416091976755 0.00025730037922863945076 0.003646589981020046875 0.0056978633967475740899 -0.0038416601638945530907 -0.0015867850366607897002 0.0021538588342413533296 0.0019835953543471578422 0.0019828070430225283073 0.00083014862478889386074 -0.0023716724236504463375 -0.00046875162896634162699 -0.00082795021802900276974 0.0033470122045402769806 0.0024689038750119306903 -0.00027743714316790971759 -0.0014193665415090797946 -0.0015872884839254006867 0.0015418706821887127271 -0.00094887435521113735505 0.0026012880412617229824 0.0032751953427088411827 -0.0022239484605603410637 0.0018633132242795286647 0.0073043461786435970665 0.0025093310657214877753 0.0041432005538182756221 0.00084805514361729439181 0.00017133222893215893428 -0.0015444889808682285472 -0.0029930655281937153765 0.0007976389143299092389 5.8161839083689039918e-05 0.001742288131786353788 0.00036639919588282943369 -0.00043752419883842733886 -0.0070111187263973018952 -0.00060732601917520725836 -0.0038045110749164280997 0.0040212358386686325451 0.0065004141913526077359 0.0022955701523792292756 0.0017737039837574324584 0.0007280723740671409417 0.00025730037923343417224 0.0036465899809635690491 -0.0025868739675660268156 -0.0038416601638405641593 -0.0015867850366269181401 0.0021538588342116587668 0.0019835953543556163539 0.0019828070430440479857 0.000830148624766269814 -0.0022579490503952625961 -0.00046875162901629857312 -0.00082795021789799374233 0.0033470122045801613091 0.0024689038749915992975 -0.00027743714313922210758 -0.0014193665414979127291 0.0033423736812130777456 0.0015418706822024799263 -0.00094887435520005886883 0.0026012880412598282306 0.0032751953427071281433 -0.0022239484605573634109 0.0018633132242795794054 -0.00026851458087235870143 0.0025093310657214873416 0.0041432005538182799589 0.00084805514361730686013 0.00017133222893215500405 -0.0015444889808682348356 -0.0029930655281937110397 0.0029205624055834910821 5.8161839083686336189e-05 0.0017422881317863553059 0.00036639919588282753634 -0.00043752419883843601247 -0.0070111187263973044972 -0.00060732601917520899308 0.00056860783234809208781 0.0040212358386686377493 0.0065004141913526060012 0.002295570152379230143 0.0017737039837574341931 0.00072807237406713899014 0.00025730037923343379276 -0.0039380257261853691617 -0.0025868739675660281166 -0.0038416601638405615572 -0.0015867850366269179233 0.0021538588342116570321 0.0019835953543556185223 0.0019828070430440458173 -0.00085409301982694270979 -0.0022579490502554477871 -0.00046875162901629960311 -0.00082795021789799385075 0.0033470122045801608754 0.0024689038749915992975 -0.00027743714313922189073 0.00092983125796950079085 0.0033423736812130777456 0.0015418706822024794926 -0.00094887435520005941093 0.002601288041259829098 0.0032751953427071272759 -0.0022239484605573616761 0.0035387412557731342047 -0.00026851458087235783407 0.0025093310657214873416 0.0041432005538182790916 0.00084805514361730967906 0.00017133222893215641351 -0.0015444889808682350524 0.0034219955741455043013 0.0029205624055834962863 5.8161839083687027368e-05 0.0017422881317863594258 0.00036639919588282829528 -0.00043752419883843471143 -0.0070111187263973053646 0.0038069691245452850006 0.00056860783234809653304 0.0040212358386686360145 0.0065004141913526068686 0.0022955701523792292756 0.0017737039837574348437 0.00072807237406714083328 -0.0018595824053294469046 -0.0039380257261853726311 -0.0025868739675660268156 -0.0038416601638405606899 -0.0015867850366269179233 0.0021538588342116578994 0.0019835953543556167876 0.0010009237516455009656 -0.00085409301982694140875 -0.0022579490503952630298 -0.00046875162901629938627 -0.00082795021789799352549 0.0033470122045801613091 0.0024689038749916005985 0.002709389396162347266 0.00092983125796950089927 0.0033423736812130781793 0.0015418706821898424657 -0.00094887435521547752477 0.0026012880412598273633 0.003275195342707128577 -4.7357572867951644381e-05 0.0035387412557636053687 -0.00026851458087235382253 0.0025093310657214869079 0.0041432005538161306366 0.00084805514361747783882 0.00017133222893215554615 -0.0031281647983627670732 0.003421995574145503434 0.0029205624055834897811 5.8161839083687637232e-05 0.0017422881317863576911 0.00036639919588282916264 -0.00043752419883843460301 -0.00010880302515191841181 0.0038069691245452850006 0.00056860783234809382253 0.0040212358386686368819 0.0065004141913526060012 0.0022955701523792297093 0.0017737039837574348437 0.0011905965327200943114 -0.0018595824053294501572 -0.0039380257261853708964 -0.0025868739675660263819 -0.0038416601638405624246 -0.0015867850366269172727 0.0021538588342116570321 -0.0030177925305010368066 0.0010009237516454996646 -0.00085409301982694032455 -0.0022579490503952630298 -0.00046875162901629944048 -0.00082795021789799298339 0.0033470122045801613091 -0.00015397393672512692015 0.0027093893961623485671 0.00092983125796950371819 0.0033423736812130794803 0.0015418706822024788421 -0.00094887435520005908567 0.0026012880412598286643 -0.0021599028414002055878 -4.7357572868502059943e-05 0.0035387412557731333373 -0.00026851458087235501515 0.0025093310657214869079 0.0041432005538182782242 0.00084805514361731087168 -0.0062513880492929378707 -0.003128164798362770109 0.0034219955741455038677 0.0029205624055834902147 5.8161839083688023479e-05 0.0017422881317863568237 0.00036639919588282856633 0.0038324926981703295523 -0.00010880302515191602657 0.003806969124545285868 0.00056860783234809349727 0.0040212358386686351472 0.0065004141913526060012 0.002295570152379230143 0.0052174976232133530793 0.0011905965327200899746 -0.0018595824053294477719 -0.0039380257261853708964 -0.0025868739675660272492 -0.0038416601638405624246 -0.0015867850366269183569 0.0011217795368539701818 -0.0030177925305010355056 0.0010009237516454998814 -0.00085409301982694054139 -0.0022579490503952630298 -0.00046875162901629938627 -0.00082795021789799374233 0.0024346182400502057799 -0.00015397393672512692015 0.0027093893961623481334 0.00092983125796950306767 0.0033423736812130790466 0.0015418706822024797094 -0.00094887435520005886883 0.0029629326702688249702 -0.0021599028414002055878 -4.7357572868501578828e-05 0.0035387412557731346384 -0.00026851458087235490673 0.002509331065721488209 0.0041432005538182790916 -0.00046037202015481793523 -0.0062513880492929344013 -0.0031281647983627679406 0.0034219955741455030003 0.0029205624055834906484 5.8161839083687826967e-05 0.0017422881317863568237 0.0043022330454430260036 0.0038324926981703286849 -0.00010880302515191632472 0.0038069691245452850006 0.00056860783234809295517 0.0040212358386686360145 0.0065004141913526060012 0.0028550252406863820334 0.0052174976232133522119 0.0011905965327200888904 -0.0018595824053294479888 -0.0039380257261853717637 -0.0025868739675660268156 -0.0038416601638405619909 -0.0029161381212774156041 0.0011217795368539703986 -0.0030177925305010355056 0.0010009237516454998814 -0.00085409301982694086665 -0.0022579490503952625961 -0.00046875162901629916943 -0.0060068613993326724562 0.0024346182400502057799 -0.0001539739367251272183 0.0027093893961623490008 0.00092983125796950274241 0.0033423736812130790466 0.0015418706822024803599 -0.0020672994096967976276 0.0029629326702688249702 -0.0021599028414002060215 -4.7357572868502656254e-05 0.0035387412557731342047 -0.00026851458087235767144 0.0025093310657214869079 0.0019332472616316205821 -0.00046037202015481809786 -0.006251388049292936136 -0.0031281647983627683743 0.0034219955741455030003 0.0029205624055834941179 5.8161839083687481378e-05;-0.049983745867193903056 -0.039464096650584354342 -0.0028283841925421065837 -0.012397349523434242347 -0.01586361767839514908 -0.021895848629308361372 0.014937918112009467356 -0.010144732922940755127 0.0084325248621061592996 0.03331828381814723461 -0.015259038570101076532 -0.0089615849765396025234 -0.03126942809629060932 -0.0029862562336416451601 -0.045490721923361288059 -0.050787327157448318438 0.035342457001439474273 -0.033538653072322933968 -0.0057256597667114392594 0.0090505232982172577338 -0.0069502088325796625851 -0.048833118103427157475 -0.019615188564617982991 0.0265716289058959311 0.028937781097570860339 0.044554535080166539351 -0.012742185717927163521 -0.050066046724231330622 -0.00067286069753236482736 -0.0020023224451897005984 -0.016518618743215907757 -0.00084143061940763054594 -0.03323764597494820866 0.042322885984449727659 0.0023761843629295877935 0.0064437995042171489907 0.0083302903652406543045 -0.049046342696286063245 -0.00030706142973896416058 -0.036352846252158579898 0.049780742565879755601 0.019992909397344681144 -0.018638191998055261833 -0.049983745867573141364 -0.039464096651336114108 -0.0028283841920681094401 -0.012397349523572621238 -0.015863617678757036683 -0.021895848629306650934 0.016172921152663270739 -0.010144732923053831342 0.0084325248618935307737 0.033318283818270108543 -0.015259038569995749327 -0.0089615849767194777353 -0.031269428096361844005 0.001882967596040124739 -0.045490721923361891743 -0.050787327157426134794 0.035342457001482266432 -0.033538653072347601736 -0.0057256597667177961536 0.0090505232981610925919 -0.020066919201882079532 -0.048833118103405119548 -0.019615188564611567984 0.026571628905834983325 0.028937781097571176059 0.044554535080148893744 -0.012742185717861957001 0.013887009947440180635 -0.00067286069749919463767 -0.002002322445185810481 -0.016518618743197776427 -0.00084143061941912428159 -0.033237645974933643922 0.042322885984387118019 0.01504623351630208182 0.0064437995042245944238 0.0083302903652212531571 -0.049046342696323526333 -0.00030706142975810851465 -0.036352846252194474796 0.049780742565827609813 -0.045106542092569992808 -0.018638191998051931164 -0.049983745867573516064 -0.039464096651341540323 -0.0028283841920681515071 -0.012397349523572624708 -0.015863617678758767937 0.055859729658542474351 0.016172921152668762873 -0.010144732923053310925 0.0084325248618936730211 0.03331828381826673624 -0.01525903857000284955 -0.0089615849767206816334 -0.0038680787395155044432 0.0018829675960083712763 -0.045490721923361884804 -0.050787327157426634394 0.035342457001481752954 -0.033538653072347920925 -0.0057256597667177978883 0.01455949072326455894 -0.020066919201882194024 -0.048833118103405077914 -0.019615188564611578392 0.0265716289058349521 0.028937781097571151773 0.044554535080148907622 -0.032566491441608669266 0.013887009947458459416 -0.00067286069749919073454 -0.0020023224451858239251 -0.016518618743197752141 -0.0008414306194191012965 -0.033237645974933602289 -0.016624246430267376057 0.015046233516384080464 0.0064437995042245831481 0.0083302903652212375446 -0.049046342696323540211 -0.0003070614297581162667 -0.036352846252194433163 -0.080495371459634604272 -0.045106542092566148661 -0.018638191998051927695 -0.049983745867573488308 -0.039464096651341540323 -0.0028283841920681415325 -0.012397349523572635116 0.092762874940134923407 0.055859729658542398023 0.01617292115266878369 -0.0101447329230532797 0.0084325248618936678169 0.033318283818266743179 -0.015259038570002865162 -0.031247200305965491807 -0.003868078739595258355 0.0018829675960083775647 -0.045490721923361891743 -0.050787327157426627455 0.035342457001481766832 -0.033538653072347934803 -0.029706094056575069878 0.014559490723265898146 -0.020066919201882239127 -0.048833118103461789494 -0.019615188564611578392 0.02657162890583495557 0.028937781097571151773 -0.065866337487601914202 -0.032566491441598274803 0.013887009947458440334 -0.00067286069749919322821 -0.0020023224451879918957 -0.016518618743197738263 -0.00084143061941909620075 -0.053716259016117158531 -0.016624246430264819074 0.015046233516384078729 0.0064437995042245831481 0.0083302903652212167279 -0.049046342696323540211 -0.00030706142975810602098 0.00015860166523740018129 -0.080495371459626319233 -0.045106542092566148661 -0.018638191998051927695 -0.049983745867573467492 -0.039464096651341554201 -0.002828384192068138063 -0.050639235642784462266 0.092762874940127040824 0.055859729658542391084 0.016172921152668766342 -0.010144732923053283169 0.0084325248618936660822 0.033318283818266743179 -0.019111060678655717587 -0.031247200305955492861 -0.0038680787395952999884 0.0018829675960083749626 -0.045490721923361877865 -0.050787327157426634394 0.035342457001481759893 -0.022976667546356903393 -0.029706094056573907614 0.014559490723265886003 -0.020066919201882204432 -0.048833118103405064037 -0.019615188564611578392 0.026571628905834959039 -0.014848207224213304592 -0.065866337487665627126 -0.03256649144159829562 0.0138870099474584386 -0.00067286069749917967568 -0.0020023224451858178535 -0.016518618743197745202 -0.032271967916565003076 -0.053716259016112072322 -0.016624246430264826013 0.015046233516384073525 0.0064437995042245918217 0.0083302903652212149932 -0.049046342696323540211 -0.047690322460230270829 0.00015860166524159533897 -0.080495371459626319233 -0.045106542092566141722 -0.018638191998051924225 -0.04998374586757348137 -0.039464096651341547262 -0.011513722775614037078 -0.0506392356428013099 0.092762874940127040824 0.055859729658542377206 0.016172921152668773281 -0.010144732923053286638 0.0084325248618936695516 -0.0043890888057380424495 -0.019111060678652445899 -0.031247200305955489391 -0.0038680787395952982537 0.0018829675960083710595 -0.045490721923361891743 -0.050787327157426641333 -0.016776501673084850963 -0.022976667546356289301 -0.029706094056573907614 0.014559490723265891207 -0.020066919201882204432 -0.048833118103405098731 -0.019615188564611581862 0.011180670235750179986 -0.014848207224213953379 -0.065866337487662823813 -0.03256649144159829562 0.013887009947458426457 -0.00067286069749916861682 -0.0020023224451858169862 0.031030778710542123583 -0.03227196791655161795 -0.053716259016112072322 -0.016624246430264829483 0.015046233516384061382 0.0064437995042245866176 0.0083302903652212184626 -0.012131127968964460981 -0.047690322460228092016 0.00015860166524159395661 -0.080495371459626305355 -0.045106542092566134783 -0.018638191998051927695 -0.049983745867573488308 -0.021466039068840151588 -0.011513722775597194647 -0.0506392356428013099 0.092762874940127026946 0.055859729658542370268 0.016172921152668773281 -0.010144732923053284904 -0.003703533546950853704 -0.0043890888057437063216 -0.019111060678652449368 -0.031247200305955485922 -0.0038680787395953004221 0.0018829675960083743121 -0.045490721923361891743 0.0016424720890369107294 -0.01677650167308424034 -0.022976667546356275423 -0.029706094056573911083 0.014559490723265880799 -0.020066919201882204432 -0.048833118103405084853 -0.016104636666547902241 0.011180670235747378408 -0.014848207224213927358 -0.065866337487662809935 -0.032566491441598288681 0.01388700994745843513 -0.00067286069749917945884 -0.019399701189447237509 0.031030778710540159876 -0.032271967916551624889 -0.053716259016112079261 -0.016624246430264832952 0.01504623351638407526 0.0064437995042245918217;0.050301957736780665564 0.054918440429619470866 -0.037211110844126385477 -0.047900486014572515869 -0.034725716965644394529 -0.019650388430068808227 0.024466766862030087104 -0.020981612865943265189 -0.061751500048616535243 0.07794828664257787143 0.0098088691544157818186 0.012973309951008114849 0.0059286271209308570238 0.056474106169035538649 0.044474154785600870932 0.027558328275039789546 0.025057499253391943284 -0.023045431897772292174 -0.012368619255082924369 0.027027606950031115435 0.079748027608306959468 0.0089229038474508571427 -0.045722209552696867207 -0.012104372825980916004 0.0078482376506554488854 0.029676745915656579239 -0.039571714634986383807 -0.086293057117570487469 0.071470299262481787328 0.015109776775995112028 -0.012826043134852308653 0.015304241197765536264 -0.013403365447892810064 -0.013765543401665568737 0.10893861614708313934 0.028432444175192410352 0.030549083449736110646 -0.024198017010446649239 0.024153634321658817852 -0.02287818331954985171 0.0098620180074477700044 0.094522299680832339019 -0.016296377779900911992 0.05030195773617964633 0.054918440431759280029 -0.037211110843453271135 -0.047900486015016209562 -0.034725716965692980664 -0.0196503884301167768 -0.05923631699331068784 -0.020981612866130247563 -0.061751500050465632508 0.077948286642920389111 0.0098088691544258171939 0.012973309950978336585 0.0059286271209064659443 -0.05904519285852115329 0.044474154785291958314 0.027558328274994062235 0.025057499252966276837 -0.023045431897780334352 -0.01236861925514555309 0.027027606949914847329 0.076708407447810197932 0.0089229038473712628254 -0.045722209552631183638 -0.012104372825993303664 0.0078482376498275087384 0.029676745915658477026 -0.039571714635017005146 -0.017966258460523080315 0.071470299262553008135 0.015109776776050930225 -0.012826043134600050369 0.015304241197737796301 -0.013403365448287652209 -0.013765543399592572449 0.0091966123811229646273 0.028432444175162021466 0.030549083449629858833 -0.024198017010454320186 0.024153634322012285107 -0.0228781833197783252 0.0098620180073898042195 0.017553499815411349738 -0.016296377779896273341 0.050301957736179667147 0.054918440431759307785 -0.037211110843410603877 -0.047900486015016202623 -0.034725716965689608362 -0.038614957709780843575 -0.059236316993419094179 -0.020981612866130823492 -0.061751500050465625569 0.077948286642919528688 0.0098088691544258553578 0.012973309950978256788 -0.040566659371121777111 -0.059045192858602407737 0.044474154785291937497 0.027558328274993850598 0.025057499252967400938 -0.023045431897777749614 -0.012368619255145534008 0.024135445847186031559 0.076708407447809906499 0.0089229038473712333351 -0.045722209552631183638 -0.012104372825993317542 0.007848237649827486187 0.029676745915658494374 -0.038971925140686820843 -0.01796625846157383008 0.071470299262553035891 0.015109776776050935429 -0.012826043134600064247 0.015304241197737850078 -0.013403365448287667822 0.0083035387279653174314 0.0091966123811438871272 0.02843244417516199718 0.030549083449629883119 -0.024198017010454299369 0.024153634322012271229 -0.022878183319778311322 0.084619401757812365283 0.017553499815433512565 -0.01629637777989628028 0.050301957736179681024 0.054918440431759286968 -0.037211110843410617754 -0.047900486015016195684 -0.090154740904990440797 -0.038614957709998641577 -0.05923631699341908724 -0.020981612866130820022 -0.061751500050465625569 0.077948286642919500933 0.0098088691544258761745 0.0020157685082547896309 -0.040566659370972715792 -0.059045192858602484065 0.044474154785291965253 0.02755832827499384366 0.025057499252967380121 -0.02304543189777770798 -0.016287757643258047452 0.024135445847218394561 0.076708407447809892621 0.0089229038474056571878 -0.045722209552631183638 -0.012104372825993301929 0.0078482376498274896565 -0.0068133067471151508715 -0.038971925140620873595 -0.017966258461573816202 0.071470299262553022013 0.015109776776052229533 -0.012826043134600052104 0.0153042411977378362 0.05807386934171118037 0.008303538728133783367 0.0091966123811439148827 0.02843244417516199371 0.030549083449629883119 -0.024198017010454316716 0.024153634322012288577 -0.019958867820011064187 0.084619401757775478123 0.017553499815433498688 -0.016296377779896294158 0.050301957736179694902 0.054918440431759314724 -0.037211110843410610816 0.032010694378759585454 -0.090154740904989122408 -0.038614957709998669333 -0.059236316993419101118 -0.02098161286613083043 -0.061751500050465597813 0.077948286642919528688 0.04022141195050366741 0.0020157685083853323429 -0.040566659370972701915 -0.059045192858602491004 0.044474154785291951375 0.027558328274993861007 0.025057499252967380121 0.010787634862797700411 -0.016287757643288953285 0.024135445847218391091 0.076708407447809878743 0.0089229038473712558865 -0.045722209552631176699 -0.012104372825993314072 0.014260507853049131724 -0.00681330674705700641 -0.038971925140620873595 -0.01796625846157382661 0.071470299262553008135 0.015109776776050914612 -0.012826043134600053838 0.040108956202233335409 0.058073869342485234801 0.0083035387281338041837 0.0091966123811439235564 0.028432444175162000649 0.030549083449629886589 -0.024198017010454306308 -0.085181713261732933118 -0.019958867819952881562 0.084619401757775464246 0.017553499815433516035 -0.016296377779896294158 0.050301957736179687963 0.054918440431759314724 0.039719027992792727 0.032010694378780533975 -0.090154740904989094652 -0.038614957709998669333 -0.059236316993419101118 -0.020981612866130823492 -0.06175150005046561863 -0.008788453276613010165 0.040221411950692315118 0.0020157685083853379808 -0.040566659370972681098 -0.059045192858602484065 0.044474154785291972192 0.027558328274993867946 0.01340043389226902755 0.010787634862888431653 -0.016287757643288977571 0.024135445847218401499 0.076708407447809892621 0.0089229038473712541518 -0.045722209552631183638 -0.00011226648518765662468 0.014260507852568311479 -0.0068133067470481818717 -0.038971925140620894412 -0.01796625846157382661 0.071470299262553008135 0.015109776776050921551 -0.035344439558582158023 0.040108956202366125021 0.05807386934248524174 0.0083035387281337989795 0.0091966123811439252911 0.028432444175162011057 0.030549083449629886589 -0.044867100798895789837 -0.085181713261744437804 -0.01995886781995289197 0.084619401757775478123 0.017553499815433526443 -0.016296377779896287219 0.050301957736179681024 0.038012933001955732937 0.039719027992687921946 0.032010694378780527036 -0.090154740904989122408 -0.038614957709998662394 -0.059236316993419108057 -0.02098161286613083043 0.048531786029248340231 -0.0087884532766295195283 0.040221411950692315118 0.0020157685083853236693 -0.04056665937097266722 -0.059045192858602491004 0.044474154785291958314 -0.0114167492090113884 0.013400433892222653187 0.010787634862888424714 -0.016287757643288967163 0.024135445847218401499 0.076708407447809892621 0.0089229038473712576213 -0.014860668159426082199 -0.00011226648505063599437 0.014260507852568301071 -0.0068133067470481879432 -0.038971925140620894412 -0.017966258461573819671 0.071470299262553008135 -0.12021798959843542354 -0.035344439558598339524 0.040108956202366111143 0.058073869342485248679 0.0083035387281338041837 0.0091966123811439287605 0.028432444175162011057;0.0081524537220372811364 0.011290551828103326595 -0.03515262391439767653 -0.0019863531274022694535 -0.032709842494859295292 -0.045645416415189613013 -0.059574307039248666773 -0.04173923375457920526 -0.045353723147873080401 -0.021081983615020429002 0.0084121613155573749659 0.00085954336312650525802 -0.019884116688492558395 -0.00033426603997141073098 -0.006378771776473600788 -0.016517218531152930844 -0.051640680477405311033 0.02102226378491856007 -0.024829064052035408616 -0.052113366050279510966 -0.052408871573618662221 0.041226471448617296733 0.041426279995840441239 -0.011563006538529284339 -0.055901349736063823959 0.014537631292905495509 0.037031163730856617167 -0.001349132117460254696 0.0014015530641926096048 -0.03064413828061047021 0.014498425379474625882 -0.063535093701180669901 -0.034527699001858952466 -0.0018123887289790074299 -0.0086979880121387381786 -0.01124485330637240918 -0.0077134868859245918002 0.01373668201041345141 -0.038463573226122288462 0.017560777979233464785 -0.028666581066134400047 0.01304070674145430854 -0.014567664426944031478 0.0081524537194639368209 0.011290551827700655643 -0.035152623914498068447 -0.0019863531274818099943 -0.032709842494424726245 -0.045645416415593706438 -0.01310179693597083618 -0.041739233754684794409 -0.045353723148114928609 -0.021081983615166971502 0.0084121613158674186234 0.00085954336312754750157 -0.019884116688468664313 -0.01919216301388345855 -0.0063787717764877604684 -0.016517218531117802693 -0.051640680477469523557 0.021022263784927639613 -0.024829064051993744028 -0.05211336605043067477 0.026628148581118084998 0.041226471448619080029 0.041426279995830317393 -0.011563006538585402644 -0.055901349736083849606 0.014537631292892760904 0.037031163730870682305 -0.0072378811004817538224 0.0014015530641870209763 -0.030644138280608360786 0.014498425379477644301 -0.063535093701181030723 -0.034527699001826651914 -0.0018123887289101150554 -0.03200517155289275828 -0.011244853306395130588 -0.0077134868858955898258 0.013736682010483185559 -0.038463573226111893999 0.017560777979280902533 -0.028666581066218589646 0.0072382372494335578059 -0.014567664426931104318 0.0081524537194639402904 0.011290551827700704215 -0.035152623914498005997 -0.0019863531274810293688 -0.032709842494424809511 -0.0031746717959278600817 -0.013101796935970667912 -0.041739233754684856859 -0.045353723148114977182 -0.021081983615166891705 0.0084121613158649483771 0.00085954336312755682571 -0.017502017771683180819 -0.01919216301389023438 -0.0063787717764877934282 -0.016517218531117771468 -0.051640680477469599885 0.021022263784926737556 -0.024829064051993803008 0.030235595641883675211 0.026628148581125509614 0.04122647144861901064 0.041426279995830268821 -0.011563006538585399174 -0.055901349736083863484 0.014537631292892727944 0.0012718084546355528687 -0.0072378811005097357795 0.0014015530641870188079 -0.030644138280608371194 0.01449842537947768073 -0.063535093701181058479 -0.034527699001826589464 0.0035848696689985645215 -0.032005171552939658264 -0.011244853306395130588 -0.0077134868858955794174 0.013736682010483176886 -0.038463573226111900938 0.017560777979280881717 0.037952702612470905208 0.0072382372493936765132 -0.014567664426931109523 0.0081524537194639194737 0.011290551827700721563 -0.035152623914498026814 -0.0019863531274810267667 -0.05270676862233047294 -0.0031746717959220526611 -0.013101796935970706076 -0.041739233754684836042 -0.045353723148114970243 -0.021081983615166853541 0.0084121613158649397035 -0.012524195402917310746 -0.017502017771695049797 -0.019192163013890248258 -0.0063787717764878038365 -0.016517218531117774938 -0.051640680477469662335 0.021022263784926754904 -0.0022425494001786835246 0.030235595641888744073 0.026628148581125520022 0.041226471448619003701 0.041426279995830282699 -0.011563006538758463862 -0.055901349736083863484 -0.0020853785864182270565 0.0012718084546538353363 -0.0072378811004818448954 0.0014015530641870279152 -0.030644138280608371194 0.014498425379477672056 -0.063535093701181072356 0.0075015200492480060834 0.0035848696690313373511 -0.03200517155293967908 -0.011244853306395120179 -0.0077134868858955742132 0.013736682010483183825 -0.038463573226111921755 -0.010285359666406103038 0.037952702612469878252 0.0072382372493936947278 -0.014567664426931106053 0.0081524537194639264126 0.011290551827700707685 -0.035152623914498012936 0.019390983083842780466 -0.05270676862233072274 -0.0031746717959221021008 -0.01310179693597071128 -0.041739233754684836042 -0.045353723148114991059 -0.021081983615166874357 -0.00047466032518287846684 -0.012524195402888814443 -0.017502017771695063675 -0.019192163013890248258 -0.0063787717764877934282 -0.016517218531117771468 -0.051640680477469613763 0.026025484330702123442 -0.0022425494001801242125 0.030235595641888775298 0.026628148581125523492 0.04122647144861901064 0.041426279995830282699 -0.011563006538585400909 -0.034330301979352793873 -0.0020853785863852902956 0.0012718084546538212416 -0.0072378811005096967482 0.001401553064187022711 -0.030644138280608392011 0.014498425379477685934 0.0018972764490459816458 0.0075015200492328003648 0.0035848696690313759487 -0.032005171552939672142 -0.011244853306395134057 -0.0077134868858955811521 0.01373668201048318209 -0.056240790853767784474 -0.010285359666346064259 0.037952702612469892129 0.0072382372493936860541 -0.014567664426931099114 0.0081524537194639194737 0.011290551827700700746 0.0094994410257229974781 0.019390983083843862933 -0.05270676862233072274 -0.0031746717959220795494 -0.01310179693597071475 -0.041739233754684836042 -0.045353723148114984121 0.0054656279902505671212 -0.00047466032514960912686 -0.0125241954028888023 -0.017502017771695063675 -0.019192163013890265605 -0.0063787717764877994997 -0.016517218531117774938 0.018760007712780746303 0.026025484330680866141 -0.0022425494001801341871 0.030235595641888730195 0.026628148581125502675 0.04122647144861901064 0.041426279995830282699 -0.017048260504263453019 -0.03433030197934440475 -0.0020853785863852946324 0.001271808454653817989 -0.0072378811005097019524 0.0014015530641870229279 -0.030644138280608385072 0.011016481393525089094 0.0018972764491394298984 0.0075015200492328020995 0.003584869669031372913 -0.032005171552939672142 -0.011244853306395123649 -0.0077134868858955794174 -0.031074685412936974005 -0.056240790853761699064 -0.010285359666346065993 0.037952702612469892129 0.0072382372493936903909 -0.014567664426931104318 0.0081524537194639160043 0.0028496073076334999322 0.0094994410257439217127 0.019390983083843838647 -0.052706768622330708862 -0.0031746717959220825851 -0.01310179693597071475 -0.041739233754684842981 0.011930457711231096801 0.0054656279902550253605 -0.00047466032514964403817 -0.012524195402888793627 -0.017502017771695060205 -0.019192163013890244788 -0.0063787717764878021018 0.031235130151868982507 0.018760007712804397523 0.02602548433068086961 -0.0022425494001801341871 0.030235595641888768359 0.026628148581125506145 0.04122647144861901064 0.029709398666892469776 -0.017048260504235211721 -0.034330301979344397811 -0.0020853785863852968008 0.0012718084546538199406 -0.0072378811005096950135 0.001401553064187020109 0.0085700181208413703238 0.011016481393486319759 0.0018972764491394311995 0.0075015200492328125079 0.0035848696690313620709 -0.032005171552939665203 -0.011244853306395134057;0.0067210494182367817861 0.002374737580514308527 0.0018332445335237136392 0.00075309642581508607316 0.00027064271875357269297 0.0037682497914037784391 0.0058822344607952032833 -0.0039603881471608412546 -0.0016302017969340618867 0.002249588601773737026 0.002073970233897257532 0.0020646320521643872319 0.00087665474230432601128 -0.0024266920586734344253 -0.00048816797002049878377 -0.00085975293489903902109 0.0034672608218299623764 0.0025596642177141580229 -0.00028155079350609577785 -0.0014616710753549101362 -0.0016394547165168200931 0.001597964661474793888 -0.00097258751942625972561 0.0026946045246055002828 0.0033912941713891550308 -0.002294061526460346688 0.0019284278864860227454 0.0075482681795479185383 0.0025612826445197338192 0.0042558225223187336542 0.0008448419127570090106 0.00014456993599287496703 -0.0016268570730895949225 -0.003121836074344316956 0.000796226893311001915 3.7115410085744522965e-05 0.0017838200989866957735 0.00035460537783734043249 -0.00047400471804662322895 -0.0072654407297266018068 -0.00064929285711329265667 -0.0039538693967579949945 0.0041587777569398933636 0.0067210494179607777401 0.0023747375804093950533 0.0018332445335452595553 0.0007530964255470819213 0.00027064271880746317879 0.0037682497913672906992 -0.0026617879205316618413 -0.0039603881470855412453 -0.0016302017969610253442 0.002249588601741000192 0.0020739702339453536077 0.0020646320521952757181 0.0008766547422177663456 -0.0023310594950464182638 -0.00048816796995887647278 -0.00085975293486152811959 0.0034672608218372703327 0.0025596642177605289162 -0.00028155079348775460075 -0.0014616710753368937319 0.0034587615088144492079 0.0015979646614769017939 -0.00097258751944642285025 0.0026946045246080451221 0.0033912941713884173396 -0.0022940615264598653023 0.0019284278864860864965 -0.00029333509422960597985 0.0025612826445197498654 0.0042558225223187371236 0.00084484191275701692528 0.00014456993599287166021 -0.0016268570730896029456 -0.0031218360743443178233 0.0030101329294645647744 3.7115410085744821121e-05 0.0017838200989867007609 0.00035460537783733853514 -0.00047400471804662371684 -0.00726544072972659747 -0.0006492928571132943914 0.00058723676810158091481 0.0041587777569398959657 0.0067210494179607742707 0.002374737580409398089 0.0018332445335452604226 0.00075309642554708311393 0.00027064271880746312458 -0.0040566508900733658921 -0.0026617879205316609739 -0.0039603881470855412453 -0.0016302017969610264284 0.0022495886017410027941 0.0020739702339453562098 0.0020646320521952748507 -0.00088508548267552560659 -0.0023310594950464173965 -0.0004881679699588781533 -0.00085975293486152844485 0.0034672608218372694654 0.0025596642177605297835 -0.00028155079348775449233 0.000969370336616151183 0.0034587615088144470395 0.0015979646614769017939 -0.00097258751944642230815 0.0026946045246080451221 0.0033912941713884190743 -0.002294061526459868338 0.0036318542917610405728 -0.00029333509422960587143 0.0025612826445197485643 0.0042558225223187345215 0.00084484191275702126209 0.00014456993599287607834 -0.0016268570730896035961 0.0035190258686698459682 0.0030101329294645660754 3.7115410085745763021e-05 0.0017838200989867016282 0.00035460537783734070354 -0.00047400471804662463841 -0.0072654407297265957352 0.0039302244917158776077 0.00058723676810158254111 0.0041587777569398942309 0.006721049417960775138 0.0023747375804093985227 0.0018332445335452602058 0.0007530964255470819213 -0.0019002974001181770995 -0.0040566508900733676268 -0.0026617879205316614076 -0.0039603881470855403779 -0.00163020179696102838 0.0022495886017410040951 0.0020739702339453570772 0.0010369552722261619632 -0.00088508548267552495607 -0.0023310594950464173965 -0.00048816796995887782804 -0.00085975293486152833643 0.003467260821837269899 0.0025596642177605302172 0.0028083761521746236113 0.00096937033661615139984 0.0034587615088144461721 0.0015979646614769011433 -0.00097258751944642219973 0.0026946045246081865021 0.0033912941713884199417 -8.8558884022622955416e-05 0.0036318542917610388381 -0.0002933350942308032101 0.0025612826445197485643 0.0042558225223187336542 0.00084484191275702158735 0.00014456993599287626807 -0.0032588588482671126956 0.0035190258686698433661 0.0030101329294645660754 3.7115410085745505523e-05 0.0017838200989867020619 0.00035460537783734086617 -0.00047400471804662425894 -0.00011293014483492320706 0.003930224491715875873 0.00058723676810158243269 0.0041587777569398942309 0.0067210494179607760054 0.0023747375804093972217 0.0018332445335452591216 0.0012516614252736388366 -0.0019002974001181773163 -0.0040566508900733676268 -0.0026617879205316605402 -0.0039603881470855412453 -0.00163020179696102838 0.0022495886017410036614 -0.0031121153534255886416 0.0010369552722261621801 -0.00088508548267552332976 -0.0023310594950464191312 -0.00048816796995887902066 -0.00085975293486152801117 0.0034672608218372712001 -0.00015476787585193467023 0.0028083761521746236113 0.00096937033661615053248 0.0034587615088144457384 0.0015979646614769022275 -0.0009725875194464210071 0.0026946045246080451221 -0.0022604740608111158554 -8.8558884022625828552e-05 0.0036318542917610388381 -0.00029333509422960603406 0.0025612826445197502991 0.0042558225223187327868 0.00084484191275702234629 -0.0064795368466819625378 -0.0032588588482671144303 0.0035190258686698455345 0.0030101329294645660754 3.71154100857464542e-05 0.0017838200989867003272 0.00035460537783734043249 0.0039608208409016108092 -0.00011293014483492410153 0.0039302244917158776077 0.00058723676810158254111 0.0041587777569398942309 0.006721049417960775138 0.0023747375804093959206 0.0054109470416260369713 0.0012516614252736381861 -0.0019002974001181801352 -0.0040566508900733684942 -0.0026617879205316614076 -0.0039603881470855412453 -0.0016302017969610281631 0.0011699982895374096744 -0.0031121153534255890753 0.0010369552722261621801 -0.0008850854826755235466 -0.0023310594950464199986 -0.00048816796995887864119 -0.00085975293486152811959 0.0025169420791446316978 -0.00015476787585193391129 0.0028083761521746231776 0.00096937033661615107458 0.0034587615088144466058 0.0015979646614769026612 -0.00097258751944642209131 0.0030358666237393049092 -0.0022604740608111175901 -8.8558884022626980516e-05 0.0036318542917610379707 -0.00029333509422960684721 0.0025612826445197498654 0.0042558225223187319194 -0.00049284750721824790477 -0.0064795368466819634051 -0.0032588588482671135629 0.0035190258686698451009 0.0030101329294645647744 3.7115410085746650712e-05 0.001783820098986699243 0.004448157875251063792 0.0039608208409016090745 -0.00011293014483492366785 0.0039302244917158776077 0.00058723676810158210743 0.0041587777569398950983 0.006721049417960775138 0.0029713529191274751055 0.0054109470416260343692 0.0012516614252736386198 -0.0019002974001181781837 -0.0040566508900733676268 -0.0026617879205316605402 -0.0039603881470855403779 -0.0030053325091312613378 0.0011699982895374107586 -0.0031121153534255903764 0.0010369552722261626138 -0.00088508548267552224556 -0.0023310594950464191312 -0.00048816796995887761119 -0.0062083297752140841758 0.0025169420791446321314 -0.0001547678758519345347 0.0028083761521746227439 0.00096937033661615139984 0.0034587615088144474731 0.0015979646614769020107 -0.0021561720767799461528 0.0030358666237393053429 -0.0022604740608111158554 -8.85588840226263571e-05 0.003631854291761037537 -0.00029333509422960668458 0.0025612826445197502991 0.0019842250684954198907 -0.00049284750721824812161 -0.0064795368466819634051 -0.0032588588482671122619 0.0035190258686698455345 0.003010132929464563907 3.7115410085745986638e-05;-0.00038046585186403934775 -0.00013453891838494821368 -0.00010698787402191648442 -4.3244595377110054758e-05 -1.4388255424041701162e-05 -0.00021390820806997955282 -0.00033951243380056581999 0.00024283082244946126854 0.00011226108044081769101 -9.7699527439421769465e-05 -8.6584226603332665648e-05 -9.4837023179625699518e-05 -2.4029789873436663159e-05 0.00016351535221900128855 2.3788608823866612857e-05 4.6711852942061666248e-05 -0.00018889577216024626524 -0.00013499565199313673033 1.9185935519202154757e-05 8.3620256273918606126e-05 9.1949731225811668451e-05 -8.4202304091733162794e-05 6.2104657797837074687e-05 -0.00014565883638528216585 -0.00018325171476960908502 0.00013178934940513296805 -0.00010382198905970680997 -0.00041777257539429797422 -0.00018290121360255422612 -0.00026658091068775224526 -8.3474474618983526548e-05 -4.5464114808682631625e-05 5.6509714867018002212e-05 0.00014066138450612741839 -7.8834807131248756671e-05 -2.9903988049847317191e-05 -0.00011767738216977316837 -4.6245215152221534421e-05 4.3719261830611165218e-07 0.00038485266819506073208 9.0571981931939629038e-06 0.00019511452134673371722 -0.00023614028733047812136 -0.00038046585189735823576 -0.00013453891838104386613 -0.00010698787403114880473 -4.3244595380574399183e-05 -1.4388255425373098042e-05 -0.0002139082080652290668 0.00017091974500894102141 0.00024283082244935257727 0.00011226108043842329828 -9.769952743828751781e-05 -8.6584226604493493809e-05 -9.4837023181117493945e-05 -2.402978987505353047e-05 0.00013197028777050650574 2.3788608822312636048e-05 4.6711852943020663398e-05 -0.00018889577216070352751 -0.0001349956519919036401 1.9185935520009177256e-05 8.3620256273399151312e-05 -0.00019035370097889392038 -8.4202304091829046923e-05 6.2104657798030482802e-05 -0.00014565883638526159311 -0.00018325171476958978622 0.00013178934940519094576 -0.00010382198905971401991 -7.5336674378326874994e-06 -0.00018290121360255631321 -0.00026658091068775224526 -8.347447461898455654e-05 -4.5464114808682462218e-05 5.6509714867018693391e-05 0.00014066138450612720155 -0.00018344812254012649293 -2.990398804984717489e-05 -0.00011767738216977341231 -4.6245215152221480211e-05 4.3719261830625517133e-07 0.0003848526681950608405 9.0571981931939019175e-06 -3.6516376920552245185e-05 -0.00023614028733047844662 -0.00038046585189735812734 -0.00013453891838104394744 -0.0001069878740311488725 -4.3244595380574372078e-05 -1.4388255425373096347e-05 0.00024575928722910558811 0.00017091974500894112983 0.00024283082244935257727 0.00011226108043842321696 -9.7699527438287775308e-05 -8.6584226604493344731e-05 -9.483702318111746684e-05 4.5318644505392823452e-05 0.00013197028777050664127 2.3788608822312693646e-05 4.6711852943020663398e-05 -0.00018889577216070355462 -0.00013499565199190382983 1.9185935520009173868e-05 -4.6445998874330877775e-05 -0.00019035370097889370354 -8.4202304091829033371e-05 6.2104657798030415039e-05 -0.0001456588363852615389 -0.00018325171476958970491 0.00013178934940519110839 -0.00023631599261737516629 -7.5336674378327671205e-06 -0.00018290121360255631321 -0.00026658091068775224526 -8.3474474618984841143e-05 -4.5464114808682529981e-05 5.6509714867018706944e-05 -0.00022190561033644048299 -0.00018344812254012676398 -2.9903988049847279922e-05 -0.00011767738216977348007 -4.6245215152221459882e-05 4.3719261830627502366e-07 0.00038485266819506078629 -0.00022827099033947238359 -3.6516376920552353605e-05 -0.00023614028733047839241 -0.00038046585189735796471 -0.00013453891838104392034 -0.00010698787403114879118 -4.3244595380574344973e-05 0.00013092162103214266522 0.00024575928722910564232 0.00017091974500894104852 0.00024283082244935249596 0.00011226108043842328472 -9.769952743828773465e-05 -8.6584226604493439599e-05 -5.7383668968270965069e-05 4.5318644505392897991e-05 0.00013197028777050669548 2.3788608822312669929e-05 4.6711852943020683727e-05 -0.00018889577216070344619 -0.0001349956519919036672 -0.00014755203500568000834 -4.644599887433079646e-05 -0.00019035370097889375775 -8.4202304091828992713e-05 6.2104657797466697672e-05 -0.00014565883638715574852 -0.00018325171476958981333 -3.7275882157534146139e-05 -0.00023631599261689383473 -7.5336674379516219366e-06 -0.00018290121360255636742 -0.00026658091068775235368 -8.347447461898551877e-05 -4.546411480868244189e-05 0.00015404446738004662939 -0.00022190561033644040168 -0.00018344812254012673688 -2.9903988049847249429e-05 -0.00011767738216977334455 -4.6245215152221446329e-05 4.3719261830628884089e-07 4.3329854620360563392e-06 -0.00022827099033947241069 -3.6516376920552360381e-05 -0.0002361402873304783382 -0.00038046585189735796471 -0.00013453891838104381192 -0.00010698787403114880473 -4.6562306776555438201e-05 0.00013092162103214269233 0.00024575928722910558811 0.00017091974500894104852 0.00024283082244935265859 0.00011226108043842320341 -9.7699527438287761755e-05 0.00017685438993013296639 -5.7383668968270992174e-05 4.5318644505392830229e-05 0.00013197028777050664127 2.3788608822312700422e-05 4.6711852943020622741e-05 -0.00018889577216070358172 1.5732636449601667322e-05 -0.00014755203500567998123 -4.6445998874330701592e-05 -0.00019035370097889381196 -8.4202304091828965608e-05 6.2104657798030306619e-05 -0.0001456588363852615389 9.3028419420422998063e-05 -3.727588215753423423e-05 -0.00023631599261737530181 -7.5336674378326697117e-06 -0.00018290121360255642163 -0.00026658091068775224526 -8.3474474618984922459e-05 0.00034059629908734498143 0.00015404446738004660229 -0.00022190561033644042878 -0.00018344812254012668267 -2.9903988049847225712e-05 -0.00011767738216977337165 -4.6245215152221493763e-05 -0.00022002638701136098434 4.332985462035999588e-06 -0.00022827099033947241069 -3.6516376920552292618e-05 -0.00023614028733047836531 -0.0003804658518973579105 -0.00013453891838104400165 -0.000283294864116713529 -4.6562306776555343333e-05 0.00013092162103214271943 0.00024575928722910575074 0.00017091974500894112983 0.00024283082244935257727 0.00011226108043842327117 -5.7606228308668747508e-05 0.00017685438993013293928 -5.7383668968271093818e-05 4.5318644505392816676e-05 0.00013197028777050672258 2.3788608822312659765e-05 4.6711852943020683727e-05 -0.00013587757104993727691 1.5732636449601701203e-05 -0.00014755203500568003544 -4.644599887433068804e-05 -0.00019035370097889378485 -8.4202304091828952056e-05 6.2104657798030347277e-05 -0.00020164897175007574282 9.3028419420423052273e-05 -3.7275882157534186796e-05 -0.00023631599261737519339 -7.5336674378326112664e-06 -0.00018290121360255634031 -0.00026658091068775229947 7.4124497385687717921e-06 0.00034059629908734492722 0.00015404446738004660229 -0.00022190561033644045589 -0.00018344812254012668267 -2.9903988049847259593e-05 -0.00011767738216977334455 -0.00024915403650645797902 -0.00022002638701136095723 4.3329854620360402456e-06 -0.00022827099033947241069 -3.6516376920552319723e-05 -0.00023614028733047841952 -0.00038046585189735796471 -0.0001405818342621721769 -0.000283294864116713529 -4.656230677655532978e-05 0.00013092162103214277365 0.00024575928722910569653 0.00017091974500894104852 0.00024283082244935257727 0.00017458447807495579718 -5.7606228308668801718e-05 0.00017685438993013285797 -5.7383668968271080266e-05 4.5318644505392857334e-05 0.00013197028777050669548 2.3788608822312680094e-05 0.00035090360387224779062 -0.0001358775710499372227 1.573263644960156229e-05 -0.00014755203500568008965 -4.644599887433068804e-05 -0.00019035370097889378485 -8.4202304091829019818e-05 9.7088942019492782405e-05 -0.00020164897175007576993 9.3028419420423025168e-05 -3.7275882157534139362e-05 -0.00023631599261737519339 -7.5336674378325960198e-06 -0.00018290121360255642163 -0.00012410191078813980945 7.4124497385686845477e-06 0.00034059629908734508985 0.0001540444673800466836 -0.00022190561033644048299 -0.00018344812254012662846 