function [Y,Xf,Af] = myNeuralNetworkFunction(X,Xi,~)
%MYNEURALNETWORKFUNCTION neural network simulation function.
%
% Generated by Neural Network Toolbox function genFunction, 22-Jan-2018 18:31:16.
%
% [Y,Xf,Af] = myNeuralNetworkFunction(X,Xi,~) takes these arguments:
%
%   X = 2xTS cell, 2 inputs over TS timesteps
%   Each X{1,ts} = 42xQ matrix, input #1 at timestep ts.
%   Each X{2,ts} = 1xQ matrix, input #2 at timestep ts.
%
%   Xi = 2x7 cell 2, initial 7 input delay states.
%   Each Xi{1,ts} = 42xQ matrix, initial states for input #1.
%   Each Xi{2,ts} = 1xQ matrix, initial states for input #2.
%
%   Ai = 2x0 cell 2, initial 7 layer delay states.
%   Each Ai{1,ts} = 50xQ matrix, initial states for layer #1.
%   Each Ai{2,ts} = 1xQ matrix, initial states for layer #2.
%
% and returns:
%   Y = 1xTS cell of 2 outputs over TS timesteps.
%   Each Y{1,ts} = 1xQ matrix, output #1 at timestep ts.
%
%   Xf = 2x7 cell 2, final 7 input delay states.
%   Each Xf{1,ts} = 42xQ matrix, final states for input #1.
%   Each Xf{2,ts} = 1xQ matrix, final states for input #2.
%
%   Af = 2x0 cell 2, final 0 layer delay states.
%   Each Af{1ts} = 50xQ matrix, final states for layer #1.
%   Each Af{2ts} = 1xQ matrix, final states for layer #2.
%
% where Q is number of samples (or series) and TS is the number of timesteps.

%#ok<*RPMT0>

% ===== NEURAL NETWORK CONSTANTS =====

% Input 1
x1_step1.xoffset = [11.9;11.9;11.9;11.9;11.9;11.9;11.9;42;42;42;42;42;42;42;8;8;8;8;8;8;8;927.15;927.15;927.15;927.15;927.15;927.15;927.15;0;0;0;0;0;0;0;0.4;0.4;0.4;0.4;0.4;0.4;0.4];
x1_step1.gain = [0.149253731343284;0.149253731343284;0.149253731343284;0.149253731343284;0.149253731343284;0.149253731343284;0.149253731343284;0.0373831775700935;0.0373831775700935;0.0373831775700935;0.0373831775700935;0.0373831775700935;0.0373831775700935;0.0373831775700935;0.15748031496063;0.15748031496063;0.15748031496063;0.15748031496063;0.15748031496063;0.15748031496063;0.15748031496063;0.0950118764845608;0.0950118764845608;0.0950118764845608;0.0950118764845608;0.0950118764845608;0.0950118764845608;0.0950118764845608;0.689655172413793;0.689655172413793;0.689655172413793;0.689655172413793;0.689655172413793;0.689655172413793;0.689655172413793;0.275862068965517;0.275862068965517;0.275862068965517;0.275862068965517;0.275862068965517;0.275862068965517;0.275862068965517];
x1_step1.ymin = -1;

% Input 2
x2_step1.xoffset = 0;
x2_step1.gain = 0.0183150183150183;
x2_step1.ymin = -1;

% Layer 1
b1 = [1.418314210690663435;1.3604238347441057755;-1.302533458797548116;-1.2446430828509902344;-1.186752706904432797;-1.1288623309578749154;-1.0709719550113172559;-1.0130815790647595964;0.95519120311820204794;0.89730082717164427741;-0.83941045122508650689;-0.78152007527852873636;0.72362969933197118788;0.66573932338541341736;-0.60784894743885575785;-0.54995857149229809835;-0.49206819554574043885;0.43417781959918266832;0.37628744365262495331;-0.31839706770606734931;-0.26050669175950957879;-0.2026163158129519748;0.14472593986639423203;-0.086835563919836475377;0.028945187973278878324;0.028945187973278878324;-0.086835563919836628033;0.14472593986639406549;-0.20261631581295183602;-0.26050669175950957879;-0.31839706770606734931;0.37628744365262511984;-0.4341778195991825573;0.49206819554574027231;0.54995857149229809835;-0.60784894743885575785;-0.66573932338541352838;0.72362969933197096584;-0.78152007527852873636;-0.83941045122508650689;0.89730082717164427741;0.95519120311820204794;-1.0130815790647593744;1.0709719550113172559;1.1288623309578749154;1.186752706904432797;-1.2446430828509904565;1.3025334587975478939;-1.3604238347441057755;-1.418314210690663435];
IW1_1 = [-0.12414781350639166047 -0.061590552058091274645 0.032342427366747965312 -0.090227967132441910802 -0.085711540811378883475 0.14120787316207530915 0.0076569950018266315014 -0.060568142803715960265 -0.03157976311080913645 -0.014879252551335092961 -0.027586326875744922316 -0.096903999099315629717 -0.12026647027367073917 0.052151590050536496268 -0.034731240647890293527 -0.045320515503052140327 0.09850710074787348558 -0.10763742464119445408 0.10688990136931061925 0.11720744787659563568 -0.12086065465613209102 -0.13671805667936989814 0.086912794185712863304 0.01466983720222083884 -0.1286959981377961415 -0.13896967269503271436 -0.13128926274519919781 0.13878659587326050429 0.14393235445174179521 -0.057914946748916736052 0.012203784160261818212 0.10969758984364658128 0.11994534498556690127 0.030027301134012411576 0.065039411600616853226 -0.064620420956641541621 0.034599595023254145487 0.14180321108643539896 -0.049055323584864293784 -0.11377216454555778846 -0.016263222663135987883 -0.10377745151310692473 -0.044234607724519710292 0.01136596931506426468 -0.03044505511908702361 0.018719516039466289892 -0.094523532265080062453 0.050708085543443831567 -0.085506784521639331298 0.07124353448615515505 -0.090709748499983394732 -0.094686779327566930609 -0.12071509094480942226 -0.11425449381868250931 0.042208906143753228968 -0.11263746004408221879 0.14170542183152975979 -0.0065214394947657938414 -0.13025774471550494171 -0.086946161034333988016 0.11078879522665732726 0.028139612438459176563 0.0082160306741423730359 -0.1248843796319430155 -0.095350343708566431822 -0.12560697687722635618 0.027501883896396187718 0.074475928380311376409 -0.039013851972003403545 0.026684115534723603508 -0.057658978079811934458 -0.096096444352434556846 -0.099348511388075821937 -0.026469784233862196643 0.085171292369185983007 -0.033272739863917440151 0.043387798811181529923 -0.016282101487109356536 0.13944599864349113694 0.043081218952134847644 0.043953241529602796178 -0.059167772289367405458 0.014238500780985518732 -0.088312272134838290527 0.082452187370583324144 -0.01994247054202246891 0.01257777831764448663 0.03075722904095237048 -0.010685081470366369905 0.0018547924094304579258 -0.10288653610741280153 0.02034683577370342486 -0.058902725983068705828 -0.093567075547481351472 0.050418752389720690454 -0.099201674690369168186 0.026046402476106123025 0.051456673122572939294 0.11684612289325548018 -0.04072256862063549504 -0.052786074753654294023 0.010192423409531156317 0.13949820872682272554 0.00096929743549912898704 0.028913947372968668709 0.13409287462818059167 -0.094003588989417102839 -0.057787387363205107438 0.043612185520801372007 0.12173843099315075078 -0.018413777271755606829 0.01053148172034657111 0.046223136122316182961 0.043495253583826637422 -0.05608589880765142005 -0.028551077834934070893 -0.0087012074029979829398 -0.11116729200401377631 -0.021394136553555116037 0.090585872651007037781 0.126681160703738388 -0.060437907186859929354 -0.10439979926402133403 -0.12513893268295744887 0.010239388395223760278 0.060314323584771477316 -0.021604195866167612977 0.05117616615136245245 0.12848635084611820245 -0.065312261488832207279 -0.031520019454552065941 0.13053371022221860187 0.038151133174170979989 -0.084655435367464559882 0.020540062025235172882 -0.038878742026552184918 0.14274280915690301663 -0.09728475869848959845 -0.048791016514076863964 0.046949299883576316172 -0.078904018297853387165 0.083560321247135097011 0.12197477110220032726 -0.062272032376178156066 0.073467463578108599398 0.019178732214474268625 0.020880851893479462911 0.048923372188838638863 -0.14055401314307902627 0.073916483007676572758 0.10162796724380289415 -0.016111965273004184157 -0.077142140872178605049 -0.028215137255573199265 -0.12229190374576891231 -0.017036680587717199786 0.0063025404634823173344 0.094236759449973561686 -0.06943596037880528371 -0.0869419012149875714 -0.12669213770225529192 0.037700200132858227575 0.058347570337099106952 -0.13053406274052822833 -0.056626191509138237845 -0.12816799211688864601 -0.05808103454688678946 -0.12398436889366945546 0.036183026939317131099 -0.051863456823890680125 -0.09534535439309971272 -0.038052070843482277418 -0.14453848252378398431 0.05014539328428525844 0.068396634518426965843 0.034465081095987198934 -0.07682557371273097957 0.074166125732694099248 -0.035064960827714208857 -0.011588848516983329962 0.093689149246116362746 0.064001637436188821284 -0.020731367437277388455 -0.0061965476997875622647 -0.058217674878170477815 -0.10552902035270957104 -0.030783188550762279057 -0.0010174822754918163171 0.044696789894335557658 -0.052272125971761715379 0.0017389846566139319055 0.10069048737703947816 0.041469569536970007917 -0.013021932248593439188 0.10123675286255948147 0.084817424097469409916 0.076378484618953496055 0.094376280481633670338 -0.08484882685857632334 0.058029485410343487062 -0.14520094002437491931 0.0034214638087577426556 0.051638372371289098517 -0.099074468991727934752 0.0047516651676180908168 0.14182892604390115454 -0.060146290487698726712 0.010259341049809156746 0.11944096154226668816 -0.14102319943174596029 0.059882861842394788376 0.11692671439474620898 0.021604063207198143798 -0.036008382086981892412 -0.13384839958044564279 0.013872695795689837794 0.018061321440923119169 0.10601529217189160914 0.0027558615394702732151 0.13845117995617214901 -0.13795144177851631495 -0.14473934463276380558 0.053521140594095094334 -0.07916916156405648386 -0.094856414922570769788 0.046961435050265253055 -0.098078573403953303589 -0.05316148505073808872 -0.10431929827239527775 0.0018233372940488462143 0.098358648030299047904 0.086329635636641616214 -0.069748302488348609685 -0.009946971152920392259 0.096133943163289783951 -0.010819450004698747889 -0.016456270145765346247 0.041696591958055119476 0.087758510017070176512 0.064285041300392267716 -0.10717595414358635497 0.014105463596310676561 -0.095959032343247638308 0.021816863990009646018 -0.1323735656690411544 -0.0053129836292026173805 0.043815136250611202984 -0.027449019527214509745 0.11351151079968455071 0.06388097911650976457 -0.048522026020439354421 -0.1127453096501366131 0.094276005460464176733 -0.10362143507024347555 0.040729549056638975069 -0.032238668310979406995 0.11099059122592765114 -0.054521205053087974657 0.079473855864162182283 -0.050127342590559502422 0.065939306939716044176 0.12111680963688561952 -0.083177111012146670577 0.042547992817276773792 0.10322252335156949232 0.034826449732569299267 0.13929827066309372063 -0.096417954306529884967 -0.1161424757031536692 0.11098664761410656499 -0.017152548531592645004 -0.13555809300713028698 -0.015036919937157068247 0.0055091033298352125314 0.10794913751858435658 0.12320978954273695272 0.099623814228934570725 -0.021357789983331529338 0.10121636570250022724 0.13267868573531393928 0.010511149314364339261 -0.12883843601057393125 0.004309035262315488897 0.12581329452697515014 -0.079162915160771535339 -0.028919920734818336389 -0.0093275936127523648156 0.12244473631840988026 0.064082331885944476824 0.11484951882320877659 0.097634252428059467577 -0.042906343124669343858 0.10840437627861423953 0.13218818439994095559;-0.039992450388398256833 -0.10019495048356751032 0.0035627898173326223892 -0.042638684617713466796 -0.043920458446408995601 0.041474298457166262899 -0.025616318883536728923 -0.10095801477857049844 0.048103555878111853294 0.041445049954110746437 -0.078314804846379273973 0.031055261636050882773 0.035599449269383624805 0.1052149893577384171 0.10181060545179183852 0.064685169942902298601 0.048154410969875910409 0.050807126273308439446 0.091312405387824188696 0.082305630009896449395 -0.12355390092178150652 -0.011823560604423201045 0.079726639621311823358 0.10070257565375041742 -0.13469774437825490776 -0.043376884951891889197 0.020119055548755218621 0.074086821384692649883 0.11034567984465501467 0.12112750131791776009 -0.061037022829722419048 -0.015651681525460994782 -0.009690648784870586549 -0.11473291099031937557 -0.030520557429105303615 0.11707874119844939587 -0.064207937179961593888 0.0022649055406873085106 -0.10650661459548330101 0.052009638157866744379 0.049505214726161851646 -0.073897725515663051366 -0.050615462052939000359 -0.0019368606048659670928 0.12528699047408400902 0.024416678908714538332 0.098684289627648205667 -0.10596347857780483159 0.011219688184738585771 -0.09265458461956384284 0.11321575814581026631 -0.00030761811486503632751 -0.0068749512466614393427 0.03599804466737600156 0.0036358315636381174744 0.043058549960447244087 0.0070957144159514437889 -0.10293515965958267844 -0.05732568993586310141 0.016820633687025576819 -0.12067567401334423904 0.035706640889797615357 0.11368220970785462842 -0.100924761799240717 -0.001740688136323234169 0.065435037884239183326 -0.055583814033586115277 0.019530427272217373152 -0.08454654767552256811 0.13571964697558994151 0.08794073687239266357 -0.079790197705280382912 -0.023361399242930302317 0.038493493214159547888 -0.049961858474737809443 0.030651291462932939158 0.075738450590668568441 -0.0187789250949977303 0.046866014288632844298 0.0087509856160328160918 0.053174288675408985794 -0.13057443239003480029 0.033019750887722618127 0.078872135669712989392 0.0046864830197712488424 -0.019262683744835595173 0.1168101509558993889 -0.040980061918197092929 -0.10654865680496596048 -0.090406753216596219547 0.08125335768914819512 0.017115285912742604635 0.060703981335640096184 0.0677666107209457802 0.13445856513024226353 -0.1215457269133313617 0.053010746704706269983 0.0028101160218043787047 -0.050524927207278427788 -0.054664210401942331385 0.016736291646944439354 -0.13349348738567162753 0.10838692595976838484 0.0075335756632304079136 -0.088407540186600061527 -0.044391542965630692574 0.052967776114518617947 0.077520371598557860637 -0.096050820126011765554 0.0080850027285497578361 -0.056993838731751594873 -0.10422154724964868833 0.016373224742493263512 0.03205213536749881853 0.038823949581805114462 -0.12920832805384876996 -0.03004287317835208429 0.083074280987875906423 -0.062670840764063845407 -0.10166864413741726059 0.082154328523087766234 -0.07884527155521242614 0.016743880174033651254 -0.10990342529521336667 0.097163210220951770624 -0.016745387063949949968 -0.074946357541133434843 0.068818548442873758719 -0.02831833993854965259 0.11943466662058471739 -0.03757632090279205278 0.064901776984847711627 0.047355138154893547386 -0.043828031971658347465 0.043430752826435749248 0.03615063935177977722 -0.11722043859430024415 0.092699401036937134624 -0.1402595727351019228 -0.13863909873248242421 -0.031280752642673916031 0.017090348872277040526 0.090217428409696598379 0.13880254785717779931 -0.12130529638306972173 0.027153833409739747823 0.081330750175513111255 0.11581018734364097178 -0.072531645839877714743 -0.034088132786309434386 0.081189248342068420783 0.08050290480465481513 0.071577038769757087011 0.059569195291918834723 -0.095221779362226893761 -0.017949972808928831708 0.10280988148647746128 -0.13961417676866447191 -0.045216763591176753478 0.0060967156367402967204 -0.037126651865712630152 0.094058875057012103493 -0.10316200331382781308 -0.08453961633806569842 -0.05462212051578942823 0.028758275698741186249 0.016101045628308833374 -0.038380214655968733495 -0.090613531627676865976 0.07536721304635006502 -0.062214364519371935514 -0.0045559853851505393088 -0.035829988713563604152 0.13656004543445057764 0.086087430291361885515 -0.097858536703927148648 0.10434789067507620197 -0.10497081305531619222 0.00052461926131313046245 0.052690001382272776131 0.12856740556770057671 0.062074637141914308647 0.02388266298319152367 0.072814952072974115094 -0.052078178759891638472 0.056791117043640516882 -0.073625539653777286042 0.04586662554686502663 -0.032057398731365503719 0.10508061728518147682 -0.087324157265307941755 -0.09644045798213113363 0.076531075823543515124 0.13375033646936834719 0.054602538342941132898 0.0080495913557253120918 -0.13819866461193738849 -0.055613573149928596795 -0.11596795033644609341 -0.071792729864014026564 0.083912585801288935849 0.090356794961788083898 -0.13279046336170835518 -0.13335446186697419435 0.019390661545648727598 0.016437718461085167043 -0.08190239903312575287 0.027674805298859649072 -0.11898832340134855856 0.016101111024602588612 -0.090271111323652300507 0.094609666241193171587 -0.095678599251943413639 0.090216670148593330891 0.074702313893267605072 0.12378667278945681973 -0.12643393708382316687 0.13385623285523379211 0.053395245211843363198 0.13400463529580589062 0.11529786949975422139 -0.10624869201953628106 -0.067103845700601766344 0.016008381051894404051 0.023286464390805155372 0.014064425814196696365 0.12293237447580948607 -0.10873748212571156257 0.12418751554121289227 0.068694394978611739155 -0.13866993638826644042 -0.093168238363738706265 0.06227668405529880602 -0.12084755668326385702 -0.0078719498760408245647 0.1099610288323244478 0.017505765930919164192 -0.0052012677951822627875 -0.12968362554587831159 0.092274762295457848915 -0.13155893113906910741 0.12408108353683319769 -0.13815811752487042185 0.083573102852026084908 0.056664219330713291867 -0.046168491332352637468 0.1149653144591387538 -0.13390421753918876902 -0.13369360268812530146 -0.041317209777553577654 -0.10061198281606376081 0.068990229315750592476 -0.088124272006097292831 0.077510891497454534327 0.11660348533558775874 0.056009170681154595017 0.047862395560829718022 -0.0026957025959757001214 0.13704668220240978638 0.076630442799941328458 0.13242637484116248636 0.047245498797165143279 -0.061581279835305730019 -0.1322108429879070568 0.086512744339142064187 -0.11243671840855584687 0.070217965528063086555 -0.10817236630480224491 0.11725031005377974103 0.062832330059517563225 0.10594218688241716086 0.084751055633189312233 0.069940907109373409711 0.10391903439791225217 -0.096775738775089784061 -0.12249809310981493726 0.12212181786837993103 -0.087470471037932567837 -0.13040982389933805652 -0.091588569762444796418 0.077481152830214117255 0.074759803784505265978 0.089874874764500595203 -0.0093926306522270474469 -0.090772860900655935601 -0.10457137556345337537 0.07799731160587576595 -0.076460362748386703768 -0.023126639280705751228 0.12720852092825199464 -0.1153441383223209743 0.032464436748054541215 -0.044053236221774337567 -0.0033793463666718127902;0.037511126126325948504 0.059500335759303489558 -0.084866764335166183786 0.049984281953786513508 -0.059599376620522621917 0.064716302812622611418 -0.09938446212299986704 0.14261227670752205099 0.1377896074532033166 -0.13729823885153144558 0.13058909229036813615 0.093478700441745568583 -0.015461880945986298738 0.12517534496948526379 0.022996120146160148323 0.017647194910298698994 0.012204332287237204535 0.031461160675414004406 -0.040273371447566402859 0.045504236687068766454 -0.061424650528323701537 0.12519644043473132644 0.025666104252956099124 -0.042277103842330403249 0.031660593823132930635 0.017285393771090215576 -0.079733527812067744867 0.10991242357279276676 -0.13904050163784326122 -0.0099364005064001195006 0.0071023737188210351798 0.086612164107488009979 0.072850878764835647061 0.11667172824195275183 -0.075820328641569970096 -0.13604847516365969895 -0.13752479485052104824 -0.060912277136118027354 0.091059882116083012971 0.024103550257227761289 -0.080566271564878264022 -0.0026249102395994490522 0.14158723905344419713 0.071615032628206329313 -0.02263437672179204399 0.0031344357620478203313 0.10177581573784312552 0.078591728463268201166 -0.039526121914545159219 0.073776774899617522663 -0.010359798978777048917 -0.10532265683593398931 0.017268738349787399189 0.023558148982762431439 0.092451575498086968619 0.026050901938923801127 0.00990145623706391656 -0.066906454389286176831 -0.017785160989893078476 -0.084533738609666342345 0.054126436573103814398 -0.0086427857811742867661 -0.061942408162929410431 0.036221250415297757963 -0.088064339511268047156 0.12777821277656414845 0.070971948016210109622 0.01895739814769096393 0.056207509166442307103 -0.12344041827369815756 0.13198119936856456125 -0.081288759310819622139 0.034570598017955846137 -0.084866964499255403975 0.085014114390568495949 -0.12878654308898077052 0.11695577296293684089 -0.084565343970439146859 0.048905829128407657391 -0.058525952428644403835 0.1360117888507449968 -0.012432213516659795793 -0.1349739077813358612 0.036462344056832803052 0.025030564989422080663 0.03355808615706948328 -0.080107805116220953678 0.034976840094126541991 0.12039031494931468069 -0.028503069493536481449 0.12386600500463827712 0.0062543545241598927364 -0.099581695185587335017 0.080437133487568701629 -0.12806239219280221575 -0.034803417438014710994 -0.046845686017761324627 0.065008596853266542581 0.038706025694230254686 -0.094528102860799129159 0.050149423725862875278 0.060431668342079955525 -0.04285082943014815321 0.025199574367682889969 0.097301947478654546297 0.10651616153783126373 0.029465820070774220024 0.13563604900489223404 -0.08434028159085724119 0.13991396893402038848 -0.015927268880609302126 -0.08566717832165626767 0.0014049239452124976605 0.0028741996485166206379 -0.0082238310684758907793 -0.036813057933780729547 0.14499751354967635453 -0.070830032805051068578 0.053041142618872973158 -0.087657698879871126518 -0.072408485450597651067 0.045050129807292386974 -0.11910644330690196846 0.00378762943760156982 0.040607704192571439372 -0.14417127107851918089 -0.1167517152100308736 0.027375837356850420828 0.0030224368252700218977 -0.045787054012802759495 0.064704399732996742411 -0.011627701407349267868 0.11680849032471428417 0.072356758715998545362 0.0039714253564748372774 0.092363287385636094751 0.0020883382249251478645 -0.043458216928858282857 -0.053346167687228218668 0.11265073028915843778 0.073396412442728153902 -0.06355846636986287046 -0.037251088360909456743 -0.023778929020487376417 0.12796508156655109212 -0.051126183538716618582 -0.13600855818001145181 -0.12213136953005353236 -0.070159895147793124859 -0.0011352394221121381215 0.066741973403189824854 -0.01408779605245616233 0.093684746120351505838 0.042171792395377702412 0.09836915164941804901 -0.046656089253079187362 -0.10830082167237214952 -0.13317929775153122818 -0.0014938813183681678379 -0.031598751088845869472 -0.064067953066952565422 -0.0064957829454977099315 -0.052407273471443499568 0.027218871284207704631 0.064435300633339395726 0.089972981253470585283 -0.072139133056932772115 -0.10611002083493750736 0.098555051315859565353 0.043021171853020456766 0.094067510711489513153 0.0445620661303662291 -0.079678019506359151758 -0.081439710189319544642 0.10971134399985484065 -0.081471209853109557986 0.075344150170255155818 -0.11471229508729371971 -0.024694972937004986552 0.10653315579590783013 0.0080448806539496382773 0.11783602949743307575 -0.13330547170663598067 0.019733627593981884624 0.038513641224891835557 -0.10631174375848381763 -0.019539060924336583425 0.091095374625134215019 0.14085801120727023394 -0.067995886573558678156 -0.023492592745157685197 -0.021785537797042460462 0.10712262850393827751 0.12424547962377835431 0.12617450526246129505 0.014953708820299917853 0.084948532317229957789 0.1166624598013571712 -0.09520235920799464957 0.051839626625049997632 0.0071913069030786385197 -0.12816990502880598601 -0.004232542196140580068 0.097039523207603034516 -0.13218087999431693547 0.079605703459441540248 -0.078083482951460045363 0.0092120277475482778562 -0.086832939270024556144 0.14493888589986800297 -0.0083877309232371476816 0.040553627231865195524 -0.11049921354178363075 -0.083365295363383939975 0.088624073745038223215 0.12203203895964630232 -0.083482771059633059663 0.014873142456240235482 -0.11508716082864765828 0.026517746340219392615 0.12758707473119448861 0.11570204492714267208 0.090890324386487503228 0.0084080522748406581052 -0.10830589247766574112 0.023278777373415378976 0.013833084603276611657 -0.12377292213044813196 -0.06548195036322927709 -0.07527816516708553396 0.13300193151929898261 0.10640873568614123146 0.12480039299924916563 -0.066650087408747685225 0.041136612761525602477 -0.047511640422763304348 -0.096577810816039263986 -0.0077889484170163827623 0.103831786705454579 -0.092142212650452068323 0.030565683321713967707 -0.11800904679181946355 -0.022753584502510099813 -0.081147196975354454751 0.087974050597859676515 0.018836575098071694362 0.079757117595493906559 -0.028397514466930482563 0.021204088825898609327 0.077033721134441332512 0.08618388723077639868 0.12204511920607317987 0.13739763758479486833 0.12723538785072413537 -0.073540062652020551925 -0.1020721053007393464 -0.063579315515949530457 -0.071105704252893864314 -0.0093507637041141452444 -0.10808257140820730358 -0.1246297430245911636 0.083730955115204772077 0.029219848952252096275 -0.09077254575085753896 -0.059297223535446690057 0.019791195397979671061 0.051195368841018953909 0.032623262442877595801 -0.0018490407349854266154 0.047985408858327714687 -0.03443271684409066058 0.077421578764092072178 0.059567652244895449853 -0.055885688649326234478 0.10455215903054911053 -0.14466023851753126439 0.022492523043089854978 0.063218025726571633327 -0.11126376718604892579 -0.1427631278138339066 -0.0076117983975135103045 -0.050043810166067050071 0.062277143314897448478 0.11133486747174076159 -0.069777749056407128991 0.092125643787866362544 0.071793847874889488159 0.012740874531566371772 0.10995498681694780563 -0.028798379137872396477 -0.14358152954791594813 0.12677951910099469202 -0.022089049900480800526 -0.097528027741869749434;0.00049183597320096093634 -0.0048499788298961340333 -0.1138932749646470316 0.051827228873174716051 0.028693463232527586376 -0.059881262982601088374 0.050157894473963231252 0.085354486499479215178 -0.083671935328359411943 0.07447267570290325156 0.025678426301338073273 -0.061067415227158194924 0.0013336515774363308894 0.093803756588402828487 0.008722090900109610162 0.048137925462785162434 0.14450946301224745771 0.0037051261675648010027 0.044596106678284744285 -0.12755896816495104762 -0.10875363634329884843 -0.095948071835944795382 0.08907014699241562472 -0.014865543071840703684 0.14623140834942827126 0.14192610210465689269 -0.084794180884814274179 0.14340019096046430214 -0.022594272864797919353 -0.078936762673420007852 0.13686784350248884512 -0.053754050956515503357 0.033423135383075952554 0.0023766770428285074503 0.12178346752457107349 0.012943117534107805369 -0.027298013548245188276 -0.092035848164821409956 -0.015886372323428477743 0.0031942325676780447367 -0.05735396902149440812 0.13383201607895314766 0.063807635083253974595 0.092991710843649780238 0.086965999175311017866 0.053576324499901802068 0.14415657253741656629 -0.11791068483096242558 -0.10252774852906962333 -0.032709869688406716104 0.11511102345744154973 0.069306586456276769725 0.0092338776698985703534 -0.10821229162497975063 -0.14168409466520578976 0.030297340481084407415 -0.018325764667635843774 -0.14022279518302957491 -0.067314334377476039983 -0.13164327320284532896 -0.016172784442801169807 -0.014956644481101477942 -0.078630684116533955397 0.006765992945260033628 0.014724235117356293534 0.0053970580822857560505 -0.10107389653807216656 0.1095736390476491906 -0.058461081321804199418 -0.0031569686363608312311 -0.031239014347796356663 0.057699493513453901927 -0.0086694063419869363263 0.054831183694047866406 0.01672618899544467061 -0.13103160556846371598 -0.0023541600617042104243 0.12384361931771926957 -0.037419145205838409696 -0.0017763722283035191223 -0.034303242704716213618 -0.096137920409810770361 -0.034462206693754909859 0.087004731488991904342 0.01430084113753719334 -0.0082984751650179537641 0.13076487357551863644 0.016534288411446516898 0.10092982498785957324 -0.024031018421262165252 -0.040327530083785728676 -0.071199739863021901942 0.025017503316232571342 0.016059171499544236394 0.03359798126318899042 -0.073146729671105567561 -0.042234605944241700171 -0.098278544929042560563 -0.012417326204321576383 -0.043909643365109669866 -0.052561882069535860451 -0.0061051279420962726446 -0.010858216093844064859 0.11953926121905521229 -0.072730243919646206385 -0.11468792743514528987 0.05864513369397311715 -0.10630314269374888103 -0.066701719214887530973 -0.12254435745495727283 -0.056727655879508148695 -0.089891345380521486819 0.02409195917150148622 -0.12288188814019394834 0.057524989629760769905 -0.05837619736781943236 -0.1260650346353157647 0.1235803886522553463 -0.13057792943566709498 0.11499263356358035981 0.019434181866593791543 0.014134649956867239087 0.01596994491040645836 -0.12283400306674882585 -0.14523081675125512624 0.021472501850707752247 0.13113240653792032631 -0.13314782054317994553 -0.10158597009837298797 0.026946961346435933937 0.035838438897196144006 0.061955765649948396634 -0.057923266941307158251 -0.088943175433963697629 0.10308783142224683949 0.059684075858917239044 -0.084054320673839971745 0.13881323342738063897 0.01273745020876458113 0.097949690735878128245 -0.11558508405080734904 0.00089567329827583842383 -0.022523180044053871945 -0.10775801526484729553 -0.037049935081669801984 0.032636602813332235562 -0.074018534959733761625 0.089827252010502012247 -0.0016560276190479496401 0.026922575117461721578 -0.097460079618314210403 -0.029674419383235731834 -0.070682094370860759636 -0.092057558321466601003 0.062437222238348001613 0.14037356775708484391 0.081382681528765182799 -0.10934469538231646191 -0.012534554974703472283 0.094175308092000614701 -0.089579058113365805927 -0.037855618759371448268 -0.051119739151880810857 0.13201586637097104115 0.12160301147867097482 -0.10916911054350919574 -0.12931157389562242255 0.053863434341374312464 0.11169941889887591291 0.038567412614519264169 -0.083494101997137179505 -0.1193593371943439535 -0.030919117757859767431 -0.085509502385130262136 0.086027058156035646208 -0.062435966680496356174 -0.05198806783487376626 -0.11656435199911854839 -0.12348993325738238935 0.015226503427709533328 -0.13624000004582784151 0.090210257292420450992 0.098195906462802975967 0.052165878108641164368 0.10260722363337504426 0.049271480985010412956 0.11460382502815347205 -0.00091414420513496216607 -0.080598161547686189565 -0.066236889185918815248 0.069083879762385586032 0.048157199253981361475 0.10084754077951441076 0.10874381194038282294 0.078205423621792363731 0.019052484944669541983 0.12344437380823231054 0.12038693696323292393 -0.011841388171067607563 -0.021954076488025959374 0.1007232038114860978 -0.10266606471587871874 -0.044586674658600070065 -0.042159202680100510419 -0.12701061611117400729 -0.03638754849363931565 -0.091544958623213962268 0.10962625595544568669 0.0022015871397960428725 -0.14156086750484692116 -0.075462902565516826181 0.058349782818313031263 -0.1253868459386323353 0.067266144918424711219 0.036335658307156508406 0.050417956383690662459 -0.067732809957634629305 0.084100420380901777517 -0.14166133085157700533 -0.11876326235053806524 -0.041126189362134524252 0.040852334788464214621 -0.048287081031567001543 -0.023757896641765405277 -0.0024178614780966055896 0.1081827659704607536 0.079422322943294501596 0.026050602103681829574 0.12979536046431303098 0.0048602366623602113668 -0.074891867186614752283 0.049903660153778776898 0.061821641259541877667 -0.14217132560109743689 -0.0048326549180085654617 -0.084895715620887809982 0.03417932155365712571 0.10817002944478400217 0.011553077670960450532 -0.074740201754239343757 -0.027656505824154121315 -0.11291854635994645617 0.11968503121985109294 -0.068976346917431360928 -0.1153920594143620082 -0.12438326251412371026 -0.0096977881584973946172 0.05432490561205106927 -0.089696591460662861151 -0.082723014617399739934 -0.10242698478141538942 0.082616670342800735405 0.098073539258918943085 0.0439517814128228268 0.1167944702162184295 0.11132846524996181659 -0.091969373461327247332 -0.053992517861313656102 -0.049167483724523057542 0.022357478575674955695 0.10723457583690891581 -0.041447390457261375218 0.010681979188456121668 0.13909388550790188765 0.020691938456020821796 -0.13130490829909535755 -0.011508411116478165295 -0.10001109019674180034 0.091655617784779430668 -0.046723372661296204422 0.11839168917168990669 -0.12881559863112432285 -0.067868247434197837009 -0.05876203747296927099 -0.016467586927102064592 0.074245964168560135699 -0.1141065143055903508 -0.10815913953309899687 0.0019916111038152809268 0.075521315364003971382 -0.010283643275477247214 -0.12342394622647702429 -0.0055050613940642251568 0.11607942050877061158 -0.055433654230288773035 0.068691148850663338865 0.10113716264752455054 0.1185966361469414504 -0.040611537748444753726 0.12482867676086849273 0.083066052849701629834 0.0042088476915198543352 0.08743616783955189542 -0.033692815250798875681;0.028894632403299196077 -0.07015028778400030085 -0.073910610510586588484 0.14330589263236537256 0.13952014456442232704 -0.0059977169104355751786 0.14133498839423916382 -0.096500628226105236718 -0.066556931898032536954 -0.058569231252544505517 -0.10242181674014590176 -0.086656855484845030091 0.081005894611360235169 0.11988633577488234938 0.14654675448952739214 -0.094061144765672871637 -0.10337685126610265951 -0.046207955974249051434 -0.036262254624102291389 -0.004585766596664766874 -0.0020294138438208516109 -0.047038537742040829881 0.11289970379746605555 0.072343663983195166667 -0.099398628010518519371 0.089327800644751806369 0.026953849624995928486 0.10107886094480530992 0.099251844259823931993 -0.12456004063178363617 0.059518020440926980297 -0.14127361907112440109 0.035472374940094947293 0.037174569117867158063 -0.019142770962993171241 0.074361284114189643568 0.06101952406934287032 0.085657464762698226624 0.10455821332607106999 0.12970452589230280216 -0.14846975432686473906 -0.11583051705203463444 -0.14612368130781275277 -0.13044874892231220209 -0.01546837695155374795 -0.0071027376407763890068 0.10377897369984576126 -0.015438007463986779672 0.0014508794440382742196 -0.13368953556013926653 -0.11434916411770439104 -0.067375428480998506009 -0.055007471587841187677 0.06636765638740547979 0.14069655253506074821 0.10696114628149028247 -0.052881036769939451792 -0.11317880322409956673 -0.013384272736946051935 -0.05742191013430730101 -0.093733174617912279336 0.074153668935883779167 0.13371873660442548659 -0.054724381046864493949 -0.053351308080145688761 -0.14566755087086596943 -0.064706789145652240935 0.10283645308694883136 -0.026875570195349599012 -0.10165593340807346778 -0.096873322351785029483 -0.0023485352940563241145 0.018609482268560701562 -0.082064237224998046183 -0.048367388469373689963 0.08001455002167467967 -0.096740706242065613307 -0.11011137204129801959 0.11938818240283362304 0.025432808684932035892 0.039312371271526182215 -0.060694016381775385549 0.078804463380864761546 -0.067395627422608711532 -0.040589397035569789451 -0.071775178986450402507 0.077280268689750658551 0.026878850468418064024 -0.1371611628811447714 0.13162302438079082068 -0.10481857242688463749 0.094679315457379384369 -0.12960319750941770578 0.10333622082548216126 0.013388039367048720427 -0.027341227753609566309 -0.012065296218853532179 -0.090255958668188834837 -0.032919366344404336899 0.1319188712811595332 -0.049954152397394036011 0.071649305199614488071 -0.086372919454764551794 0.082544230887124259155 -0.053060473961663821851 -0.14695024820276200717 -0.026854265701867729293 -0.068143793128006363569 0.061364269526197855187 -0.13510469045667078403 -0.066446054872944124159 0.091446523399441981272 0.12889075094900839802 0.011971862485102555129 0.11984153848765961847 -0.029474860886770457707 0.1026087961232829554 -0.029125003348966369693 -0.062913175189233533358 -0.071410606155221198477 0.071479715656630124498 -0.13087259117192057145 0.0022793517159046252848 -0.063834574497538515425 -0.037989364735892580671 0.013601175514948630682 -0.074419513184422234064 0.032386698515574158241 -0.059297658094230418224 -0.078763859255374019108 0.0062822551367260528327 0.078828388000898266808 -0.10497573320142970787 -0.0061034558390699765115 0.060938086926775297814 -0.030660576311228968094 0.11401450252599815149 0.094181762570518051669 0.12253160014910385867 8.8080667448675982944e-05 -0.047381073145892779741 -0.0069961902222402038917 0.14249988452619094526 -0.13888107229975632517 0.10398201867515817487 0.13238348119969986505 -0.11093360213822302252 -0.0063383601897347386853 -0.10782966987141308357 0.071136042037683880346 -0.073715761391636325239 0.14199331467655249006 -0.12418589856169510999 -0.0090272378874612750621 0.035865796007214338637 0.014661597996343159189 0.029710577066577734812 0.079159988718474350033 -0.031072407540798652192 0.11041142460700269223 -0.039019918855873650387 -0.068004582895982226831 -0.015788157741631822506 -0.10826310067751515609 0.0098429022162667446916 -0.13075487999958551599 0.027432953710595953112 -0.13481418446858478566 -0.050229800430451720938 0.069080700441292428038 -0.024826396919187129764 0.015916925101377151636 0.085050518127889815356 -0.025460007026611771591 -0.013950022263473077846 0.020620580564732204909 0.1231842099043220784 -0.055298755341720531864 -0.008523906301762997767 0.0045672958204302713248 -0.12960861121701156007 0.02359780589054625427 0.021824273708771185776 0.061514879359596680297 -0.008999824222534910656 -0.078123357709172003283 -0.086158135982688857646 -0.10743908842921426339 -0.012960938266742818778 0.094405397988062356163 0.0042986468338653670979 0.043884576868574436126 0.090737745189970242521 0.027468695334554347337 0.075791125215938393023 -0.0035074605846347529405 0.083427673525209758432 -0.066190249763835681818 -0.027035125831376689842 -0.13697281305322236977 -0.048682712818457658799 -0.11566851145284798297 0.12264587389115372273 0.14708345640531964027 0.084032965135279413804 -0.0051365540616647312536 0.037904833519881706017 -0.064815600335445713864 -0.1395868193044412231 -0.10851828577549280097 0.058964022062853213568 0.14248650372212987025 0.012436793240539256722 -0.022081533332096652672 -0.086905711007935829149 -0.14731060165634995984 0.094915967714186866289 0.031940857146474259387 0.0072103098448634489817 -0.051574858020969741035 0.015834014565910280864 0.023879051524657111255 0.046688385374819202367 -0.0728625065433480823 0.064035569287056087751 -0.10706307323203274884 -0.05464554342304650536 0.13881694256559046208 -0.11872213339169648827 0.074411692532278861378 0.13256286648185777732 0.11846690590460726145 0.043556364359098098671 -0.014360335196130448801 -0.032190761337749167204 -0.014277246669774621562 0.1368516786016501785 0.0043300408554652371207 -0.055163487642694367108 0.070345245866208008789 0.13862034388111352246 -0.029594525925257481741 -0.09072122145263475379 -0.05211909145830227047 0.1075369234746554048 0.028008373061006324595 0.035301543583359247525 0.031659507623697173695 0.086071021820431470317 -0.059776769811358675122 0.051128350482486865924 -0.10229303458669111726 -0.1083883096240597782 -0.057050209612060552578 -0.10437835264170407246 -0.088615587628880179705 -0.10255209643614238146 0.047779209756539792187 0.030968576587618937279 -0.042897258841886089231 -0.061694299988928981426 0.033568751111026862155 -0.044900947769270879717 -0.13978284554471179235 -0.061226338115807833751 -0.047086234074422278484 0.08115790726067079186 -0.11109847468711876728 -0.14511443910579982508 -0.015077464006366798205 0.057761883437860740698 0.034937082078630242454 0.016061575288861058147 -0.070940152780528079046 -0.05271741279934977209 0.017733761136889375498 0.076331260343856746631 -0.070137432079135614282 -0.039032302002752067294 -0.067514363464039509055 0.1256449049053334488 0.061606064812328532876 0.074610955260225472752 -0.060432747705577792574 -0.061373949277893469212 0.0046322572894957406153 0.091185833436522090167 0.017777991557186047233 -0.033380771168719056141 0.06666101853339541361 -0.0095434068976417204405 0.0938278077494405921 -0.024719782212996962989 -0.085844815068619739762;0.034694373294006708441 0.048380073349886407175 -0.10928141876615535266 -0.033637298714785254794 -0.074455026532630946834 -0.13843267443045045861 0.089085084125389277232 -0.098701014487853108714 0.13358970979008044644 -0.024401028232193335693 -0.10540159372764310031 0.066348163433142676171 0.11157938740752057494 -0.048958079065511916905 -0.030250152301284024409 -0.041140992611669570389 0.051737767439862136776 -0.13904194711881148749 -0.012714365658268311429 -0.073240053764422399785 -0.13620070902469258445 -0.0097607623489520244781 0.087037669168346751269 -0.012235925870739149113 0.047234584152330595652 0.041289545126262462704 0.0095672626343184640624 0.12600871371428096213 0.042340149920458786115 -0.014172817291599408562 0.12518936500290031577 -0.11156403873228876167 0.030156293390737689414 0.048253562944537871371 0.053915190498697619648 -0.0033145531146750507358 0.12090177698659317074 -0.01777396785562507589 -0.017380103097270425266 0.055331686525893562789 -0.067226487429673825735 0.0050047278281394472557 0.03842836935054226577 0.12862958853471104237 -0.042478352240141487028 0.10028246159923012715 -0.12806411998767253113 0.051876835121528054595 -0.093512331371148796344 -0.015169945631973260833 0.020644264235016248493 -0.079115744911334481837 -0.053711379199814460184 -0.0055627827726559813531 0.0016734850108160955785 -0.10595624158634564527 0.00043579430711338537716 -0.061631307083681585723 0.12474987520266618557 -0.022983242129048890579 0.042226015204722411323 0.068124147334049714453 0.042607337280206311614 0.07090056780520746782 -0.045638568095131441804 0.059375844280896719618 0.0875685088174756876 0.05473131059123226283 -0.080982714983713566248 0.073383559351316823838 0.10373787634012036907 -0.1076019237336768436 -0.01748251256374740506 -0.060032726052110366166 0.023927596984817403603 0.098036938594621370058 -0.043681238124500539055 0.0095449983125391706096 -0.055234590360346037807 0.041748792433692651083 -0.11843154274471248688 -0.061809820252055377998 0.083926177722949746318 -0.015048304031738363867 -0.076405176519472151053 -0.011607792644437958315 -0.069830682335482341383 0.018404076168879547615 0.079616293869738938294 0.12340542269068793813 -0.070214542905520260785 -0.09936392938705727873 -0.02537126427466366782 0.015274474000951472966 -0.059397289993825472254 0.1010764751658753402 0.10254526435506353121 0.02093776913614857349 0.02310687497498402701 -0.13517884603304147761 -0.13815135462383287823 -0.09371208477478509824 0.0050310830569031284726 0.048073655688578915968 -0.070117521211751146493 0.024519856647828054685 0.082409574039527686007 0.11813770919954968974 -0.074636336081893128735 0.11498296112330766428 0.0014520004373264827017 0.12496269942137509801 -0.018234553858784623842 0.055898109921047621496 -0.017770471658482899641 0.12228435651355235025 -0.081324868956888049509 -0.047126142122237008047 0.097334044806107217207 0.057186015510497061054 -0.037108004510949567367 0.096330702494555761617 -0.086638826532826881954 -0.11322409051046007644 0.039747473524020721092 -0.027312456484978507587 -0.10619500049708453793 0.087549243791622141653 0.075986704347680664173 -0.095492369665978529825 -0.13131279084323407846 -0.11958961009352339633 0.053436418377633743138 0.046058727004956612205 -0.065049220484802036668 0.11713489301282078991 -0.090706931734777104803 -0.0074040374024998871841 0.076798273257567981065 -0.05495792344733604895 0.13310139175774243769 0.0074186509455106018282 -0.0099041177200919518209 0.10713554905131263129 -0.072398002880653025692 -0.031673218278043674401 -0.035891516914247807712 -0.051054915982203880054 -0.12575406231062755125 -0.12819188897606473287 -0.065293049315657408771 0.10045151705116463214 0.13572083385041663894 -0.012163622373312848318 -0.016499820302222092949 -0.037600057460862527925 0.10098349311707935372 0.066775324556388890307 -0.11506798475219921774 0.050643369944678405525 -0.015182551422310818987 0.098742950260355330516 0.11135319742703286838 0.042719567869700471319 0.10936453545097077344 -0.014923135359563728317 0.061338261692137734105 -0.097359506924125857608 -0.11849753160512997707 -0.12442787194121986138 0.099347643669365798269 -0.085759117936900761126 0.13202394093308694734 0.065068158687511271077 -0.048520444268026596824 0.10408740125467716431 -0.13529028641347706774 -0.055604239891245556271 0.0054884763528479010158 0.1339896206692371694 -0.059671030061814220313 0.031650586964808088974 -0.04517270410669870645 -0.046448713762385518411 -0.057925399459674960234 0.13620444191902622566 0.11081533427636425237 -0.11927682369005142282 -0.1278039216460781502 -0.0087776816024833764079 -0.063832545475202159824 0.0067703495358286099395 -0.072868480776741864635 -0.024307530077513329891 -0.094800584888107553017 0.097493861055529276727 0.11534053838367328004 0.070775314168915401392 0.13950373898569012887 0.10958072155044855378 0.038833136083746756795 0.076402135856667413583 -0.082470115857565334805 -0.13870983996823724183 0.087244978077692880714 -0.040692529045657253872 0.083581677551183009012 -0.12490256371079903885 0.12340684998034567865 2.0911191200800872248e-05 0.00063106746564161079419 -0.091031232493999761357 0.12023828356891695657 0.042310236746920464046 -0.050496335771473346843 -0.021021342618082729248 -0.089126234676750681896 0.031841006641198786598 0.062823399284166178691 -0.083341272172331642976 -0.11882223250420356764 0.024237027225702374722 0.078970267251520176455 -0.072611912403865164212 0.1115863469678959885 -0.0046334897107371568123 0.11816258229233755905 0.059867867503166367904 -0.014264087658861003896 -0.10131890428443679486 0.030271681747901520165 -0.00840802112533952338 0.11353821559320580181 0.1096498169544721929 -0.10205445673964895492 0.12523898853947096343 -0.07779568907035634695 -0.10151288894394638884 -0.049571104252182356109 -0.025382255089858283409 0.13370998294881858426 0.12153044324769976536 0.066421293966860403546 0.035832177231545081497 -0.025186786411056542173 0.079011082515434830076 0.086712102236371255137 -0.1376606159000640095 0.013850628005833443349 0.13943218313073268977 -0.024719717900217125228 -0.13719244980723993566 0.065532312203603101941 -0.10948011987427239133 0.05779627567240466085 -0.10574122322079058944 0.084812422900654854674 -0.083478756613179869173 0.052122734704936786454 0.060983018916281175881 -0.026080905400276761102 -0.10376632265955071377 -0.0016333222399005004923 0.081885626850255646692 -0.036280098694342122201 -0.089167231456658432864 0.13804901310446701657 0.14000496334392167896 0.081338588841560699461 -0.067484943006126410503 -0.11992109454924200496 0.028460030651721878597 0.075151103528107485174 -0.11394435659954808837 -0.076037008580530543456 -0.086394551624912233057 0.083765735511591471463 -0.016423203975323430459 -0.092800897849314736843 -0.12576363137889115529 0.1048874947780836786 -0.069383799059804102116 0.030883466881704815105 0.014183393815411613967 0.13963643013523582836 0.11493492885925322977 -0.042184208106532880556 -0.11915979935654616439 0.025485296177499741632 -0.028321878717003576287 0.11731113353655360509 0.11614279323442838754 0.086992563888653423598 0.10468828655315709497;0.078135362772248459495 -0.12123314837826758283 0.14050995272418345672 -0.053266967511901047727 -0.014212016360805899973 -0.0052585529952928443398 0.10571231453436197301 -0.13874103640400062276 -0.063062558405926658067 0.076314510338589214289 0.079529650458661477197 0.13763557360217215653 -0.062818259977032511743 -0.092827306902092787677 0.061073121016355758073 -0.10148208548492559933 0.1123473121043429418 0.0066298717014641600498 0.037502362724846957653 0.0038791538491227822716 -0.04825193487131722303 0.093427207301615980417 0.13866431039048282559 -0.010889257268846055937 0.098023707022247885678 0.090075662496060082685 0.051295379095543991443 -0.041990869803189320719 -0.022538981516476555567 -0.013264091480872262571 -0.072426899326672497526 -0.052693925991966594768 -0.043173660951072764802 -0.061700333156883703511 -0.1227535940853113211 -0.028814886056110364243 -0.12397005531563652647 -0.12489992019910427234 -0.042461776467379440392 -0.13683501449780416381 0.015962827974586261265 -0.077412163542522935411 -0.10911717573383562796 -0.12496930575689099707 0.125812880342295208 -0.050903032251669380615 0.010999328142714925871 0.082006325885808514786 0.053630365029121565557 -0.13847135166298091269 -0.002595005521966657451 -0.020406041246563828145 0.002087401047822821671 -0.012836039271928266839 -0.11504485155645409467 0.066458812338832148892 -0.095306521403402275072 0.074168975192269601115 0.085903507075395776904 -0.032782638962885371492 -0.052416517052856430314 -0.11351033835485614676 0.07000585786484653239 0.032060512035391543206 -0.0067049484967769733615 -0.051913889764553626527 0.14050932462137935564 -0.054546982398566631889 -0.061473059668198909433 0.12270473392034372817 0.025210038183130632772 0.065423376299622484908 -0.10648952908971458242 0.12522340945935009349 0.13006423164610131371 0.0017318065615979881793 -0.057723619462437945893 0.028360984650276862412 -0.046284128715835017032 -0.014387630344724504361 0.131431425166799426 0.023904842960360377091 0.11247648773535513789 -0.12970953563769843653 0.052926712553201193945 -0.052994506406825563072 -0.082717385565706444406 -0.012124577343015894432 -0.059452483821377841156 0.076786037472255513903 0.028102647764956883991 -0.10345147240418761658 -0.037022393063118101686 0.081309804798751370014 -0.13561025944028051726 0.014784483750908775437 -0.013064213533737951273 0.13989834411254323254 0.1030483829515882882 -0.042508556072911922452 0.0096005345660726514045 -0.048510054160449955774 0.024777624733551693176 -0.12254202324973985372 -0.035446659530309995723 -0.036831111832335540479 0.067659420590597527112 0.078500243750664333575 -0.046383382598069150538 0.019373563703629984034 0.12941672484485355898 -0.0747439087961310894 0.0058423930636003987976 -0.12322047494592272554 -0.13467402569605566032 -0.062694928040509231848 -0.0092859832192529901534 -0.14030000825503685657 0.0081848478706808749233 0.0941611032212580773 -0.045599671856536058701 0.082665817157219365074 0.068955154313671135347 -0.13709915934766747636 -0.084632016985838276479 0.081039878061659284536 0.048373448950744649122 0.05000232939422095263 -0.029558305071025688798 -0.10124373039110633188 -0.059337865675716014446 0.12456256577601504398 -0.041989506327105775851 -0.0020887132379974445232 -0.043231524314850937329 0.029725487342176868527 -0.03325266930722658304 -0.00097526470782091341863 -0.010916923990603785016 -0.039734432889936700806 -0.13378239525149393518 -0.086743173151524008424 -0.12690455030653322033 0.049463189961564513197 -0.091048713867703565117 -0.023308804482587090756 0.081290601105924870096 0.064019859875375922931 0.12024817152293387768 -0.057630157718183326609 -0.063414453496393519139 0.0028580732006173925272 0.12907185509229290865 0.10228226504319021251 -0.12215386299955724447 0.02642950746564639089 -0.099069204307354316597 -0.058370040255004689012 -0.046155833316063425709 -0.11489446724100889352 0.024228039009316838792 0.013813076200960710399 -0.095282346742476084489 -0.094182908690363581483 -0.025709753232847361304 -0.043489115757716474697 -0.12628100673735145887 0.070843447538520051832 -0.00095182016971845102155 0.060803432413839141046 0.046107011563508520924 0.0018739776179074083776 -0.050811022122341793772 -0.017663934850314196717 -0.020436375087226434089 0.083910303657757895346 0.1404326413244502969 0.095265848815978146358 0.13669077019448230836 0.1216620637562586954 0.0044156114483017159036 -0.017386426193658686273 0.11661664240132070536 -0.12990648571536173028 -0.099305232487872568958 -0.078024339460850536399 0.12102008004556914778 -0.033092179397232364402 0.084264562049876368111 -0.05185956475138753935 0.08389075280804654533 0.10194953938954193218 0.063505790223598812538 -0.097683186708049818403 -0.08539090524779890945 -0.13607891868419075276 0.13497800661996020577 -0.077417695705247160931 0.046060179307367755952 -0.086144868691076015299 0.1332901888217190578 0.068789320630966599435 -0.10548762686335010075 0.11241235156915385662 0.078157067923938908227 -0.094727979268906276067 0.057775956488127964972 -0.085130958685224911164 -0.057291634232307910024 -0.06590950591759146826 -0.032860151446619446924 0.02390071669391902881 -0.02078981101933292594 -0.065312224417038516888 0.013432623157999906 0.080025065110170157112 -0.09162214543760760499 -0.11308321982611256595 0.1191381946853796725 0.052504548915477733395 -0.072392158580637314125 0.11461816292076809631 0.021828729775993309381 0.11224673802891026175 0.056252715006352795035 -0.02561912429475688216 0.10378067831423394562 -0.072328690202093273709 0.10844710954862205043 0.048203146529413425092 -0.059248103539838621601 -0.11019521110631989858 -0.094283526165984316014 0.10981096943877032002 -0.07014756171218858305 0.099087765953513359807 -0.023982243423847745406 -0.12287335475604609092 -0.11209088741956062252 -0.018023833639685075264 0.025950940664141247671 0.090558490700688193398 0.090558237510877437337 -0.13810429672806023849 0.018931720959544158511 -0.10952146432348956739 -0.0221569050356748877 -0.051193420739772753369 -0.0050275723809429413713 0.078964647391770642626 0.010617237230504047996 0.11584643086179287341 -0.020028348747714256467 -0.028907438144726165657 -0.11805759710330739065 -0.11123453808889723071 -0.074017719442236326599 -0.029943743841489352253 0.09273628172533264491 0.047319497370394425495 0.085068507250854311086 -0.097865516177811806564 0.10371091174673718882 -0.018119500550242733511 -0.08084853626754473499 0.11744626076731315423 0.040737179932834849394 0.098566388483467770598 -0.10443395616391097647 0.12308125152162699423 -0.079817939651739944207 0.068679478280161590509 -0.10589946320158699633 -0.026147474737015112545 -0.044114449874557197517 0.13914231138238553065 -0.00042968546728434719268 -0.045652304633315272941 0.081836965177701670449 -0.088288654309971181799 0.13909726160227611769 0.049920913534994448835 0.1304815768690768818 0.13909960570776022659 -0.017549058149928947054 0.086369856893399321596 -0.0091975258706023816507 -0.078071233020214139686 0.051685102071351060604 -0.033648541078082107314 0.016847525595074814425 -0.057794806879042648351 -0.1337427835410847643 -0.11394229058510252361;0.010805370850732231094 0.047739810834581501708 -0.012713580036371220638 0.11572245318349663745 -0.073707021406548320352 0.1174479409965472898 -0.1006090815658865073 -0.1006590445876630463 -0.0045168596412342755519 0.11725194608099676064 -0.055073150056383593509 0.055836793913180575444 -0.12335568384085157656 -0.081247856443844260199 -0.11770428778150550386 0.079140496228028794912 -0.013913536169882027502 0.0055762170332962655503 0.030439279394887382851 0.063749710396826739234 0.044483702962510897339 -0.095232357671932235665 0.020763855304639554367 -0.11597220265000987571 -0.0097735407304013807023 -0.032542698203308358107 0.078005717403364843721 0.0096662309632773810858 0.070575434594201930105 0.10742527570434012851 0.017092281022004038316 -0.098451829114464942116 0.013420041360166203026 -0.040845639505069294972 0.10182673158775253086 -0.12582741592657048502 -0.12078763975515344198 0.11788579702126431026 -0.12001070839450643513 0.056301966248226240075 0.073898410208224130091 0.12715323627385977101 0.10096469507790441222 0.081733926536578224709 -0.090180813139148885416 -0.010399908533980614309 0.045617876957040226493 -0.065880146920625673457 0.067515898044347016915 -0.076720040213365175985 0.01779349612716472212 -0.069980313889646497683 0.084560028628246200477 -0.018228288825325209693 -0.048981618363706576347 0.13941251775387067391 -0.13505138137871799953 -0.11911659258245223258 0.070574695921168981161 0.10663376530734203218 -0.081147742212980211729 -0.004178663473249780505 -0.11269695199571630462 0.039901329867772811211 -0.13039441139553589744 -0.04879682717088233701 -0.078253083431934683523 -0.11140736938350416507 0.094599388175744078544 -0.12021136057328840607 -0.038494079427591372522 -0.099523180379442341414 -0.091994956323693935496 0.002974989538237453237 -0.03390508037976456418 -0.11907269031612893739 0.068239432790115434058 -0.048937657112682726723 0.042584166516630911348 -0.11273587493336346965 0.13657066767249675943 -0.12066154305006258907 -0.0146902827407889916 0.089223679213235318475 0.12630842929148611287 0.01831977680175680967 -0.10177718708301082551 -0.070591636941050611709 0.070547150273725808822 -0.083175502328360864657 0.06021164964373647982 0.0025010149621306843395 0.018784201747936341703 -0.067645711845151459962 0.025569763215115594301 0.087359834549776430035 -0.078600792003567301891 0.090212365125308405234 0.12881683334163496202 -0.075245616250620123155 -0.0021463290953223769335 0.058068673845206003614 -0.0016991113008387511568 0.00077592603000797442849 0.083295226750587467168 0.0042451609916550787915 0.05703712236021146742 0.050872838413579583861 0.0062119439263140516574 -0.01658672076659291339 -0.073287965246936578878 0.0048735897595691898831 -0.031742834315584091132 -0.077523135626842681889 0.030156544865735199212 -0.043849628858091113659 -0.037080608688425338582 0.033099950052888890695 0.10885626738883887044 0.075336396930216875667 0.13729296057945900023 0.058373553876116965333 0.0099679369917642455384 0.048152202537404702187 0.11062922064219761487 0.067404303822954217407 0.097529504716970985556 0.039577781480426101057 -0.10614942154115553086 -0.11055955921096262407 0.066658257966808145967 -0.098314175829260525008 0.086563041836991760913 -0.088185757861793820367 0.11743714536364148471 -0.097250264026509547488 0.060530395802783888703 -0.094358339925165068962 -0.12814174076020432014 -0.014043328013309612848 0.045300931912906246268 -0.069819658590047725677 -0.078240502365749198255 0.061758707856565939198 0.13255496208657999158 -0.12642857549488017987 0.044693929012172874116 -0.070610914606048749698 0.026199914725941370747 -0.081862835222398344648 0.1250905515338091023 -0.073164825303627875619 -0.041094296987143674738 -0.13891516080690716195 -0.11947467921597039464 -0.050483036182730700592 0.028399187705337319149 0.063166946546636765225 -0.057487057983785623538 0.079998580882963687966 -0.0032356734708066554884 0.098240288491547797523 -0.011136116174187986674 0.12401327034423317852 0.11233787022951127743 -0.14098927510713424316 -0.0097800515282137952949 0.092800160146117569027 -0.033827323618808601002 0.049366107962442645762 0.11532612460774177565 -0.043417602689403859972 -0.10033889798928720405 -0.11778456164508206705 -0.12487532137454745995 0.1031842688784952583 0.10576042484924855214 0.10460777630428699791 0.11947994518713779544 -0.046762537101549102314 -0.11716448467752456353 0.036589425188255940424 0.063298224489831952932 -0.13298538845747712167 -0.039552222679163959174 -0.028984267950781808509 -0.11461798435648429262 -0.12848718193209363037 0.016544889245073270828 -0.09416689726743276978 -0.13702830504510027376 0.12808732312297241296 -0.1106253470010228751 0.033336261000495519269 -0.043489933085779669542 -0.028618121493990948678 0.050870437785095042049 0.02350705563706926432 0.095972061503830807805 0.044641231136473343011 0.13632114184558094538 -0.090986100737141389905 -0.032574311898288584033 -0.078138021725371389903 -0.11150094087511455698 -0.015995607164313089404 0.1245586080096320325 0.0001747558055846096432 0.064979533003011374914 0.007178497990480592339 -0.099947383286555668835 0.038186649860472390849 0.098872014190340251627 -0.01655154594308420532 0.051537670436879637337 -0.021656814508723705448 0.026952457517671585263 0.072923249421101801748 -0.082371772259496781055 0.1137081968590135661 0.12848532287147140796 -0.13719872144523162505 -0.11773831853253932667 -0.045484720692966530697 0.049005843274678773103 0.043008825260644194255 0.10865849484157853733 0.076202806810287918027 -0.1042349932863768508 -0.1285530618873669817 -0.01227439676279370312 0.056358074148707561213 0.12750278576595189262 0.095431391439427470935 -0.03415260572267799638 -0.028463273527261655216 0.059745288491260629959 -0.055501829365504289082 -0.0043109603950866699426 -0.090781934722178464492 0.06602773153430084585 -0.10252200237456715604 -0.0058987157144445717671 0.093284387586360817401 0.10768361795984260354 -0.08153695570453520225 0.13617257827053613761 0.10196934412337022025 0.048107202522277459078 0.033655507447166048418 -0.0074826559313656395081 -0.1326901659072537154 0.035975558269675973755 -0.11295048813955679834 0.094379675495930737128 0.011169739019488646517 -0.10224248583183866146 0.038752497680362457677 -0.10623857309123170556 -0.10634953769414126623 0.056141857725851757044 -0.028051961397278654675 0.13636454027590771965 0.062974241065287872576 -0.031698208671376265633 0.05398752286038890208 -0.043558810137584981492 0.076964169488199118963 -0.0050917180905414019185 0.10734014307903924634 0.044832439108137007999 0.067014077392350296369 -0.135541251169492033 0.024440264902568922117 0.087662574359878731034 -0.057120415665079971035 -0.068189728579096470229 -0.0023732235356240948161 -0.10718625286239762129 0.078280544563539361524 -0.12512979287280492913 0.088915773125233049656 0.09799388898457866981 0.014089293999892626291 0.041079812998895938458 -0.0026442072790260058406 0.12592701272451597982 0.089026601449213232931 -0.12774856074437404563 -0.090769829179620481474 0.023751654927627759845 -0.036590598118634201641 0.0053415026509636047772 0.10416322424572108107;-0.11612518922485895456 -0.075920988318291290908 0.10768807095016970365 -0.062211111524305029441 0.14034309698365565744 0.064102644669506908537 0.1039380593338673775 -0.12257716489139891536 0.078243442661049961151 -0.025640097629600479973 0.062646507761234856981 -0.12595723266490441161 0.12067533245755626692 0.05589107666339365732 -0.1212332690749450409 0.0085645458633854983088 0.11144011653014694596 -0.035382908886820357841 -0.11518366528113495317 0.13287947940075003905 0.0014590384593488030934 0.12772231240539408392 -0.00038327147998029343625 -0.13997698647898254576 -0.091274094515313236586 0.013897558614325516632 0.063224975749325298957 -0.035253076605981113756 -0.12259602409828941616 0.13255562398881878816 0.0076249274413349270307 -0.02689458511920744116 -0.10440280828698511595 -0.10310103399077692743 0.11173530880143628385 -0.051224830235330580386 -0.074536117235973350925 -0.11260095864122882103 -0.094121169136464080673 -0.01067306773144558775 -0.12086874441559786186 -0.089977258360415660055 0.039942484865919981873 -0.059677591819014101648 0.057732936828942871266 -0.054143458861559926043 0.062545832558499186993 -0.12661012482690786607 -0.079625954905510512583 -0.017805627899633004463 0.14044488490860818075 -0.03145369558039962099 0.12500384383927054532 -0.12481336231907463885 0.065059246033176573731 -0.096785302454036881148 0.02424847820412147012 0.038787125631849252161 -0.027024537724308208414 0.12753446727587733345 0.037852668945594400429 0.11807684896915134065 -0.1411496701475704052 0.058907594482709990658 -0.018924611114067582673 -0.012557878344255217831 -0.0041045430022005986379 0.08942351517191692023 0.09252972346648659363 -0.14187419754222879709 -0.049647311793004841873 0.11847934868514885254 0.044960902849038746065 0.11529309464377840433 -0.12093835207959391376 0.098735366718113892759 0.030074666342934121971 0.073846030691693889669 -0.034143741344983095931 -0.026100620352476545938 0.081745195446039364828 0.030610384774631120564 0.039070137949834687907 -0.13432016874259561368 0.060438014381096555327 0.089901319218479269768 0.058971736935880092467 0.0347661351217100692 -0.078496182662711785905 0.074408257757151735623 -0.087298666510654196471 -0.083849584832814114121 0.11629945087494170108 0.06210996099710965751 -0.11245539263407826336 -0.089914736482747767421 0.082976728830964269212 -0.060409857621100279679 0.036308299319245868064 0.018228749218788798531 0.12215587185539247828 -0.12535327502531479205 0.0963205926182454375 -0.12039522326596856228 0.057578857268498678801 0.07616288727597397834 -0.12027915150103569986 0.1225160124111718124 -0.13062298436454874984 -0.03177014659530587315 0.061220400116484746667 0.033867613270179813822 -0.060889835646446212325 -0.11042400806411897807 0.060385064226834747614 0.011443804398910057893 0.052053566109707377629 -0.015071999968916137413 0.046087358233539883756 0.076433242739684409406 -0.052509216269742357841 -0.0060809778433901359382 -0.045872143936758806582 -0.077928086646401245607 0.02984761801896858649 0.096963973323605151533 0.035048411221289273165 -0.12712918236680864625 -0.086282584956396374265 0.13963570602922395492 0.072514632906117301725 0.077518010017585556315 0.082069810734027220933 0.14127404901151685568 -0.0064046309896507195789 0.0082501773777471053284 -0.031191241569259221117 -0.10841973999422183095 -0.02634484989986852696 -0.050501916891992695846 0.034544532452305549974 -0.093799565579378699209 -0.025555422813534813681 -0.010968771808439114687 -0.061051029469671017069 0.082076564858765535537 0.060660352874311179727 -0.077639643514499909194 0.12565125537700605474 -0.0076076618087762377593 -0.13349777165010665025 -0.098921532551040927683 -0.0017730903793896804314 0.13446999235417347873 -0.080419002272976242152 0.07430485781568088588 0.13343502063115122991 0.0023962586702153689487 -1.2371784583894356201e-05 0.057004096320411333509 0.096764861607948698952 0.059966221607905781377 0.066134436511276512016 -0.040357989996565715729 -0.076292181653624849269 0.077211975436344920665 0.086524468318346994811 0.1252770509208394889 -0.022158049478895981005 0.0086931007273929796625 0.040417318010957881125 -0.081597737687768998049 0.11530396819941175768 -0.10925027324550103114 0.065313245463691049775 -0.0905582947676135952 0.10402613096261692505 -0.047877126425873314797 -0.073999856209211054003 -0.11797782061583099444 -0.099400561855397806532 -0.13006873612307440213 -0.014271893956258739633 -0.049063499008721887795 0.072976422963197271065 0.077655598807179149201 0.035851783054274964646 -0.11221345971219610915 -0.017665977688998611012 -0.058775541507050520218 0.0021005725072177194174 0.11279727170583830897 -0.032861015379646731083 -0.063958103017964812453 0.097643086518561281184 -0.12717310253151664634 0.040112173817236425333 -0.019526754775995691649 0.076476091806645829507 0.070774844072575227027 -0.083535495134051049315 0.080100872961428232211 -0.041796565354171200113 -0.074661225655273263935 0.11693784763619941014 -0.056223522841843509568 -0.01176878129715278401 0.052205429636681427441 -0.097624865805266178298 -0.12094789578228094806 0.070814336571800681752 -0.030467139129959120575 -0.079175757669861998589 -0.12638149257891981292 0.086973273125714026244 0.094915126634210034151 0.032828390056167632005 -0.070025699809308408761 -0.10488847311037870214 -0.13438607349491110687 -0.13535978834217712863 0.036257267947993138124 0.053939816216022881679 0.045292060106437430356 0.036771015669358288191 0.12104412885390504473 0.044348783728123376824 0.057249654712366003506 -0.13338713114357667044 -0.04816979481367170135 -0.023265615384536336707 -0.063797315111351490802 -0.0045473425582421402383 -0.064036845701415850973 -0.069852295846967032977 -0.012362347662526784395 0.12511193195490263874 0.030290112188084344219 0.057616461337261379305 -0.0092130734671407102376 0.032547150098626659309 -0.021895095670707395707 0.070567121316856773472 -0.054555504372148559689 0.11799599199345743583 -0.10870554632753529067 0.03965044865050613293 0.067103558174749777798 0.094766331063877842777 -0.10757895099614318835 0.082442265672786202435 0.060457350820823832493 -0.095662418220770803479 0.093888044114760899062 0.044351040112018340345 0.091148564355366945566 0.052377420036441600659 0.11034664747525781137 0.062607771920353771922 0.040803286990781617583 -0.025899315948503750379 -0.10822183597296601565 -0.01542088513692023953 -0.028474658884616105975 0.047754297144568663702 0.049913989298924585358 -0.13084370846252965648 0.059587775527764626216 0.1352721104053421497 -0.065765284615362740173 0.10914111959847398736 0.10610766753210659763 -0.0039262983220593123193 0.01218647770095496706 -0.037728014028837200677 0.13766903489400994509 -0.0569631292408645587 0.035973540486669494665 -0.0051247468069865725199 -0.12860977178068147553 0.11544882757712719712 -0.049319176745626566727 -0.054419363314492937012 0.052618654712737994439 0.021054864310880088557 -0.061380759894391519194 -0.032877594550157852871 0.12559655535024047412 -0.012997159881290736017 0.048604908505925387141 -0.10700779472244749402 0.088537586399620032962 -0.14054758501290356976 0.039955653969970118811;-0.07405649574041742178 -0.083635953570685997449 -0.052977814308180729008 -0.078167890384073332455 0.087313638036342858251 0.011987721789086044563 0.041383701483076927585 0.075819882009133546252 -0.062216520944866612886 -0.13439605034820537033 -0.11290258221334308064 0.089010247685198232159 0.10194588299772558426 0.021691156746090876212 -0.030545763278465396656 -0.026344951319903837927 -0.078995291924786534277 -0.008704609962238658849 -0.017165361623840632438 -0.12852794370908315891 0.098512705399562236486 -0.057230175235900335173 -0.13785471323738310301 0.052670018609477592397 -0.013144973735561229014 0.045970569854903838014 0.017962651301489759859 0.038977907080944229623 -0.042803405652225935685 -0.040413878019699416011 0.10482996660877297312 0.090888653655557802291 0.078941566120246636773 0.012456899471569143553 0.13742243273149434835 0.12265887830625279986 -0.11174245446692690487 0.048268241310781667686 0.045492083886690695693 0.08622720443951588376 -0.097817495025527043118 0.046470161376301756528 -0.11755850287834278267 -0.0074566776576043720948 0.085059030455872361443 0.03489111121029056517 0.033280560337452393116 0.087196113805846603428 0.066120281539897046708 0.088865626813685136276 0.11895965927206428314 0.042940958680956702043 -0.095463437040037693593 -0.096634482243239089305 0.086974988285641582908 -0.004905245982093173196 -0.066903963461542148572 -0.037018715588179942899 0.10606788368674351097 -0.0055472625505852855496 -0.13547239907224728483 0.027209920011336104217 0.079295714415199267111 0.10567201990020068381 -0.14411060584954391017 0.080245351562346453611 0.10155570256605209178 -0.12574832570254573794 -0.017800546740772093396 0.11476107060452404862 -0.042730795324849593642 0.085223229444848142 0.087880858489531116229 0.073978568949116557674 0.030155477768677663164 0.036147828994336078656 -0.063076603744097861637 0.014748397683603519173 -0.080922394416078749502 -0.11882046761022506398 0.032485323757087319896 0.14219556640236302725 0.082812974256200030942 -0.028679238427311421616 -0.090750549883724190847 0.12079900148063803245 0.096612723195940011789 0.093280614789592236624 0.027850583649012675136 0.10551240577178430669 -0.0067559734534185676355 -0.084705197855578451271 0.014471214071580650734 0.0067101886505660591001 -0.019671060410837770682 0.051068128478670288262 0.084008825395046060613 -0.12556274201955208714 -0.10227223799617908562 0.034912538741375745421 -0.02936163027732471148 0.024585512442616763024 -0.12955211156192170119 0.014854700456445041681 0.0072872961805516348055 -0.06204481295339896868 -0.038942989256596435843 -0.076967099846484351988 -0.0023157886899801329722 -0.019030498300395094075 -0.0023798927774308256504 -0.10128530645260963583 0.011458348299995731526 0.1102398510846171048 -0.019828487698364458819 0.00040983104398003699243 -0.13755761290703558131 -0.016666027422282007897 -0.042941018629903987547 -0.041643695613075140671 -0.061590694156175386509 -0.14267200661780876647 0.1426617457498615682 0.12842861019485513063 -0.14042914807193740412 -0.055354619098052955384 -0.11278878142482735847 -0.0049047468945138663829 0.052677955262358099053 0.1185182236139491474 -0.048120408960986807423 -0.042835332644866074003 0.088817480502535905984 0.13792211965000550355 -0.12155908499848104565 -0.025435656062037341474 -0.030769594395131723286 -0.05195112685433555394 0.12045022335655920787 0.017696190564857720157 -0.13995233721704913865 0.083622086744890966603 -0.14238521917050250831 0.096515103436124252689 0.055854528745585906024 -0.020219167708011902274 -0.034616297350027185054 0.062027329377369405661 0.10751141680579026638 0.038986029124413915103 0.10816344242435708967 -0.079247332394187894322 0.075273799809528460503 -0.10130208142599991805 -0.07245150212317222338 -0.11278328143824817298 -0.015142326309565759535 0.13418050098334977083 0.035210750332818188668 -0.1192225597216727967 -0.041101816510490440937 -0.00081538572705318768802 -0.098825480937111104263 0.0080653653574950367328 0.032898430596790928515 -0.06990992803417750423 0.051445797624012058746 -0.11731584425287838735 0.067785056169827592742 0.10449448778382702807 -0.12286194756183206611 -0.079636642213568406556 -0.063613344903701227184 0.0026894506269318952003 0.036491097515017015263 0.13583168891452951366 -0.1028856077450264056 -0.043161796447154704426 -0.090860772864154754069 -0.079202818567795749138 0.11950842795223322323 0.004184903429095587421 0.075477484075011383458 0.049328801960548285255 0.036360329724858989064 0.1029128295493826617 0.068854378668721127887 -0.11285484866923577163 -0.078810440294763250968 -0.0013793543308836210201 -0.035727382456442073611 -0.13074147520549625479 0.046948461695331469845 0.096294480095955647947 0.041443274351241142506 -0.011203248725700583679 0.10590011971280166581 -0.11354364512418749222 0.085257706594508972375 0.096895081791591591847 0.12930863530399369643 -0.00072486527132460210152 0.03028039785751558341 0.01274250857858768779 -0.077672004323112414648 -0.14265120191463212529 0.13715799194865752053 0.10057933924092836431 0.01854267085581687291 0.02789685215077615868 -0.14176215278579884504 -0.12377483742874431649 -0.10113509972815566684 -0.057669890884193740488 -0.13854246562621100325 -0.065505976099839310911 -0.13440198478351167433 0.037639424417286272695 -0.12235610919927612794 -0.062381388236472649911 0.00058357373015478840143 0.019347057046438891764 0.12376058526454458697 -0.052214827649556275202 0.039025930615401327461 0.077316968844783034998 0.09904702049146196785 -0.047391329232651491221 -0.055801647454403684179 0.03189798684473569429 0.096401696467229819332 -0.11963905402450937532 0.024628243085976327803 -0.095996466754389289666 0.12604728693316194499 0.027942721324439288161 -0.060560129236287216226 -0.075221784883172299052 -0.11732742762488732047 0.068327592566319456102 -0.048149355162142075393 0.10455541002513174531 0.044149125639745781524 0.053314201684327044983 0.068636761950522040543 0.05255199934241762405 -0.077150342510535416252 -0.07847184346145480438 0.08685068808286920683 0.025799134581073565609 -0.12974688237703499438 0.046905081137443210837 -0.055395343412285275031 -0.14671225496312143011 -0.075913384927968521887 -0.0092766839121401888785 -0.093834655608460326714 0.11969247671089347507 -0.10011841524171302686 0.013333501687224896121 -0.038843892401560768668 -0.13091361531163406284 -0.088775182645543931903 -0.053048681817447852771 -0.09970867994834128889 -0.0036921857467417155095 0.076911995174496317063 -0.062386648731918056821 0.046821292169707304232 -0.038332494487264695548 -0.08616665567659999303 -0.018692437475928393165 -0.14709103270197951274 0.015360859785590277871 0.0095360115441847845275 0.13658873225419826403 -0.07486417718182482306 0.13738566961012571577 -0.11959557533543982433 0.015860445216255958378 -0.081668060610749729222 -0.035330663420478226888 -0.087903543800749411874 0.097097369570568511921 0.12199262707353109025 -0.056425434529423182384 0.0061808492434100286567 -0.10799958464407309611 -0.044774209270215109546 -0.0083934743703880914517 -0.060768815500361617055 -0.12933056091080016858 -0.045871458490761039817 -0.0035213321236113666497;0.061374752816368657871 0.1350108963509263349 0.0087596846592412486165 0.10182254564474092773 0.10072944537017260169 0.12338065148173503471 0.050068829067848902303 0.047786575508992658323 0.10276878591463881052 0.043081392856560811466 -0.10752594629941650273 0.089297451856414189475 0.023460090646457282954 -0.13072609827003545124 -0.039919248726536890604 -0.09217118339302445007 0.099482125568249826775 0.11496382642607352875 0.085681348377756913481 0.10251674822915052276 -0.045064572465395025258 0.03603595063504259205 0.087728892729533630712 -0.092438416981453719323 -0.040334088778621969562 0.084313321668002746967 0.050458505652030215261 0.1454836958964326743 0.13360085889553244276 0.14119661815832704188 -0.037599119612218567799 -0.024710813551053346926 0.044875622247891565342 -0.077908565799485504644 0.082776260156199751861 0.024156724586673689742 -0.12450731008196364025 -0.080860674405856911018 0.13033081667000415149 -0.017000280924135448279 -0.10849759482524092002 -0.11312602575843810904 -0.058751155930199229493 -0.04195329322842824421 0.099590796439101653137 0.077947714262899495119 0.10957412814539531365 -0.072459580769694276192 0.12827391621379122255 0.072048098280179564967 0.011196117295814852002 0.0071550952114620208419 0.13042174688812641081 0.0074343043013328051483 0.049537115322681429808 -0.026320018698291116482 0.030166474930217946487 -0.048556296534732923398 0.018093882676569993107 -0.0069863268667859105762 0.10111761098819789517 0.034261442906683939325 -0.075450555966456014922 -0.046711218465241850784 -0.05140904598347877108 0.062727465180559174862 -0.11663389267250352799 -0.060524483389388039623 -0.10988228101139883852 -0.040421270858373971324 -0.016832068673873087916 -0.10707244675982638404 0.011296857863767346269 -0.0012694813543784042639 -0.10445752385416207098 0.013550754887125865747 0.0157083023801796208 0.046677111911511658116 0.10706835569672012998 0.083226672309568400232 0.073095749585094099698 -0.050347726961734590168 0.044224004470650744858 0.0090143377911947025066 0.075357499116831760944 0.043330679476644595738 0.051688949170121234467 0.13560649164606600192 -0.094394779042411280923 -0.064765782699049576077 -0.041307381172663394653 -0.092938722298057968585 0.06653086191065055166 0.053571563581236901486 -0.11865603886666595268 -0.088673937653360249134 0.0064715233266274012 0.013973698710112633301 -0.049976095441972810673 -0.1138340365179271868 0.04148505862038075892 -0.13978008789580084748 -0.067301244818971470152 0.0095095363374324004546 0.082577181442751931839 0.13770976156431971593 -0.015965897608962092286 0.078564044533680446603 0.11847802284948438789 -0.140631367978772015 -0.1425622542819731664 0.010979284466908403178 -0.017050289074460659583 0.048266989564946335967 -0.12059469094608228634 -0.098051820333330430568 -0.085473481927210284703 -0.084239679038464299055 0.12125392327328891884 -0.022311379699529707704 -0.076084794224568805254 -0.059433972792069779401 0.03501250969713004535 -0.061194588438012134657 -0.0037060418454483335 -0.079960678951065566888 -0.071577254273674589813 -0.076049373810400527907 -0.12386161907620667211 -0.04962202070577139551 0.014209954435121003799 0.10062024253906544369 0.10964662158939629533 0.031445570546748388696 0.028655968698459870214 0.015157598323907079535 0.10915330581067739235 -0.085262691453166630784 -0.071839961548982964046 0.095681921266155101069 0.061882618022387363144 0.061722066698416247488 0.10243229979523860163 -0.10018427717931036036 -0.034575242939840121481 0.055582281660577874394 0.043853994786313840737 0.14455617520538918686 0.04180295462781701693 0.12707238522882738363 -0.025989829768333888582 -0.051116554184407789196 0.074183439508555451547 -0.017241741871743092307 0.014148538864568033918 0.058112510221952504152 -0.011883302420627895463 -0.031545499803935478367 0.035113304360646864499 -0.043874340817840924711 0.048334760596509360187 -0.020439491220303761948 0.039850219474452754087 -0.055932361069282371391 -0.046799594613156435263 -0.14370860884050043471 -0.10098640870104001743 0.050001190371231865606 0.0012986378639115666884 -0.086604888045389030737 0.0079873289637131580226 -0.084120590158973010397 0.015242757509001225724 -0.043898601907762277441 -0.05507089389235415855 0.11848155626397081919 0.087736936335380377727 0.01500184838925061083 0.099251432507293194107 -0.11857676965174658579 0.11964613691810759011 0.046609071347951926134 -0.099381652388254831942 -0.08624772971529071075 0.071049838705231516123 -0.064827423081580043407 0.046120869823346989647 0.10677080405720480727 -0.12726780920812827413 -0.034692126851023741274 0.10365876030101181526 0.14271834433432711853 -0.056777907404454833196 0.024565463244052853503 0.047303288449115375724 0.1326688043155600516 -0.028593154705765223139 0.02334405210044739748 -0.06239370205872907249 0.097614234681430309126 0.10961585747164850901 0.00559097236563113522 0.12669412335439322881 0.11117911740503480522 0.037926461044831195901 -0.069104714902244235297 -0.028581401502812044807 -0.10832476344185253125 0.087503689621461322456 -0.061770471288376524455 0.13625476090419585962 0.046016331418330634617 -0.081139550140355440333 -0.093687130871230622775 0.0056887446025226150528 0.14249707747503537192 0.072179882588444668756 0.11075688859029451938 -0.001483651932728682378 0.03639313811091967471 0.053418671835811865067 0.080754450631646296221 -0.061523773499617025184 0.058830749331538541302 0.092842160912090049285 -0.046715288097947046952 0.040842017603594051034 -0.1265124353927198908 0.079660658541957446444 0.10242097500692916301 -0.13846595711367276627 -0.024278771381984882299 0.066271244036646262399 -0.036377031631430238601 -0.10615206080528338806 0.14437983432146919704 0.032819677915979721117 0.093456890800520733831 -0.10392783281156316166 -0.10368640217507840706 0.13647407587760840286 0.062687672554695594851 -0.11032109077175637768 0.012028884511223955633 0.10505239766155879955 0.029959071429149820159 0.069133255573984739306 -0.048929955853668653798 -0.14440336893237484817 -0.11684980812234417591 -0.0075911124110474847981 0.13244443199434469127 -0.13454597485804542512 -0.11727994170130812135 0.080762564763123378953 0.10934079406688894387 -0.13605847385913569236 0.11387323051947706443 0.017732011367890081893 -0.13657164016699993581 0.087017712122741341929 -0.097289638379903703447 -0.082971046481008503548 0.031133534202643208672 0.10005001881189477808 0.092234577354422142559 0.0042743601688165081334 -0.066376130823007972737 0.078893979830406663067 -0.10594584406075774341 -0.066945849541598476118 -0.084164098792942121374 -0.0043184255499960147451 -0.12036270035998149208 -0.018666265280676243993 0.037155341206160888423 -0.020024046949408642188 0.0015515724198931874715 0.027073880180800952155 0.13504103458767591217 0.085389955920085164331 -0.027801107250395543091 -0.046764059389562732949 0.077711587828934405864 0.14309082895423780313 -0.13223957072735420537 -0.016710504969640205958 0.036166643576456401765 -0.074624273396164050864 -0.13759586314878283209 0.14296250034467650192 0.088657533751604677974 0.051749436236858958882 0.039796799868259340183;0.053423317766210356994 0.11450129170049455629 0.06091051457759162624 -0.0017921574343565990339 0.07910599767937985527 0.13008477125610454217 0.08624173170411476852 -0.11600400085521729576 0.12466512772597848624 -0.11282512257459706428 0.13743807164164345558 -0.026071397313725357819 0.10512829416316299413 -0.0763115494939934913 0.077271582956634485284 0.11720738084220462538 -0.12447438502426552698 -0.053074832634663476894 0.083057170474381977754 -0.10820249749382331028 -0.067717217194900550248 -0.074811089819693518677 0.10757905941539781802 -0.016160888396012883933 -0.015673894380754550132 -0.057849524072033399469 -0.045725989230892896686 0.017623445087566729644 0.12300480313109179997 -0.1163508621845352059 0.12300149040458353833 0.015706747469378064264 0.012909512062047512684 0.0080217305686524631447 -0.08696326273021315334 -0.0076136088277309350164 -0.089628250038454537751 0.0043059159442485027414 0.12407641690463111495 -0.061445491404722128725 0.0091231545761369103875 0.020279475216267030258 0.074232807393672384233 -0.059700176313075614676 0.02466266315712741658 0.086760071447020109536 0.075495072061204648861 -0.076942005221672243875 -0.077457747976565322068 -0.093523105750979454442 -0.11212165920889631543 0.085206676028227984476 -0.086336479895972123577 0.12216519092686269066 -0.022839470731678218618 0.11862402736955719729 0.04382563085807499037 0.021878085211558009199 0.05209839914248199505 -0.01014414246053471115 0.031129529673555995234 0.0054198101338950059255 -0.092321933614843962324 0.1150225626530220896 0.020574506579619705748 0.037236182836010649211 -0.014873585174191617658 0.085866673274253041415 0.12806392115990919423 0.073256155231196967703 0.024599738545059354755 0.023340184905189072934 -0.08978115405878409061 -0.0066602124133672436362 -0.048336173781112372339 -0.038626502303825721585 0.09396104671172554601 -0.048296110086433592656 0.031759204947573185795 -0.028959790500188029028 0.027377555730728409672 0.070899908058338387273 0.069038458200546770627 -0.10884757453323812282 0.076273658475191574713 0.12471044286488040809 0.12407399050617995417 0.12200736338637040157 -0.11778491736773567811 0.081023542054224947928 -0.010985418630521666394 -0.092983224221646815222 -0.12097324504692338887 -0.0072089647514788704474 0.12436660681377768867 -0.019093559488508275029 0.042907953956997681166 0.093913685742729166583 0.049614068693451335301 0.01788530815738012536 -0.083729054667696145575 -0.03213395895835013949 0.057595252757851322922 -0.067742055634061826286 -0.11845768317789638624 -0.017393978618383158091 0.05292730759235563659 -0.083648823118613074845 -0.090591245033187453584 0.011805241181234944758 0.063420588541754849277 0.11011043008351295569 -0.08374587276004198666 0.017362955444422928375 0.075187909100094943438 0.12085234269093622639 -0.089251404268672243636 0.10121380404132027109 0.042337162772475664396 0.084781310555612290902 -0.079596591459902291121 -0.03547377320099978637 -0.13743866921927713753 0.011069322453631515527 -0.02366970957613556345 -0.1298889068498579602 0.042753474743197565633 0.022887971103592794075 0.13391308678081911832 0.043012541639826415429 0.073275640683404405507 -0.00702649138962147847 -0.081338229539187706374 -0.014460702028958135126 0.086975655855617034495 0.11432634311867781451 -0.13105292721900738129 0.0034976205105465376678 -0.048897616704821712796 0.065645046895543110455 -0.017200349361541335258 -0.10164984747023241007 -0.064168805746648266419 -0.079700087304687750045 -0.080852387788598059637 0.042308271146347616043 0.059205033544848316429 0.10935671851051273484 0.026132771743849515789 -0.032380853348843489925 0.11690174182437032546 0.085080864648895027091 -0.1347615323195805459 0.040208163197777188613 -0.086208740429288902019 0.11159012593011878589 0.081206255619561171222 0.016751433804734063709 0.045297411019167732604 -0.13789930733936600626 -0.10233017316612207093 -0.087636940720094341772 -0.041757712482344090665 0.11976311276305001696 -0.083258869361200721348 -0.052366605445866375168 0.036822832474665036229 0.018306972586636417744 0.11137467358959433905 0.13164849650256355007 0.098071982291132051013 -0.10913663500951875651 0.10699755745858231804 -0.098528317317261929209 -0.03635412548421350365 -0.024457345466668427986 0.010905139497383494959 0.060300034397027295341 0.12723970781739799008 0.069550521296639467028 0.066905482788815431872 -0.073499864638695414087 0.13926056367676376002 -0.018756714071566243235 0.12595639790916374201 0.10493905348211061968 -0.12342825405178871334 -0.0050242311086650028734 0.024411669827167879754 0.072383891917903994684 0.0019377729617601636286 -0.0016051651344690025334 -0.051418393443032166246 0.022003567676820729587 -0.11564760913168663226 0.018153005608797661424 -0.10450205136875445611 0.053706110098485658477 0.12642320801622949911 -0.09527890245516394685 0.086956348178819739547 0.0010433142240826567739 -0.0066252971567301128727 0.035863745240318191387 -0.050870935830656889565 0.095188605733983785995 -0.11224042472285222782 -0.085752986428436692168 0.13869961099750011124 -0.083721639463437039219 0.078986902744213077776 0.048075752857690237652 0.08342624919026533914 0.081438651189229216421 -0.12430233652296622526 -0.051121643768080281267 0.0415670821526150161 -0.1348736823140832819 -0.035479687915185333102 -0.097514425665242751573 0.068911931657538630369 -0.022298251218525910744 -0.095956315106367304213 0.065984070720158147227 0.12591385489555290134 0.054243909930097221339 -0.048361969219758521588 0.031807978264527962675 0.13657886652532399974 0.09667494325442307912 0.049845469408983981985 -0.13195168921600394785 -0.090441888598877792638 -0.09473788317069845033 -0.096555194942910010925 0.094471794161124736378 0.052872788085123377522 -0.11434969585612303478 0.13183327546573533895 -0.095210391565523966317 0.014899982287590290975 0.13069113681247596093 -0.1166125803369920666 -0.12257470605763873261 0.084852883068306614311 0.016899424091340941451 0.13657371742719223717 0.10683184555864556897 -0.12090263549729377002 -0.001012293973979916514 -0.010591710188691247363 -0.082017509097677146479 -0.021113135857305318638 -0.10704088778528332571 0.050440209576891742449 -0.00079940086827015057174 -0.12279674544516848422 0.11803815510999673966 -0.0034724725004118238425 -0.13052398982356094859 0.11146419467775563195 0.086756899311463020474 0.053313564238493295344 -0.12453962650255402667 0.13349355878167809553 -0.028493360928014174749 0.054514517795873615458 -0.052233935205072148933 0.052748673666681150651 0.084348436313210151116 0.1013589993158536956 -0.048931638313014148844 -0.038137965233369944262 -0.10325151585250109953 0.091837743203753249843 0.057600643046739494202 0.077100492294757128064 -0.059304217235088711735 -0.038464149529881676293 0.066710844278259073814 -0.1318435783432138908 -0.017989322190865578849 0.042717821720574186695 0.13060049997782519071 0.01857339674671150756 0.10855126629641317915 -0.051333008285962808404 -0.1098523470531172358 -0.026265774260408436547 0.023061065971198290575 -0.075753774523870637259 0.021906150020712746723 -0.056998545328013426603 -0.092708343794258255;-0.074799688631723496024 0.13085574417576822936 -0.089579861957480785839 0.099313732667340670623 -0.056022331561350849349 -0.12412998901662899986 0.087295082467154547223 -0.042963319489290469066 0.025900825137905324896 -0.018530508922959976897 -0.089483480615952723514 0.083351641282476698902 -0.028647064347774871262 0.09954300970649644642 0.098437257849487050376 0.051459062477112758882 0.066183139451376091222 0.064665190176324341409 -0.065454234528780047553 0.040710364609246707523 -0.031706509311862363099 -0.11559460828225318063 0.016307219623546684306 0.082696243208756667342 -0.0097231916233978948894 -0.10410789106381067304 0.1287467595779759888 -0.12405349438490444192 -0.015324160826079529299 -0.11268121590896890138 -0.13146203989582347371 0.050517281242175263167 0.082434806918062417114 0.12668574765689888384 -0.087215578029846418939 -0.049295815433511497305 0.10106648650874285045 -0.094058241622341567933 0.022697899633145942472 0.075680337054380611428 0.076750697783433102783 0.084610226364027457668 -0.051208373334677023681 0.095767864570448127393 0.051169666403203403759 0.063158096220347390015 0.12998296667138742322 -0.029131704825268729675 0.086425761441375287264 0.049614122774034562224 -0.020022338759746675929 0.077284113119311534379 -0.00050663286763487401856 -0.026141994124993562371 -0.12185986203420225149 -0.12372668620623331059 -0.079085615568060305125 0.12770445604952621044 0.10746993604044656478 0.081092197313872932396 0.0015336466211391525365 -0.03050297132322525584 -0.10683158083345169198 0.034761961745653283118 0.0013705989158368202252 -0.091249007629115877482 0.023769900317153945524 -0.040330385819021742633 0.12716409366818950955 0.019395182425950854843 -0.068208006245910932086 0.13091066497575670757 0.13089095775102746466 -0.11452061577907410306 0.095075019520406173212 -0.12133590164291545299 0.013255212357675837456 0.016148007734673501534 -0.092049690591784652516 -0.083869756175762116834 -0.077107611068899684081 -0.11247593928197271995 0.097511382490190590122 -0.01683749571231434039 0.13016471009059257802 -0.094514976407280584803 0.093639980504427691721 0.081538553371474420395 -0.081658861256298967413 -0.0062668110790166427909 -0.072215729708409989729 -0.12986218937082019687 0.063516355806428337338 0.040511756969778836557 0.077886226855519935519 -0.0035095501564581092248 -0.11177520734975224248 -0.13078906364150638675 0.11099171824583213553 0.069130623721080100563 -0.05436031441016941218 0.025315040670915205795 0.073481202158308223105 -0.10666535726628713354 0.025234205844181234468 0.041405377686941642612 -0.13199503212841401378 -0.12325577350625710471 0.10011108533329374226 -0.0065216966386231122951 0.076351339478765184454 -0.0079656860691127619883 -0.066443339174337812114 -0.057171514721075088195 -0.11138820034315882745 -0.12887910233417865236 0.066077901576112665905 0.020524254657622129083 0.087348123060882673641 -0.067319598072435996028 -0.0036033143150728847055 0.10170145999752834565 0.065636790235134731541 -0.063328330005666413904 0.081290952620583514787 -0.043376940429347254913 -0.077408768319031345806 -0.083789625579350976436 -0.011346264174371914479 -0.0075065951687384533525 -0.12315759811273110924 -0.125468965096488555 0.037938548439250638356 0.032484226400976291826 0.054984333539757242193 -0.10246365250536323965 -0.010508646628606437695 0.060146416042838872495 0.084097986526092904924 -0.062394347404893357734 -0.10617141740056537658 -0.061418846828637962965 -0.098670956577345370064 -0.099609092618358818783 0.019591351998698759013 0.059316639903203377537 0.12237422271669975982 0.11006955835968122714 0.1122595952702379607 -0.088899294047996763046 -0.05732805255643915604 -0.042336776834899961242 0.12595827068181142394 -0.11049469990760360516 -0.1028018240870656741 0.085256314782952424824 -0.034998456845910359825 -0.070186785830874579006 0.018086484744325555946 0.027516762631947820628 -0.086205693501389943356 -0.082269609332893262055 0.073203054427059169318 0.074692784513529550394 -0.078256640374341671085 0.064992909483508345958 0.085944229543670772054 -0.10590646043819981759 -0.098488849716457743666 -0.093315992151017990164 0.064770686334688673536 -0.053681921502466610485 -0.0056358197875900949494 0.034589787834223201246 -0.09863857877756350423 -0.13239797530637539835 0.053362652505218606536 -0.093747768489281457782 0.0045454762551070644963 -0.13108011569282329578 -0.028618047734519244663 -0.041907041192743674229 0.06200057853733208918 0.10627290515926272885 -0.037631101838628548684 -0.015721025131766937222 -0.027776780532817742231 -0.10017476638251099352 0.11218514310591835847 0.11175559055141898179 0.11407606867583355847 -0.059805688990314700981 0.11751442485900549795 0.10412773237953951155 0.11005269408912909945 -0.037862344134941994245 -0.02251860180462917152 -0.10607250950598592909 0.11715162336881364269 -0.12404565876791592838 -0.076657802539902133998 -0.096298357754570962364 0.078456681241536638249 -0.035327731093983849586 -0.11461273833579044279 0.13229719642088147435 -0.11193260364679358254 0.014143992019285534303 0.08825100933466449582 0.074555017698412509586 -0.056080880951231426579 0.098335031652999407847 -0.093552525288547391802 -0.033130658730683298918 -0.13402937495738043161 -0.023441033620665522458 0.0068436869389151121917 -0.055247624374109183254 -0.089723597186826736793 0.12103662407126573874 -0.13247386412633610497 0.018963679205976649578 -0.1315930409249508326 0.09663479518787547462 -0.075169167645357692908 -0.086280978927860851879 -0.060946047324163157843 -0.014562048553972034223 -0.1153027522674610339 -0.12902868880670206875 -0.092552364367855050054 -0.030019530345084682182 0.13021931456210342204 0.042997012417319679933 0.081861782887322487312 -0.023016596330716967977 0.016216687019155424238 -0.10812955097343532329 -0.11575052120140491563 0.077945137317339735494 0.10482059120435978372 -0.10218577578933631111 0.036186256267986695312 0.014067465267101867885 -0.06155557572433420499 -0.071793975008851179664 -0.069955632805464226798 0.078288366552174359914 0.0088138747507044336998 0.12591595431796528959 -0.0519888147529627212 -0.084432684227512710962 0.062052921277904238284 -0.016367707985122374736 -0.020092205026056506045 -0.050139953810480482332 0.11365985278784851431 0.12131042696330919528 -0.048509821058872963639 -0.013069556064352371924 -0.0013763584510831678321 -0.094750709818201564461 0.023508687904377462141 0.095464559765534598434 0.03755850301931477897 0.075170927195843423307 0.023486170302923957409 0.09935788611305604312 -0.084789044604329635857 -0.013665227526446034612 -0.073727029008596747794 -0.028330055756151075602 0.026381164275199226604 0.13381356382088899215 -0.027576902853755178024 0.0072625889165322922783 0.026745376189237394376 -0.032640935741773347001 0.10997390986004317026 0.10687668274767246623 -0.087647485664768487457 -0.057293461554416814929 0.021597215863232252508 -0.082734853810735961566 -0.034367430259045678165 -0.072622459510199285915 0.1076793334269634389 0.022260015953354229945 -0.0063241777464790897498 -0.12273304327051891283 -0.028271260259303414991 -0.12135719445276435535 -0.1240491911585324819 -0.041663586019718160114;-0.097870792794887598309 0.098926951458415068874 -0.09796831227569938183 0.0020422827474836247746 0.13289447137013929434 0.069094704689952810006 -0.068494863739777589462 -0.045625309557738996658 0.046606501624829863029 -0.031458327327174795407 0.058416505918421103571 0.11863365314149725005 -0.065943312375379231627 -0.040904048986342207705 -0.082793946033646134697 0.088898595807451241679 0.0380682888503674835 -0.017420055935970919087 0.088472651259895188081 -0.027941163123896713832 -0.031027634533464860944 0.12314976688995579734 -0.08468882072499325786 0.067875338330401671638 -0.036994177472154540776 -0.083980531033526081841 0.10506776360001525428 0.078861723481745610309 -0.11921266985175157926 0.12736680252700280369 0.025209371698068330087 0.102129548152140745 -0.10916020827178339603 -0.13960106924315557331 -0.058896539174606049594 0.11580774241093033661 0.099601793401761382074 -0.072298165534446456881 -0.034290100762921785216 -0.11265144982851606203 -0.1338437149352127431 0.02965945869198228016 0.076534007878402698921 0.045591252245232576079 0.0077335939768524188109 0.11158786886416706408 -0.083358312955153099355 -0.13766878501854373784 0.091771757567920095311 -0.086761622893380685451 -0.093152548809021740173 0.11914096981930981378 -0.0027917453028467190471 0.019336092787848997016 0.10619268115796631768 -0.093777570678280658401 0.13047740557604536882 0.097544509918446681285 0.11193845331578164415 -0.038862914510340573759 0.094550116628230609916 -0.12709951136136377059 0.085337478855956230839 0.044991699241856704383 -0.13585760645100827815 0.022390527137706447286 0.11503349653325638247 -0.070867826630654717768 -0.064454117238931851741 -0.044243749100077355008 0.041237999580535915356 -0.14039009055330126108 -0.11163271550825765166 0.13423079591659209386 -0.073791823632430988966 0.009100693086778511437 0.13198083503504789982 -0.089504653383099527786 0.063692107028825800663 0.020150679793675119883 -0.10160871956903173852 0.018493914613311915329 -0.085658385941767223315 -0.050745531253216805134 0.025562865879606121167 0.0083450582653002425282 0.12315259416014057159 0.037319748796072693686 0.048261818149209170792 -0.060280868432671677604 -0.0085118952038418949774 0.11791081030750991121 0.041737718417683082606 0.0038692582087431607631 0.082922618070762593723 0.056627345416670644973 -0.080040077688828106806 0.043038792414811219422 0.070399508836948204715 -0.047439059141522611773 -0.12761793323346395934 -0.11622361248135264222 -0.10778882617854690373 0.077287655687169401486 -0.097569367082888130982 0.1091210281484175787 0.037734443443273861518 -0.0035152469337312607957 0.062247928433151501759 -0.051150607522896018864 0.11846941297820175187 -0.017310865376047934044 0.10104386531937306626 0.019655435187142349107 0.020660790999405823781 -0.03478941346754176045 0.05341050988240705899 0.0056069422140668893906 -0.03845320942317241586 0.078064269564716542993 -0.0076061556459147026607 -0.086420778132113670877 -0.013663816412742625303 -0.058451681395265360497 -0.13871431536718031863 0.0001101935096116424701 0.12538616789535553253 -0.12852092647030038952 -0.11782455951724547794 0.021959510452016852561 0.10236507644771716818 -0.090169984771912112254 -0.0039719892943190565279 0.10003251400552799766 0.058679158368949255187 -0.11800600867147655049 0.084270843872631090443 0.018563858608296797403 0.098640829790297160362 -0.0051969053375784148019 0.045840205688326064737 -0.091169404246390112201 0.10806596507594949663 -0.057620131655089217027 0.073372913175578091671 -0.034223877055455091678 -0.035296548804139120381 -0.080561369747529101848 -0.11391174104307960624 0.031191750003578246064 -0.016685827014048013051 -0.11968146201048097954 0.016914441894564577473 -0.072701568961693635584 0.045546322140813277901 0.077324039625126669839 -0.11528928163265421414 0.066458054669670071912 -0.090522239207073473821 0.13311724377363307048 -0.12851410004115385033 -0.093433590885861020348 -0.079253978456774273886 