function [y1,xf1] = myNeuralNetworkFunction(x1,xi1)
%MYNEURALNETWORKFUNCTION neural network simulation function.
%
% Generated by Neural Network Toolbox function genFunction, 26-Jan-2018 17:40:38.
%
% [y1,xf1] = myNeuralNetworkFunction(x1,xi1) takes these arguments:
%   x1 = 42xTS matrix, input #1
%   xi1 = 42x7 matrix, initial 7 delay states for input #1.
% and returns:
%   y1 = 1xTS matrix, output #1
%   xf1 = 42x7 matrix, final 7 delay states for input #1.
% where TS is the number of timesteps.

% ===== NEURAL NETWORK CONSTANTS =====

% Input 1
x1_step1.xoffset = [11.9;11.9;11.9;11.9;11.9;11.9;11.9;42;42;42;42;42;42;42;8;8;8;8;8;8;8;927.15;927.15;927.15;927.15;927.15;927.15;927.15;0;0;0;0;0;0;0;0.4;0.4;0.4;0.4;0.4;0.4;0.4];
x1_step1.gain = [0.149253731343284;0.149253731343284;0.149253731343284;0.149253731343284;0.149253731343284;0.149253731343284;0.149253731343284;0.0373831775700935;0.0373831775700935;0.0373831775700935;0.0373831775700935;0.0373831775700935;0.0373831775700935;0.0373831775700935;0.15748031496063;0.15748031496063;0.15748031496063;0.15748031496063;0.15748031496063;0.15748031496063;0.15748031496063;0.0950118764845608;0.0950118764845608;0.0950118764845608;0.0950118764845608;0.0950118764845608;0.0950118764845608;0.0950118764845608;0.689655172413793;0.689655172413793;0.689655172413793;0.689655172413793;0.689655172413793;0.689655172413793;0.689655172413793;0.275862068965517;0.275862068965517;0.275862068965517;0.275862068965517;0.275862068965517;0.275862068965517;0.275862068965517];
x1_step1.ymin = -1;

% Layer 1
b1 = [-0.076752485908547690707;-0.035859239186439822999;-0.016573796164284781973;-0.15015550224435977866;-0.11162030693135520376;0.099593648983823168663;-0.014910917990179862677;0.058386928896222600738;-0.033807624639448405346;0.033057656687925179861];
IW1_1 = [-0.051799988657281019477 -0.060017948121810008044 0.0025787035837265986395 -0.049846929035077092163 -0.029370475011887380024 -0.051261097134329684788 -0.014587945693961171245 0.068707727861618217435 0.020205935543136391286 0.022168827692444888211 0.04481062229826233978 0.005199480422700964756 0.074117502102715102086 0.044729505423636066463 -0.021251970877772231872 0.0024625209139206151281 -0.0099178388639386359099 -0.033592079969663117545 -0.017723985173934135584 0.044983254875415878971 0.053915364202218159229 0.024470159131417295456 0.038950701207190581432 0.015736643018068263711 -0.0027219090844999458897 0.0065910360634449660644 -0.010842522416854970951 -0.048581537952663123026 -0.0098982876544713160882 0.0036319457105135448394 -0.020354879527480520401 -0.012859716960085894669 0.02918081202535730001 0.00029653654472801109238 -0.094035734301681703218 -0.01897367633776930046 -0.052119384865726633982 -0.071282073465199838336 -0.045621611685920188117 -0.04700385571313616534 -0.0030888161658000614848 -0.065118084423238409286 -0.025760765487130087709 -0.051799988688302760209 -0.060017948134617318812 0.0025787035747624948746 -0.049846929022656007169 -0.02937047501136019062 -0.051261097135708345862 0.0072437361812789030982 0.068707727861985909423 0.020205935542368016339 0.022168827693898319336 0.044810622299901479992 0.0051994804225006926654 0.074117502103288976367 0.043196011007881993105 -0.021251970877758655926 0.0024625209141117378533 -0.0099178388647610995349 -0.03359207996941396962 -0.017723985174501164647 0.044983254875039270504 0.044538301193232973652 0.02447015913128998757 0.038950701207122268022 0.015736643017983418386 -0.0027219090844574390931 0.0065910360632631852587 -0.010842522416905583243 0.026236103422663355905 -0.009898287655026512602 0.0036319457104343070078 -0.020354879527504438769 -0.012859716960055025264 0.029180812025355436917 0.00029653654473027311759 0.0062970446650641859199 -0.018973676337594051755 -0.052119384865726724188 -0.071282073465206527429 -0.045621611686020462073 -0.047003855712617878537 -0.0030888161659265913478 -0.02251907397660218163 -0.025760765487130025259 -0.051799988688302794904 -0.060017948134617235545 0.0025787035747624857673 -0.049846929022656076558 -0.029370475011360204498 0.025933994561016245756 0.0072437361812789282517 0.068707727861985479212 0.020205935542368051033 0.022168827693898291581 0.044810622299901507748 0.0051994804225007256251 0.020278864036883254007 0.043196011007881923716 -0.021251970877758669803 0.0024625209141117538995 -0.0099178388647610856571 -0.033592079969413962681 -0.017723985174501181994 0.023739930581451369057 0.044538301193232966713 0.024470159131289977161 0.038950701207122281899 0.015736643017983348997 -0.0027219090844574230469 0.006591036063263164442 0.027782525357520029829 0.026236103422663373252 -0.0098982876550265368881 0.0036319457104343360644 -0.020354879527504435299 -0.012859716960054966284 0.029180812025355475081 0.0063152059074063158356 0.0062970446639881048553 -0.018973676337594065633 -0.052119384865726717249 -0.071282073465206555185 -0.04562161168602042044 -0.047003855712617857721 -0.05333295685498068428 -0.022519073976602171222 -0.025760765487130049545 -0.051799988688302760209 -0.060017948134617318812 0.0025787035747624853337 -0.049846929022655993291 0.045964179016153294821 0.025933994561016176367 0.0072437361812789117718 0.068707727861985479212 0.020205935542368047564 0.022168827693898291581 0.044810622299901486931 -0.012836407066470528066 0.020278864036783500469 0.043196011007881923716 -0.021251970877758701028 0.002462520914111738287 -0.0099178388647611186169 -0.033592079969413990437 0.018255322050351432267 0.023739930581451358649 0.044538301193232883446 0.024470159130950984439 0.038950701207122254144 0.015736643017983411447 -0.0027219090844574551392 -0.027926152996341966489 0.027782525357519034098 0.026236103422663348966 -0.0098982876548476435297 0.0036319457104343469064 -0.02035487952750443183 -0.012859716960054994039 -0.0040118089370309488809 0.0063152059073735859404 0.0062970446639881169984 -0.018973676337594069102 -0.052119384865726724188 -0.071282073465206541307 -0.045621611686020413501 -0.0095481786358658053693 -0.053332956854981232453 -0.0225190739766021851 -0.025760765487130059953 -0.051799988688302760209 -0.060017948134617318812 0.0025787035747624679864 -0.03180312693624789272 0.045964179016153211554 0.025933994561016256164 0.0072437361812789473337 0.068707727861985520845 0.020205935542368040625 0.022168827693898281173 0.011701032475742851463 -0.012836407066547891528 0.020278864036783524755 0.043196011007881909838 -0.021251970877758669803 0.0024625209141117014242 -0.0099178388647611186169 0.013204292324631012462 0.018255322050351418389 0.023739930581451355179 0.044538301193232952835 0.024470159131289994509 0.038950701207122274961 0.015736643017983331649 -0.011313136840146882298 -0.02792615299902204834 0.02778252535836497894 0.026236103422663342027 -0.0098982876550265698479 0.0036319457104342874922 -0.020354879527504442238 -0.02155782803022655153 -0.0040118089370741287503 0.0063152059074063175703 0.0062970446639881143963 -0.018973676337594055225 -0.052119384865726703371 -0.071282073465206555185 -0.034195841012992909957 -0.0095481786358938558479 -0.053332956854981218575 -0.02251907397660218163 -0.025760765487130046075 -0.051799988688302781026 -0.060017948134617228606 0.037723226084040370476 -0.031803126936247864964 0.045964179016153211554 0.025933994561016176367 0.0072437361812789161086 0.068707727861985479212 0.020205935542368033686 0.031213881736618206281 0.01170103247573487347 -0.012836407066547955713 0.020278864036783510877 0.043196011007881930654 -0.02125197087775869409 0.0024625209141117651752 0.017171960840313655466 0.013204292324630943073 0.018255322050351418389 0.023739930581451330893 0.044538301193232890385 0.024470159131289977161 0.038950701207122274961 0.0062553348526797215162 -0.011313136849005717838 -0.027926152996425517711 0.02778252535751895777 0.026236103422663342027 -0.0098982876550265785215 0.0036319457104343460391 -0.048771284669421259561 -0.021557828030226544591 -0.0040118089370741218114 0.006315205907406316703 0.0062970446639881091921 -0.018973676337594041347 -0.052119384865726724188 -0.0039379137284946815964 -0.034195841012992743424 -0.0095481786358938905424 -0.053332956854981232453 -0.022519073976602174691 -0.025760765487130046075 -0.051799988688302794904 0.056453017644096839533 0.037723226083603768333 -0.031803126936247864964 0.045964179016153267066 0.025933994561016169428 0.0072437361812789109045 0.068707727861985506967 0.057089391576173494081 0.031213881736618168117 0.011701032475734875204 -0.012836407066547922753 0.02027886403678349353 0.043196011007881916777 -0.021251970877758732253 -0.029954700046273732145 0.017171960840313717916 0.013204292324630929195 0.018255322050351435736 0.023739930581451327424 0.044538301193232952835 0.02447015913128998757 -0.045681838465769827873 0.0062553348522613764701 -0.011313136849005738654 -0.027926152996425531588 0.02778252535751902022 0.026236103422663432233 -0.0098982876550264952548 -0.019364281727932350363 -0.04877128466942120405 -0.021557828030226579286 -0.0040118089370741192093 0.0063152059074062724675 0.0062970446639880970491 -0.018973676337594055225;-0.021451809896574466213 -0.021051278781582170169 -0.035391586432810789864 -0.02058027982737416911 -0.015902919589742395279 0.011259564065628429458 -0.036146874893408335871 0.042914205888570061687 0.053418788730080081495 -0.021057052541151942415 -0.0055140594543796623422 0.001957493263861597322 -0.015382897124264388253 -0.029585543755389891868 0.033529186262599854074 0.014651927691244242755 -0.058590052688031191153 -0.027119714053913532986 0.030682088240164370752 0.050516664892214964422 -0.0017211945672787793988 0.023847322912475616558 0.0098751758132232508175 0.017960464154476964843 0.023864029962630622927 0.045561745211691685731 0.073087365390312561408 0.051137440637008958755 -0.011140447055116669411 -0.0067055133167050169976 0.029865746319444101686 0.018438692633922330877 0.012145010339998173199 -0.057763129540788535343 0.0087853410951635128173 0.0025274956631748291165 -0.0015385695932722970054 0.059312748296777864643 0.015566276133939781559 -0.0034491226007803605681 0.0013725487229847654989 0.075698157838466034741 -0.024742995253467191946 -0.021451809887558990347 -0.021051278782662580236 -0.03539158643809432736 -0.020580279819852064643 -0.015902919593887100691 0.011259564061694973466 0.059708746228244048704 0.042914205888846139458 0.053418788730999547387 -0.021057052540789676642 -0.0055140594531311436927 0.0019574932620666789414 -0.015382897124130344435 -0.012723162389793520044 0.033529186261727489393 0.014651927692149928004 -0.05859005268751849016 -0.027119714052833625989 0.030682088240423163739 0.050516664892444405888 -0.018564730314487479235 0.023847322913086207996 0.009875175813125603233 0.01796046415433959903 0.023864029962540531798 0.045561745211581794468 0.073087365390242770014 0.0079868755117528267978 -0.011140447055105369423 -0.0067055133166009162418 0.029865746319344733256 0.018438692633935115789 0.012145010340185414047 -0.057763129540828114794 0.0022900859125403946748 0.0025274956631606533899 -0.0015385695932952291824 0.059312748296757152044 0.015566276136173002112 -0.0034491226007802109482 0.0013725487229621004693 0.028394540533349020561 -0.024742995253462067573 -0.021451809887558990347 -0.021051278782662594113 -0.035391586438094216338 -0.020580279819852009132 -0.015902919593886937627 -0.027871958298194419307 0.059708746228244034826 0.042914205888846111703 0.053418788730999547387 -0.021057052540789697459 -0.0055140594531305209269 0.0019574932620666177924 -0.030808504156441283983 -0.012723162389793405552 0.033529186261727496332 0.014651927692149954024 -0.058590052687545829402 -0.027119714052833594764 0.030682088240423170677 -0.0054643910944888584441 -0.018564730314487493112 0.02384732291308618371 0.0098751758131256084372 0.017960464154339668419 0.023864029962540434654 0.04556174521158178059 -0.0044221693259729136921 0.007986875511752800777 -0.011140447055105336463 -0.0067055133166009032314 0.029865746319344691623 0.018438692633935174769 0.012145010340185367209 0.049392801158715061993 0.0022900859130482332376 0.0025274956631606533899 -0.0015385695932951845132 0.059312748296757152044 0.015566276136173021194 -0.0034491226007802478111 0.024048151812720016535 0.028394540533344111294 -0.024742995253462074512 -0.021451809887559028511 -0.021051278782662503908 -0.035391586438094348177 -0.020580279819852033418 -0.022018876305511303482 -0.027871958298297239837 0.059708746228244027887 0.042914205888846104764 0.053418788730999616776 -0.021057052540789749501 -0.0055140594531305209269 -0.007591295392691625385 -0.030808504156439306398 -0.012723162389793355245 0.033529186261727454699 0.014651927692150078925 -0.058590052687545829402 -0.027119714052833563539 0.027388272200128939426 -0.0054643910944889928852 -0.018564730314487489643 0.023847322912037262344 0.0098751758131256361928 0.017960464154339758625 0.023864029962540441593 -0.0032837284510756300539 -0.0044221693258591470571 0.0079868755117528458798 -0.011140447054867356688 -0.0067055133166009040988 0.029865746319344677745 0.018438692633935105381 -0.011654913152748254401 0.049392801158760657465 0.0022900859130481907369 0.0025274956631606403795 -0.0015385695932951636965 0.059312748296757172861 0.015566276136172991704 -0.024193909738372029739 0.024048151812720418991 0.028394540533343941291 -0.02474299525346202247 -0.021451809887558983408 -0.021051278782662566358 -0.035391586438094320421 -0.027686753935077756256 -0.022018876305032773072 -0.027871958298297253714 0.059708746228244020948 0.042914205888846111703 0.053418788730999533509 -0.02105705254078969399 -0.03964385480812845225 -0.007591295392691555996 -0.030808504156439309868 -0.012723162389793370858 0.033529186261727440821 0.014651927692149945351 -0.058590052687545850219 0.053182289503744692438 0.027388272200110301557 -0.0054643910944889391088 -0.018564730314487468826 0.023847322913086159424 0.0098751758131256257844 0.017960464154339716991 -0.0073075282470156620318 -0.0032837284285884686154 -0.0044221693242473296068 0.0079868755117527921034 -0.011140447055105372892 -0.0067055133166010758364 0.029865746319344754073 -0.038705699992516301444 -0.011654913152790175729 0.049392801158792402905 0.0022900859130482423449 0.0025274956631607275494 -0.0015385695932951754059 0.0593127482967571798 -0.050237546561475443507 -0.024193909738373951812 0.024048151812720425929 0.028394540533344093947 -0.02474299525346202594 -0.021451809887558993817 -0.021051278782662587175 -0.0062691279934981554781 -0.027686753935077759725 -0.022018876305032825114 -0.027871958298297180856 0.059708746228244208298 0.042914205888846063131 0.053418788730999609837 -0.031068567191142499456 -0.039643854808334190454 -0.0075912953926916219155 -0.030808504156439268235 -0.012723162389793350041 0.033529186261727454699 0.014651927692150063312 0.04894606110103413843 0.053182289503703426836 0.027388272200110381355 -0.0054643910944889937525 -0.018564730314487461887 0.023847322913086232282 0.009875175813125622315 0.0074592836959287778589 -0.0073075282470213510574 -0.0032837284513052168028 -0.0044221693258591513939 0.007986875511752769552 -0.011140447055105379831 -0.0067055133166010593565 0.020936465900687074859 -0.038705699992516273689 -0.011654913152790217362 0.049392801158792402905 0.0022900859130481595119 0.0025274956631607054316 -0.0015385695932952348202 -0.01090453140532469424 -0.050237546561475408813 -0.024193909738373979568 0.024048151812720394704 0.028394540533343989863 -0.024742995253462001654 -0.021451809887558973 -0.023160180004501706996 -0.0062691279934949549132 -0.027686753935077763195 -0.022018876305032866747 -0.027871958298297191264 0.059708746228244201359 0.042914205888846132519 -0.050867064819166564471 -0.031068567191142364148 -0.039643854808334107187 -0.0075912953926916115072 -0.030808504156439254357 -0.012723162389793391674 0.033529186261727468576 0.059046089661207876165 0.048946061101248890257 0.053182289503703461531 0.027388272200110384824 -0.0054643910944889859463 -0.018564730314487458418 0.023847322913086187179 0.020432027473726167843 0.0074592836959068171271 -0.0073075282470213632005 -0.0032837284513053577491 -0.004422169325859072464 0.0079868755117528649617 -0.011140447055105319116 -1.4701409964137609511e-05 0.020936465900686804242 -0.038705699992516273689 -0.011654913152790196545 0.049392801158792395966 0.0022900859130482336713 0.0025274956631606772424;0.035376367474192024765 0.034845857383506456673 -0.0097060986570472063822 -0.032208288089754309735 -0.059697521310951282003 -0.036447264453073245638 0.019253838491725773496 -0.024132560669978896095 -0.047510538460076245926 0.066188738499415533667 0.035401184234370282333 0.044457586265332901809 0.018518933071537312107 0.024754482965074979528 0.0060426262063839565261 0.02474568974045509781 0.031468570795162159603 -0.0024029489597340194899 -0.036314727277732994359 -0.0087571012748341101051 0.070012296582947858292 -0.0040598248009598930999 -0.013439988709448154672 -0.017673497900268682337 -0.012399492565968870533 -0.025438135344372794777 -0.076032851532881917667 -0.11874040286854238568 0.071265516697624750608 0.025340390159660282354 -0.009679372702224107311 -0.029121827727958963378 -0.011868976902060080977 0.045271662249899036201 0.073391594241558777423 0.010322196589937096198 0.075099712153321243613 -0.022078534857311343798 0.0055741557024305398577 -0.014452241999839325268 0.047243148366426138129 0.11443771301558171294 -0.015748419403365687685 0.035376367504077035897 0.034845857381835813882 -0.0097060986446113224624 -0.032208288089342215765 -0.059697521304574868717 -0.036447264453333821921 -0.039915783210361793776 -0.024132560671724610779 -0.047510538461082343908 0.066188738497297436303 0.035401184237747719552 0.044457586263265555515 0.018518933073647107085 -0.054318664395702605241 0.006042626206346069298 0.024745689740161717907 0.031468570795923286876 -0.0024029489595569649384 -0.03631472727795544142 -0.008757101274950255046 0.061776995625100056264 -0.0040598248011947538419 -0.013439988709470274131 -0.017673497900478219585 -0.012399492563367741152 -0.025438135344305314034 -0.076032851532898182434 -0.038284172696023605065 0.071265516697600783669 0.025340390159485148142 -0.0096793727022785568115 -0.029121827728000430208 -0.011868976902000092505 0.045271662251196824467 -0.026435192118644996323 0.010322196589361400457 0.075099712151919531533 -0.022078534857482564474 0.0055741557040155679734 -0.014452241999785030158 0.047243148366426283846 0.021370542176464200207 -0.015748419403364480318 0.035376367504077022019 0.034845857381835820821 -0.0097060986446113710346 -0.032208288089342208826 -0.059697521304574875656 -0.036560814393369868436 -0.039915783210361821531 -0.024132560671724624657 -0.04751053846108233697 0.066188738497297450181 0.035401184237747712613 0.044457586263393453208 -0.055525586909645714695 -0.054318664395518495569 0.0060426262007605910376 0.024745689740162724046 0.031468570795923231365 -0.0024029489595882380995 -0.036314727277957981055 0.010993194524108856544 0.061776995625100049325 -0.0040598248011947338926 -0.01343998870946983698 -0.017673497900478219585 -0.012399492563367772377 -0.025438135344305334851 -0.000816272628141653106 -0.038284172696238821798 0.071265516697600797547 0.025340390159444357854 -0.0096793727022785672198 -0.029121827728000388574 -0.011868976902000262508 0.0036788449718788535613 -0.026435192118637304559 0.010322196589361414334 0.075099712151919531533 -0.022078534857482561005 0.0055741557040155428199 -0.01445224199978504577 0.043826936569413339762 0.021370542176463485501 -0.015748419403364400521 0.035376367504077001203 0.034845857381835994293 -0.0097060986446113866472 -0.032208288089342167193 -0.026493487998572179398 -0.03656081439326137883 -0.039915783210361814592 -0.024132560671724638535 -0.047510538461082330031 0.066188738497297422425 0.03540118423774773343 0.030188046336354901894 -0.055525586909645714695 -0.054318664395518523325 0.0060426262063107607364 0.024745689740162724046 0.031468570795923120342 -0.002402948959577628097 -0.021880877590365891555 0.010993194524108833993 0.061776995625100104836 -0.0040598248011946809835 -0.013439988709469824837 -0.017673497900499424845 -0.012399492563367737683 0.036621869642052808091 -0.00081627262814212299923 -0.038284172696238835676 0.071265516696726829982 0.025340390159444278056 -0.0096793727022785672198 -0.029121827728000409391 0.086905806433869303707 0.0036788449714805796995 -0.026435192118637280273 0.010322196589361435151 0.075099712151919531533 -0.022078534857482567944 0.0055741557040155115949 0.0079987205761018111833 0.043826936569413561806 0.021370542176463561829 -0.01574841940336446991 0.03537636750407707753 0.034845857381835924904 -0.0097060986446113033804 -0.0068607064412794446784 -0.026493487998630958768 -0.03656081439326137883 -0.039915783210361821531 -0.024132560671724700985 -0.047510538461082330031 0.066188738497297436303 0.010118834418829342897 0.030188046336300025652 -0.055525586909645742451 -0.054318664395518516386 0.0060426262063107208378 0.024745689740162727516 0.031468570795923272998 -0.011877006333655005382 -0.021880877590366065027 0.010993194524108811441 0.061776995625100104836 -0.004059824801194727821 -0.01343998870946983698 -0.017673497900478150197 -0.026612106507538316885 0.0366218696361146831 -0.0008162726281421802451 -0.038284172696238835676 0.071265516697600797547 0.025340390159444330098 -0.009679372702278572424 -0.030637089931631274892 0.086905806433869386973 0.0036788449714805805668 -0.026435192118637273334 0.010322196589361421273 0.075099712151919531533 -0.022078534857482578352 -0.041993974003934078643 0.0079987205760302711871 0.043826936569413624256 0.021370542176463506318 -0.01574841940336446991 0.035376367504077070592 0.03484585738183582776 0.03093896917010959674 -0.0068607064412794472805 -0.026493487998630986524 -0.036560814393340822226 -0.039915783210361821531 -0.02413256067172460731 -0.04751053846108233697 0.0065589352847754455247 0.010118834416755319652 0.030188046336300049938 -0.055525586909645804901 -0.05431866439551848863 0.0060426262063107442565 0.02474568974016270323 0.030692757162190994341 -0.011877006334046955743 -0.021880877590366130947 0.01099319452410882185 0.06177699562510002157 -0.0040598248011947260863 -0.013439988709469805755 0.071594184253112924665 -0.026612106507554737778 0.036621869648145372045 -0.00081627262814218122088 -0.038284172696238842615 0.071265516697600797547 0.025340390159444375201 -0.012798593603327764953 -0.030637089930839071783 0.086905806433869289829 0.0036788449714805801331 -0.026435192118637273334 0.010322196589361423008 0.075099712151919531533 -0.043123302059675079623 -0.041993974003934224359 0.0079987205760302243496 0.043826936569413596501 0.021370542176463482031 -0.015748419403364438685 0.035376367504076987325 0.025413949281658923529 0.030938969170109565515 -0.0068607064412794368721 -0.026493487998630941421 -0.036560814393261420463 -0.03991578321036182847 -0.024132560671724648943 -0.010583792856277151467 0.0065589352847754515963 0.010118834416755392511 0.03018804633630003259 -0.055525586909645735512 -0.054318664395518523325 0.0060426262063107529302 0.022651099256751149047 0.030692757162191008219 -0.011877006334046929723 -0.021880877590366054619 0.010993194524108868687 0.061776995625100111775 -0.0040598248011947260863 -0.026586561311969233307 0.071594184252892101306 -0.026612106507554730839 0.036621869648145448373 -0.00081627262814218328087 -0.038284172696238828737 0.071265516697600811424 -0.028547698562262188021 -0.012798593602789764753 -0.03063708993083903015 0.086905806433869386973 0.0036788449714805792658 -0.026435192118637304559 0.010322196589361416069;-0.031559472467207562441 -0.046809548649426782618 0.082198932025030757575 -0.027180824869443068886 -0.025976814393339351522 -0.069939674236009219399 -0.055756258175657207043 0.010665955200910886419 -0.027206791906851015422 -0.053234040296443317641 -0.079669825108414055181 -0.10116414306323451289 0.030467458046179621972 -0.0082241842164354327788 0.0076616855585620877514 -0.00081988176618838113849 0.09240759307941895373 -0.050169774318110892108 -0.053870234695468421915 0.015231755231858047986 -0.011402567247393247118 -0.036360472786747650986 -0.0073855461672095628137 -0.021899336311338425676 -0.011106047785176662371 -0.013003187786773508575 -0.07426314092385917498 -0.10796979493250150051 0.048723228262258257149 0.048049488845988690133 0.0021344689686772552045 0.045072295827111898137 -0.028077801718029513772 0.036565418893153039948 -0.037239948061028343984 -0.0022557561036227438862 -0.039337211157021011176 -0.063161168836885314692 0.040963333988502680094 -0.033603099122030646861 0.086523041429303879091 -0.034506632835304341944 -0.0036585388159878569521 -0.031559472475412471415 -0.046809548648637983037 0.082198932030821417194 -0.027180824873337439823 -0.025976814392415347593 -0.069939674236267457275 -0.036426597250616685186 0.010665955202461135931 -0.027206791907908110806 -0.053234040294793970316 -0.079669825108814665282 -0.10116414306446779026 0.030467458047024466999 0.025084961824458257978 0.0076616855584080070102 -0.00081988176537955157266 0.092407593079415623061 -0.050169774317802166841 -0.053870234695474771003 0.015231755231775567089 -0.024081064626078136498 -0.036360472785784650473 -0.0073855461671312140279 -0.021899336311378293091 -0.011106047784828335101 -0.013003187786699656192 -0.074263140923805856519 0.048913356414850846232 0.048723228246684915921 0.048049488845192646347 0.0021344689688599814345 0.045072295827386303635 -0.028077801720666623053 0.036565418892930544315 0.016723753559010744868 -0.0022557561036227477894 -0.039337211157020969543 -0.063161168836885314692 0.040963333988502485805 -0.033603099122030695434 0.086523041429303892969 -0.089687472289324082775 -0.0036585388159878686615 -0.031559472475412402026 -0.046809548648637976098 0.082198932030821472705 -0.027180824873354634402 -0.025976814392415260857 0.085919252705164192441 -0.036426597250636322256 0.010665955202461149809 -0.02720679190698540445 -0.053234040294794067461 -0.07966982510881467916 -0.1011641430644677625 0.0093267293259027411745 0.025084961824532042707 0.0076616855579626583911 -0.00081988176537955515053 0.09240759307941569245 -0.05016977431780217378 -0.053870234695474764064 0.0066482538490539007728 -0.02408106462607812609 -0.036360472785784615779 -0.0073855461671312443855 -0.02189933631137830003 -0.011106047784828347244 -0.013003187786699680478 0.083810897264647452043 0.048913356413742212214 0.048723228246684957554 0.048049488845065796427 0.0021344689688599632199 0.04507229582738626894 -0.028077801720666709789 -0.020063482097863561543 0.016723753559010741399 -0.0022557561036227330442 -0.039337211157020969543 -0.06316116883688532857 0.040963333988502485805 -0.033603099122030619106 -0.1287721896679941691 -0.089687472289324082775 -0.0036585388159878812382 -0.031559472475412443659 -0.046809548648637969159 0.082198932030821403316 -0.027180824873354641341 0.099656265893585102567 0.085919252705164123052 -0.036426597250636377767 0.010665955202461141135 -0.027206791906985394042 -0.053234040294793977255 -0.07966982510881467916 -0.019769828281080904786 0.0093267293259027498481 0.02508496182453202536 0.0076616855584080538477 -0.00081988176537952837074 0.092407593079415623061 -0.050169774317971017885 -0.019309390429751792373 0.0066482538490539103138 -0.024081064626078136498 -0.036360472785784629657 -0.0073855461671311819355 -0.021899336311521487575 -0.01110604778482834204 -0.01752927685406991537 0.083810897259767647149 0.048913356413742205275 0.048723228246684915921 0.048049488845065817244 0.0021344689688599597505 0.045072295827386289757 -0.02371718933999647505 -0.020063482097863565012 0.016723753559010744868 -0.002255756103622756463 -0.039337211157020983421 -0.06316116883688532857 0.040963333988502485805 -0.011232341868228553142 -0.12877218966799422462 -0.089687472289324068897 -0.0036585388159878742993 -0.031559472475412492232 -0.04680954864863796222 0.082198932030821417194 -0.067770121883067441226 0.099656265893547354984 0.085919252705164109174 -0.036426597250636322256 0.010665955202461132462 -0.027206791906985380164 -0.053234040294794067461 0.035805572761448141439 -0.019769828281080235183 0.0093267293259026995411 0.025084961824532164137 0.0076616855584080148164 -0.0008198817653795501632 0.09240759307941569245 -0.054007107389020668486 -0.019309390429751733392 0.0066482538490539033749 -0.024081064626078133029 -0.036360472785784581085 -0.0073855461671312174973 -0.021899336311378289621 0.051998355030302825797 -0.017529276860378244229 0.083810897259767647149 0.048913356413742198336 0.048723228246684950615 0.048049488845065824183 0.0021344689688599653883 0.015303074901212788267 -0.023717189340195603958 -0.020063482097863558073 0.016723753559010755276 -0.0022557561036227443199 -0.039337211157020997299 -0.063161168836885314692 0.03710657093084247099 -0.011232341868228400486 -0.12877218966799422462 -0.089687472289324041141 -0.0036585388159878782025 -0.031559472475412506109 -0.046809548648637941404 -0.048203666576613304895 -0.067770121883049719291 0.099656265893547368862 0.0859192527052929228 -0.036426597250636398584 0.010665955202461130727 -0.027206791906985394042 0.076266978959376424685 0.035805572761448231645 -0.019769828281080176202 0.0093267293259027862773 0.025084961824532157199 0.0076616855584079723157 -0.00081988176537954571797 -0.044783195019144468596 -0.054007107389020578281 -0.019309390429751729923 0.0066482538490539736312 -0.024081064626078112212 -0.036360472785784622718 -0.0073855461671312348446 0.055509323001292194821 0.051998355030344167726 -0.017529276853600266745 0.083810897259767661027 0.048913356413742205275 0.048723228246684957554 0.048049488845065810305 0.011746195131483963547 0.015303074901212763981 -0.02371718934019559355 -0.020063482097863568482 0.016723753559010758746 -0.0022557561036227425852 -0.039337211157020976482 -0.040807361593629742913 0.037106570930842429357 -0.011232341868228556611 -0.12877218966799422462 -0.089687472289324082775 -0.0036585388159877060311 -0.031559472475412408965 0.035490944052646022921 -0.048203666576613318773 -0.067770121883049719291 0.099656265893547382739 0.085919252705164109174 -0.036426597250636391645 0.010665955202461146339 0.064377819652861725808 0.076266978955347897173 0.035805572761448155317 -0.019769828281080231713 0.0093267293259027498481 0.025084961824532160668 0.0076616855584080451741 -0.076483841981913061603 -0.044783195018807932242 -0.054007107389020578281 -0.019309390429751795842 0.0066482538490539042422 -0.024081064626078139967 -0.036360472785784622718 0.11825051497589952887 0.055509323000252575042 0.051998355030344160788 -0.017529276853600273683 0.083810897259767647149 0.048913356413742205275 0.048723228246684943676 0.073284042397206039521 0.01174619513148397569 0.015303074901212803879 -0.023717189340195569264 -0.020063482097863554604 0.016723753559010748337 -0.0022557561036227421515;0.0093530275081486532324 -0.029296042282938809104 0.085728460161264452566 0.01324248304109211169 -0.028664272451579795448 0.025869761176526857166 0.076933708058846486666 0.035371039225851934329 0.034829638019455905207 -0.038159197426730191716 0.0066083193057466498715 0.0028200653169292927772 -0.041482003739336817394 -0.14849533865104966313 -0.0078601879323863723531 0.076708827918251343281 0.018897006693044865466 0.02781046088311568687 -0.0017424909178885084407 0.039417297669565656837 -0.023066038395575440972 -0.017824063834559492059 0.017060777150006478653 0.048091617947848726289 0.034400458800602960741 0.053180587954402773476 0.0023576968434036336617 -0.11191590732163510247 -0.054920413678087531828 0.020167726685589856123 0.10241352142321170915 0.10723465478872397372 0.035666285816142985488 0.083454627716562410078 0.0066328380913022472881 -0.0055196474666775871207 -0.010994466130202440457 -0.0010489128303070493955 0.0016191731033288613191 -0.049107444680473365251 0.037467108853554975667 0.062165174619742968876 -0.039993913697804264751 0.0093530274922412857952 -0.029296042282298487974 0.085728460179127621843 0.013242483035277629114 -0.028664272455113819216 0.025869761177919486234 -0.013065563470529862125 0.035371039224592115691 0.034829638021417856641 -0.038159197428062341384 0.0066083192896171424197 0.00282006531803162281 -0.041482003739945330634 0.00084853642006623548021 -0.0078601879313264459009 0.076708827918717373273 0.018897006692093404334 0.027810460882506764235 -0.0017424909178803749728 0.039417297669725973042 -0.021596373558289416739 -0.017824063834916397536 0.017060777149642790407 0.048091617948047712949 0.034400458800662732373 0.053180587954250520266 0.0023576968436170133228 -0.024378166324546261118 -0.054920413677926542551 0.020167726685106721757 0.10241352142170903616 0.10723465479169234926 0.035666285815545241411 0.083454627716512991276 0.0084110229184483232406 -0.0055196474683162520189 -0.010994466130039274102 -0.0010489128308100229264 0.0016191731033401192408 -0.049107444680454755137 0.037467108853567458737 0.036555593419106219288 -0.039993913697804257812 0.0093530274922412788563 -0.029296042282250262662 0.085728460179127566332 0.013242483035277705442 -0.028664272455113784521 -0.048135353206847315832 -0.013065563470491748516 0.03537103922459218508 0.034829638021417870519 -0.038159197428062362201 0.0066083192896170990516 0.0028200653180315950544 0.024128213542185153462 0.00084853637827685980937 -0.0078601879208777328256 0.07670882791871733164 0.018897006692093015756 0.027810460882506708724 -0.0017424909178803936211 -0.044176006888485573609 -0.021596373558410097981 -0.017824063834916397536 0.017060777149642814693 0.04809161794804764356 0.034400458800662718495 0.053180587954250506388 -0.020137672683458080619 -0.024378166325212245746 -0.054920413677926507856 0.020167726685439278655 0.10241352142170906392 0.10723465479169236314 0.035666285815545324678 0.027341004280195934512 0.0084110229184375454037 -0.0055196474683162632946 -0.010994466130039275836 -0.0010489128308099476827 0.0016191731033401446111 -0.049107444680454748198 0.046056752985341634088 0.036555593419095401553 -0.039993913697804299445 0.0093530274922413361022 -0.029296042282250248784 0.085728460179127552454 0.013242483035277707176 -0.025148026545176862395 -0.048135353206612815913 -0.013065563470491746781 0.035371039224592205896 0.034829638021417898275 -0.038159197428062334445 0.0066083192896171068578 0.015503794685871137224 0.024128213542185094481 0.00084853642021669867246 -0.007860187931326438962 0.076708827918717401029 0.018897006692093029634 0.027810460882473395094 0.010865065407787493149 -0.044176006888485580548 -0.021596373558410097981 -0.017824063834916404475 0.01706077714964283551 0.048091617948692259865 0.034400458800662794823 0.08947240419464770611 -0.020137672673444732829 -0.024378166325212242277 -0.054920413677926535612 0.020167726685439382739 0.10241352142170906392 0.10723465479169248804 0.060484932977905560281 0.027341004280476532973 0.0084110229184375384648 -0.0055196474683162485494 -0.010994466130039277571 -0.0010489128308098709212 0.0016191731033401285649 -0.027752094378644193845 0.046056752985341772866 0.036555593419095429308 -0.039993913697804292506 0.0093530274922412892646 -0.029296042282250259192 0.085728460179127621843 -0.014783255835621371063 -0.025148026545206529636 -0.048135353206612829791 -0.013065563470491760659 0.035371039224592198957 0.034829638021417884397 -0.038159197428062341384 0.041930664973435831377 0.015503794685872747047 0.024128213542185118767 0.00084853642021654742626 -0.007860187931326458044 0.076708827918717373273 0.018897006692093012287 0.089062216279247569117 0.010865065407780554255 -0.044176006888485587487 -0.021596373558410091043 -0.017824063834916401006 0.017060777149642828571 0.048091617948047719888 0.048189676437553084776 0.089472404193815219253 -0.020137672673444701604 -0.024378166325212263094 -0.054920413677926528673 0.020167726685439386208 0.10241352142170906392 0.015134391234841252857 0.060484932978695532535 0.027341004280476532973 0.0084110229184375818329 -0.0055196474683162511515 -0.010994466130039275836 -0.0010489128308100203243 -0.016019608680391438787 -0.027752094378640582151 0.046056752985341758988 0.036555593419095394614 -0.039993913697804230056 0.0093530274922413690619 -0.029296042282250186334 0.019886637528989226098 -0.014783255829816634164 -0.025148026545206550453 -0.048135353206871872578 -0.013065563470491736373 0.035371039224592129568 0.034829638021417905214 0.04389864357517837129 0.041930664973337750112 0.015503794685872929193 0.024128213542185077134 0.0008485364202167181881 -0.0078601879313264493704 0.076708827918717317762 0.065727491345111230259 0.089062216279292866217 0.010865065407780493539 -0.04417600688848556667 -0.021596373558410077165 -0.01782406383491637672 0.017060777149642828571 -0.065558243233777846459 0.048189676432115101379 0.08947240419381517762 -0.020137672673444712013 -0.024378166325212332483 -0.054920413677926507856 0.020167726685439396617 -0.043274730269816208406 0.015134391234825354117 0.060484932978695525596 0.027341004280476539912 0.0084110229184375731593 -0.0055196474683162416106 -0.01099446613003928451 0.13475005503789808103 -0.016019608680391393685 -0.027752094378640533578 0.046056752985341710416 0.036555593419095415431 -0.039993913697804278629 0.0093530274922413551841 -0.19639520101686608333 0.019886637528989250384 -0.014783255829816668858 -0.025148026545206609433 -0.048135353206612829791 -0.013065563470491734638 0.035371039224592115691 -0.024467858468548975975 0.043898643576985828252 0.041930664973337819501 0.015503794685872927459 0.024128213542185143053 0.0008485364202166817589 -0.0078601879313263921245 0.013190116695607297451 0.065727491345089178454 0.089062216279292796828 0.010865065407780491805 -0.044176006888485552793 -0.021596373558410087573 -0.017824063834916383658 0.015114961439733991949 -0.065558243221623513364 0.04818967643211509444 0.089472404193815163742 -0.020137672673444757115 -0.024378166325212332483 -0.054920413677926535612 0.086005064877253831201 -0.043274730270140213118 0.015134391234825359321 0.060484932978695546413 0.027341004280476578076 0.0084110229184375488731 -0.0055196474683162398758;-0.040563121677801197706 -0.012043582284497223248 0.0026425141777387120903 0.020513316772489440659 0.058356236840470553096 0.053144243505147056861 0.053479822483180908255 0.074569307319621955243 0.034945198685523419513 -0.0060589740235258175358 -0.001413362982533603561 -0.0077931376656575545789 0.00026713603660846816767 0.012907212910580561846 0.016873186285397162587 0.0036999327767639148684 0.014670749415799532248 -0.01746585577495774616 0.026296521193873923644 0.0058919366879463868844 0.019014604356029470716 -0.0080222265079074681765 -0.0242040915009256348 -0.026540421410161940674 -0.0098120298667899834288 0.012529733177036136982 0.017617450583785145002 0.060900549725121495837 0.012484105067991876567 0.018095962474791268959 0.036516649743555132379 0.060226012988520503944 -0.033581033376932016565 -0.042647915246837864167 0.062969492460008671952 0.0020919539656938982396 -0.014469678439991784033 0.031616398111143161065 0.068667965137161432465 0.00090351123340321663844 -0.10403552857315567781 0.0059015212430516611128 -0.0026562370191496264236 -0.040563121658455346397 -0.012043582298466250571 0.0026425141680568409001 0.020513316773951042332 0.058356236838454894622 0.053144243506666716259 0.04769719982836716915 0.074569307318705965737 0.03494519868807906271 -0.0060589740226086197944 -0.0014133629814462546001 -0.0077931376664032514859 0.00026713603717218206528 0.016558122078770498575 0.016873186284881824815 0.003699932776524663975 0.014670749416415319183 -0.017465855774936964173 0.026296521193722138809 0.0058919366882550696513 -0.042154375804921304094 -0.008022226507724635261 -0.024204091500744533139 -0.026540421410246178846 -0.0098120298666985183988 0.012529733176906233949 0.017617450583823836274 0.016447474363722590363 0.012484105068002957981 0.018095962474518532265 0.0365166497435385623 0.060226012988590621466 -0.033581033357947556728 -0.042647915246837898862 0.012842840743934404862 0.0020919539659844466409 -0.014469678441318179624 0.031616398111556712203 0.068667965137114733709 0.00090351123340330575986 -0.10403552855915861042 0.043891699524430949353 -0.0026562370191562478632 -0.040563121658427292449 -0.012043582298466280062 0.0026425141680567944963 0.020513316773951038863 0.058356236838454866866 -0.065568242526503714429 0.047697199828356844076 0.074569307318705965737 0.034945198688079069649 -0.0060589740226086163249 -0.0014133629814462285793 -0.0077931376664032566901 -0.024099014395103843938 0.016558122092426342392 0.016873186276283966278 0.0036999327765094083831 0.01467074941641527408 -0.017465855774936946826 0.026296521193722211668 0.0043024850249350739609 -0.042154375804921269399 -0.0080222265077246109749 -0.024204091500747169918 -0.026540421410246178846 -0.0098120298666985652364 0.012529733176906145478 0.020203445594716658296 0.016447474312142652125 0.012484105068002978797 0.018095962474776999124 0.036516649743538541484 0.060226012988590614528 -0.033581033357947508156 -0.0088850906106708264082 0.012842840743934397923 0.0020919539659844392683 -0.014469678441318183093 0.031616398111556712203 0.068667965137114719831 0.00090351123340329199049 0.031546681982649912857 0.043891699524488715645 -0.0026562370191562244444 -0.04056312165842741041 -0.012043582298466205469 0.0026425141680567571997 0.020513316773951073557 -0.02641602508361530835 -0.065568242526531567149 0.047697199828356906526 0.074569307318705979615 0.034945198688079055771 -0.0060589740226086128555 -0.0014133629814462294466 0.028547288907036710154 -0.02409901439488984845 0.016558122078687780021 0.016873186284881908081 0.003699932776509590529 0.014670749416415317448 -0.017465855775146674894 0.025399570496730718844 0.0043024850293149428243 -0.042154375804921262461 -0.0080222265077246127096 -0.024204091500747138693 -0.026540421410713235795 -0.0098120298666985635017 -0.01374359314594243188 0.020203445593774137928 0.016447474312142662534 0.012484105068002966654 0.018095962474776995654 0.036516649743531554018 0.060226012988590635344 0.032495608117260446623 -0.0088850906107077777529 0.012842840743934375372 0.0020919539659844462072 -0.014469678441318165746 0.031616398111556691386 0.068667965137114692076 0.071370305758506710769 0.03154668198258922529 0.043891699524488549111 -0.0026562370191562214086 -0.040563121658427431226 -0.012043582298466241898 0.0026425141680567715112 -0.020828200803363075555 -0.026416025083561306408 -0.065568242526531581027 0.047697199828356837137 0.074569307318705979615 0.034945198688079048832 -0.0060589740226086397437 0.006487283063662261165 0.028547288907036665051 -0.024099014394889817225 0.016558122078687755735 0.01687318628488185257 0.0036999327765094105515 0.014670749416415268876 -0.014162757878469470554 0.025399570496730732722 0.0043024850293149480285 -0.042154375804921262461 -0.0080222265077246317916 -0.024204091500747180327 -0.026540421410246158029 0.045067097048634471856 -0.013743593145942419737 0.020203445593774183031 0.016447474312142669473 0.012484105068002977063 0.01809596247477702341 0.036516649743538541484 -0.018989862380651718193 0.032495608117443244844 -0.0088850906107077361196 0.012842840743934403128 0.0020919539659844457735 -0.014469678441318157072 0.031616398111556691386 0.056147768434513266322 0.071370305758514454575 0.03154668198258922529 0.043891699524488528295 -0.002656237019156254802 -0.040563121658427299387 -0.01204358229846619853 -0.0017030824190340716241 -0.020828200803362974941 -0.026416025083561296 -0.065568242526786668645 0.047697199828356830198 0.074569307318705979615 0.034945198688079048832 -0.017300597183966544279 0.0064872830634118416882 0.028547288907036658112 -0.024099014394889897023 0.016558122078687748796 0.016873186284881890734 0.0036999327765093997095 0.0067538805326377189531 -0.01416275787847028414 0.025399570496730725783 0.004302485029315004407 -0.042154375804921290216 -0.0080222265077245589332 -0.024204091500747152571 -0.016448996147360769871 0.045067097048713575247 -0.013743593145942426675 0.020203445593774148337 0.016447474312142655595 0.012484105068002952776 0.01809596247477701994 0.019693555647376546208 -0.018989862380507413486 0.032495608117443279539 -0.0088850906107077742835 0.012842840743934417005 0.0020919539659844631208 -0.014469678441318183093 0.067436272171250005725 0.056147768434511871605 0.071370305758514371308 0.031546681982589280802 0.043891699524488694828 -0.002656237019156222276 -0.040563121658427361838 -0.022017280220512316924 -0.0017030824194295877093 -0.020828200803362961063 -0.026416025083561320286 -0.065568242526531636538 0.047697199828356830198 0.074569307318705965737 0.053173626883930777409 -0.017300597183958533326 0.006487283063411807861 0.028547288907036724032 -0.024099014394889834573 0.016558122078687741857 0.01687318628488191502 0.11180298294034428375 0.0067538805328533043151 -0.014162757878470275466 0.025399570496730659863 0.0043024850293149514979 -0.042154375804921269399 -0.0080222265077246387305 0.014334249558868052826 -0.016448996147197136874 0.045067097048713575247 -0.01374359314594249433 0.020203445593774141398 0.016447474312142672942 0.01248410506800296145 0.048685146778893829966 0.019693555648271646175 -0.018989862380507416956 0.032495608117443258722 -0.008885090610707758671 0.012842840743934382311 0.0020919539659844527124;-0.006810004906347369262 0.00044660571293858347848 0.038564355751861185972 -0.069478138835957992114 -0.056450934321205070709 0.027682469452956059291 -0.029010072091429618679 -0.013048707646825523365 0.018196993680365914497 -0.03340126120905248519 0.019837349795044055545 0.029228858090122659258 -0.038659737906074784219 0.0045037973165443917489 0.02883124229804119934 0.08128415378063358343 0.071655642985664333433 -0.029147048446227681595 -0.024954534316920663761 -0.013006897178459079015 -0.029458297643476551164 0.056428084675198705855 0.01815615227937750556 0.044127125946852557847 0.070038852039387908266 0.010482727778027979559 -0.055668007197521914009 0.0058468388340192477964 -0.065308792451643199461 -0.025086445507549140488 0.019478749166671201209 -0.013666623380216246647 -0.033078844634740284247 0.1517013706811511653 0.036358701683838805241 -0.065757623417568120128 0.0062567648881906006569 -0.025720076653594856758 0.012011824944427391265 -0.072091865004262012384 0.052004756335594683192 0.04561130757850560824 0.036162906032609493101 -0.0068100049076120555344 0.00044660570779220053845 0.038564355750053708194 -0.069478138840831982215 -0.056450934319587454946 0.027682469453744213556 0.0032113251445118466167 -0.013048707645172647612 0.018196993681758553973 -0.033401261209739366298 0.019837349795423349363 0.029228858090148145815 -0.038659737904193761104 -0.014027116321291277501 0.028831242298990453904 0.081284153780319057248 0.071655642984397416306 -0.029147048445670495354 -0.024954534317148117234 -0.013006897178776252386 0.018046755154099980434 0.056428084674979263335 0.01815615227955177241 0.044127125945569264931 0.070038852039558160967 0.010482727777974595179 -0.055668007197601385161 -0.055867641099061941812 -0.065308792450582825451 -0.025086445507641934316 0.019478749166677567645 -0.013666623380270713495 -0.033078844634740284247 0.15170137065409811106 -0.053900614314072683997 -0.065757623417533203614 0.0062567648879061407013 -0.025720076653339838529 0.012011824944427748618 -0.072091865004976565801 0.052004756335594676253 -0.048497794792738788128 0.036162906032609520857 -0.0068100049076120086969 0.00044660570779603655416 0.038564355750056379668 -0.069478138840839073764 -0.056450934319587503518 -0.020405938609120780058 0.0032113251446983723247 -0.01304870764517256608 0.0181969936817568817 -0.033401261209739366298 0.019837349795423342425 0.029228858090148138876 -0.046838811842753895476 -0.014027116324652965165 0.028831242298990412271 0.081284153780317128235 0.071655642984397485695 -0.029147048445670589029 -0.024954534317148054784 0.034125367758774741156 0.018046755154102461088 0.056428084674923946473 0.018156152279554322454 0.044127125945569341259 0.070038852039558216478 0.010482727777974562219 0.015060400863377985253 -0.055867641097991464771 -0.065308792450582825451 -0.02508644550763300049 0.019478749166677574584 -0.013666623380270716964 -0.033078844634740284247 0.021903075153360689747 -0.053900614314782518965 -0.065757623417533189736 0.0062567648879061389666 -0.02572007665333983506 0.012011824944427748618 -0.072091865004976538045 -0.041547993448207400091 -0.048497794792738850578 0.036162906032609465345 -0.0068100049076119956865 0.00044660570779600310652 0.038564355750056331096 -0.069478138840839073764 0.0097613892629375628718 -0.020405938609122081101 0.0032113251446983792636 -0.013048707645172571284 0.018196993681756895578 -0.033401261209739407931 0.019837349795423411813 0.015934566125059206748 -0.046838811842568779664 -0.014027116321810398705 0.028831242298990391454 0.081284153780317183746 0.071655642984397444062 -0.029147048445292336044 0.064347719701587008378 0.0341253677587748383 0.018046755154102461088 0.056428084674924036679 0.018156152279554384904 0.044127125945569313503 0.070038852039558216478 0.039990017721854405341 0.015060400863378009539 -0.055867641097991485588 -0.065308792450582811573 -0.02508644550763300049 0.019478749166418597716 -0.013666623380270722168 0.034050740756894057326 0.02190307515548425496 -0.053900614314782532843 -0.065757623417533231369 0.0062567648879061502423 -0.025720076653339838529 0.012011824944427750353 -0.0053515409738362981762 -0.041547993447083701735 -0.04849779479273877425 0.036162906032609465345 -0.0068100049076119740024 0.00044660570779606219554 0.038564355750056414363 0.021969135958465498687 0.0097613892629376253218 -0.020405938609122077632 0.0032113251446984499536 -0.013048707645172638939 0.018196993681756909456 -0.033401261209739387115 -0.010488322004463158585 0.015934566123002251448 -0.046838811842568793542 -0.014027116321810277275 0.028831242298990457373 0.081284153780317155991 0.071655642984397444062 0.072292967593301143969 0.064347719701895372824 0.0341253677587748383 0.018046755154102457619 0.056428084674924015862 0.018156152279554360618 0.044127125945569320442 -0.014251035748183272719 0.039990017721111201232 0.015060400863378002601 -0.05586764109799147171 -0.065308792450582811573 -0.02508644550763300049 0.019478749166677543359 -0.03932191819512972919 0.034050740756866919312 0.021903075155484282716 -0.053900614314782505088 -0.065757623417533217491 0.0062567648879061476402 -0.025720076653339838529 -0.060579724754901281836 -0.0053515409738363875145 -0.041547993447083736429 -0.048497794792738843639 0.036162906032609506979 -0.0068100049076119948191 0.00044660570779605926819 0.063164522391275457203 0.021969135958059209102 0.0097613892629375559329 -0.020405938609252403937 0.0032113251446984451831 -0.013048707645172626796 0.018196993681756888639 -0.019790273932534335061 -0.010488322004463106543 0.015934566123002216753 -0.046838811842568751909 -0.014027116321810369215 0.028831242298990460843 0.081284153780317155991 0.067895048597963469916 0.072292967593301046825 0.064347719701895317312 0.034125367758774845239 0.018046755154102478436 0.056428084674924036679 0.018156152279554329393 -0.055657581038619764746 -0.014251035748832869415 0.039990017721098773673 0.015060400863378004335 -0.055867641097991499466 -0.065308792450582797695 -0.025086445507633007429 -0.0038834358065428674009 -0.03932191819542532607 0.034050740756866919312 0.021903075155484279246 -0.053900614314782525904 -0.065757623417533217491 0.0062567648879061528444 0.0050622928622655717981 -0.06057972475491587433 -0.0053515409738363996575 -0.04154799344708372949 -0.048497794792738843639 0.036162906032609534734 -0.0068100049076120277788 -0.042810429753312062573 0.063164522391275429447 0.021969135958059188285 0.0097613892629375836885 -0.02040593860912208804 0.0032113251446983571459 -0.013048707645172638939 -0.012373485817554052274 -0.019790273932538997997 -0.010488322004463090931 0.015934566123002168181 -0.046838811842568835175 -0.014027116321810279009 0.028831242298990440026 0.023201019126503963363 0.067895048597780602306 0.072292967593301046825 0.06434771970189533119 0.034125367758774831362 0.018046755154102464558 0.056428084674923974229 0.045837789603300121977 -0.055657581038539988283 -0.014251035748832881558 0.039990017721098773673 0.015060400863377992192 -0.055867641097991499466 -0.065308792450582811573 0.074611422525723378185 -0.0038834358063580174357 -0.039321918195425312192 0.034050740756866919312 0.021903075155484268838 -0.053900614314782505088 -0.065757623417533231369;-0.01069461610954014312 -0.01229212434228734406 -0.028090620420199691187 0.023276405397898391331 -0.0031344412416338366008 0.010423099755728118879 -0.010620409811301549305 -0.0073385770866731380585 0.028451251003338926676 -0.022443705763281147914 0.040891973463040034997 0.057324804445799966424 -0.020469775446873051533 -0.030863107214607315293 0.022880130773819316176 0.022664359136774815673 -0.052927939433951895487 0.045593669873310441187 0.028168453191429732724 -0.04787391413574541843 -0.051092876316881898069 0.0033661921440594415149 -0.0021023753671577526288 -0.0030356967888507933352 -0.00064045253803123557146 -0.012806967904011994433 0.002107399350868031495 0.067607223828195880944 0.037342725728793768614 -0.0039480789506218093993 -0.017115516616695334445 -0.023262196991281434283 0.0051988842486522333225 0.064149492249424039381 0.013621932119177670995 0.069858528945789227782 0.050860128652908481728 -0.0016407630763324832467 -0.01711751744948439985 0.013242904265872686501 -0.00840288073548014873 -0.010180021751001916072 -0.013539165336517913069 -0.010694616096303621866 -0.01229212435025255068 -0.028090620424313584441 0.023276405396804859815 -0.0031344412431477271762 0.010423099754126346345 0.011758482620647192282 -0.0073385770856450455168 0.028451251003629704495 -0.022443705765133097063 0.040891973462582387189 0.057324804444849788987 -0.020469775445822437077 -0.02426480334735045194 0.022880130774683909295 0.022664359136415419133 -0.052927939433370263522 0.045593669874393567831 0.028168453191292134458 -0.047873914136938186537 -0.054168784218987124646 0.0033661921447016886211 -0.0021023753671530103285 -0.0030356967889391454039 -0.00064045253803362016572 -0.012806967904030666996 0.0021073993507772672933 0.051456614379458510966 0.037342725728801533236 -0.0039480789502990181264 -0.017115516611621896248 -0.023262196971602231571 0.0051988842488151732965 0.06414949225142774214 0.059216550680838031528 0.069858528945789213904 0.050860128652575976871 -0.0016407630763324522385 -0.017117517449484670466 0.013242904265872568539 -0.0084028807354801504648 0.025443891286027423698 -0.013539165336517847149 -0.010694616096303696459 -0.012292124350252557619 -0.028090620424313567094 0.023276405396804856346 -0.0031344412431476369706 -0.016305748498080301079 0.011758482620647226977 -0.0073385770856450333738 0.028451251003629662861 -0.022443705765133027674 0.040891973462582387189 0.057324804444849809804 0.018178564402676896522 -0.024264803364158944038 0.022880130774683905825 0.022664359136415387908 -0.052927939433370221889 0.045593669874393560892 0.028168453191292165683 -0.06272103493483181802 -0.054168784218987124646 0.003366192144701707703 -0.0021023753671516182129 -0.0030356967889391458376 -0.00064045253803359848167 -0.012806967904030661792 -0.0082057631294374239195 0.051456614379458510966 0.037342725728800957308 -0.0039480789504671492604 -0.017115516611621927473 -0.02326219697160236341 0.0051988842488152383486 0.052157940724619399064 0.059216550680831682441 0.069858528945789144515 0.050860128652575976871 -0.0016407630763324485522 -0.017117517449484677405 0.013242904265872578948 0.030013026639680851632 0.025443891286027444515 -0.013539165336517907864 -0.010694616096303701663 -0.012292124350252600987 -0.028090620424313608727 0.023276405396804887571 -0.039420738087131465544 -0.01630574849591405473 0.011758482620647195752 -0.0073385770856450619967 0.028451251003629697556 -0.022443705765133100533 0.04089197346258238025 0.0014628619139810030564 0.018178564402676899991 -0.024264803347350379081 0.022880130774683909295 0.022664359136415401785 -0.052927939433370256583 0.045593669874447198542 -0.059124526577155341045 -0.062721034934831804142 -0.054168784218987124646 0.0033661921447017055346 -0.0021023753671516082382 -0.0030356967889391471387 -0.00064045253803357094294 0.092835854011302870736 -0.0082057631293001552508 0.051456614379458490149 0.037342725728800936491 -0.0039480789504671527299 -0.017115516611621930942 -0.023262196971602228102 0.062736168426652957897 0.052157940724619350492 0.059216550680831668563 0.069858528945789144515 0.050860128652575914421 -0.0016407630763324466006 -0.017117517449484673936 -0.028697345444448869173 0.030013026639686801733 0.025443891286027406351 -0.013539165336517847149 -0.010694616096303620131 -0.012292124350252536802 -0.028090620424313615666 0.046098503672251149588 -0.039420738087131493299 -0.016305748495914040852 0.011758482620647218303 -0.0073385770856450767419 0.028451251003629697556 -0.022443705765133086655 -0.038121385066950452813 0.0014628619139735866798 0.018178564402676927747 -0.024264803347350372142 0.022880130774683902356 0.022664359136415391377 -0.052927939433370221889 -0.036444152941561620829 -0.059124526577155347984 -0.062721034934831887409 -0.054168784218987124646 0.0033661921447017098714 -0.0021023753671516398969 -0.0030356967889391362966 0.0077802233706118729614 0.092835854011538238018 -0.0082057631293001656592 0.051456614379458497088 0.037342725728800957308 -0.0039480789504671414542 -0.017115516611621896248 0.028051249923606497161 0.062736168426658120434 0.052157940724619350492 0.059216550680831675502 0.069858528945789130638 0.050860128652575928299 -0.0016407630763324461669 -0.042850049311725833812 -0.028697345444449042645 0.030013026639686798264 0.025443891286027454923 -0.013539165336517880109 -0.010694616096303607988 -0.012292124350252564557 0.038045768563763418535 0.046098503672238638762 -0.039420738087131507177 -0.016305748495996457564 0.011758482620647232181 -0.0073385770856450463842 0.028451251003629704495 -0.0067234746334688400005 -0.038121385066943340447 0.001462861913973564779 0.0181785644026769104 -0.024264803347350372142 0.022880130774683909295 0.022664359136415398316 -0.028613786313879896461 -0.036444152941561627768 -0.059124526577155368801 -0.062721034934831887409 -0.054168784218987214851 0.0033661921447017306881 -0.0021023753671516433664 -0.025713179076657738387 0.0077802233703345279742 0.092835854011536045327 -0.0082057631293001760675 0.051456614379458510966 0.03734272572880094343 -0.0039480789504671466583 0.0077358685692968673711 0.028051249923133094594 0.062736168426658120434 0.052157940724619336614 0.059216550680831668563 0.069858528945789213904 0.050860128652575928299 0.031980175336931072894 -0.042850049311725826873 -0.028697345444448914276 0.030013026639686728875 0.025443891286027441045 -0.013539165336517847149 -0.010694616096303694724 -0.035017875941329316969 0.038045768563763439352 0.046098503672238645701 -0.039420738087131541871 -0.016305748495914020035 0.011758482620647223507 -0.0073385770856450472516 -0.031842462687032883906 -0.0067234746334344386992 -0.038121385066943340447 0.0014628619139735608758 0.018178564402676931216 -0.024264803347350382551 0.022880130774683916234 -0.012197018428602279111 -0.028613786313879927686 -0.036444152941561620829 -0.059124526577155341045 -0.062721034934831887409 -0.054168784218987124646 0.0033661921447017163767 -0.012169214564386078917 -0.025713179077024798935 0.0077802233703345158311 0.092835854011536073083 -0.0082057631293001483119 0.051456614379458497088 0.037342725728800957308 -0.012462129830854869889 0.0077358685691862978315 0.028051249923133094594 0.062736168426658120434 0.052157940724619329675 0.059216550680831696318 0.069858528945789213904;-0.0089777247127125637399 -0.0021125417424072124271 0.0048190431695765570744 0.047554034281188727051 0.040100325716899906658 0.041372693457679868279 -0.013616127037664699923 -0.0058576953676886273775 0.014156571510622535312 0.014110560197714481362 -0.0090840309775603936271 0.0046814186974019605242 -0.012256682950685306166 0.068066925418383175672 0.015460574297237447694 -0.0099904931365647400149 0.0082911176473287866856 0.031005711947279714774 0.07471843312916817692 0.083451373268912207304 0.11099090501518825425 0.024372901890874831138 0.0052092278488067673622 0.0036187406525209149695 0.024230417433787471843 0.027717796459911535345 0.042913028339634097519 0.026679287833932356644 0.018349268382805795918 -0.066086841575915170055 -0.04415102699021995758 -0.060430741930659497008 -0.022543800747099607129 -0.040195723823950722797 0.011524138191364153433 0.019172719236879492977 -0.052148565694868531661 -0.045960337873453147028 -0.03123344047347319935 -0.03920556934485195516 0.027169502163468119138 0.05714724542790111661 0.025784238156764137384 -0.0089777247258516178208 -0.002112541735658540927 0.0048190431680273631415 0.047554034279347824621 0.040100325716202284143 0.041372693456499236297 -0.0084729745046737050401 -0.0058576953679714462847 0.014156571510886084911 0.014110560197950790598 -0.0090840309782998732852 0.0046814186978145887891 -0.012256682950551120101 -0.011566384469376392655 0.015460574297284892381 -0.0099904931350790898703 0.0082911176456056442235 0.03100571194734454486 0.074718433126412103773 0.08345137326893362073 -0.015835009895599327923 0.024372901890993392549 0.0052092278486042999791 0.0036187406523343567354 0.024230417433664087901 0.027717796459824275285 0.042913028339795225574 0.050046125849617949244 0.018349268382727563359 -0.066086841575897392609 -0.04415102699025753169 -0.060430741930347788016 -0.022543800747099631415 -0.04019572382393885035 0.02373681128470795515 0.019172719236105507934 -0.052148565694902317136 -0.045960337873509858608 -0.031233440473467384557 -0.039205569344818246014 0.027169502163337539563 0.025686461981095171092 0.025784238156710458101 -0.0089777247258516421069 -0.0021125417356584776096 0.0048190431680273640089 0.047554034279346103775 0.040100325716202228632 -0.016182322698767074437 -0.0084729745047426845844 -0.0058576953679714488868 0.014156571510886046747 0.014110560197950788863 -0.0090840309782765655405 0.004681418697814595728 -0.032618202231210334519 -0.011566384469244005498 0.015460574297285039833 -0.0099904931350790690536 0.0082911176456057864709 0.03100571194734441996 0.07471843312641206214 -0.019296569149211025007 -0.015835009895853284501 0.024372901890993343976 0.0052092278486042921729 0.0036187406523344005371 0.024230417433664056676 0.027717796459824216304 0.0099509584764949244456 0.050046125849617505155 0.018349268382727507848 -0.066086841575882848687 -0.044151026990257462301 -0.060430741930347815771 -0.022543800747099766724 0.012244783921708857211 0.023736811284611518402 0.019172719236105466301 -0.052148565694902282441 -0.045960337873509914119 -0.031233440473467384557 -0.039205569344818246014 -0.0018196761227337464491 0.025686461980798356436 0.025784238156710412998 -0.0089777247258516386375 -0.0021125417356584645992 0.004819043168027409979 0.047554034279346103775 -0.045994395287712944165 -0.016182322698767109131 -0.0084729745047425562149 -0.00585769536797144455 0.014156571510886107462 0.014110560197950748965 -0.0090840309782765516627 0.00061019767779015520424 -0.032618202231235474131 -0.011566384469243891006 0.01546057429728502422 -0.0099904931350790933398 0.0082911176456056251416 0.031005711947327881106 -0.0063309448280186196231 -0.019296569149208315369 -0.015835009894339748676 0.024372901890993409896 0.0052092278486042826319 0.0036187406523343658427 0.024230417433664098309 0.0040112935293023874866 0.0099509584764536900686 0.050046125849617498216 0.01834926838272755989 -0.066086841575882876443 -0.044151026990257524751 -0.060430741930347676993 0.015532953605394909935 0.01224478392234117953 0.023736811284611518402 0.019172719236105435076 -0.052148565694902337952 -0.045960337873509927997 -0.031233440473467401904 0.036102245080987284409 -0.0018196761227797044781 0.025686461980798231536 0.025784238156710291567 -0.008977724725851685475 -0.0021125417356584008481 0.004819043168027388295 -0.010027196153862138681 -0.045994395287711660469 -0.016182322698767095254 -0.0084729745047425596843 -0.0058576953679714098555 0.014156571510886097054 0.014110560197950811415 0.0370878675806629865 0.00061019767796813772446 -0.032618202231235453314 -0.011566384469243882333 0.015460574297285051976 -0.0099904931350791141564 0.0082911176456057882056 0.011443890207665070868 -0.0063309448291877885515 -0.019296569149208287614 -0.015835009895853263684 0.02437290189099338214 0.0052092278486042609478 0.0036187406523343662763 -0.012132261634269446079 0.0040112935343061080148 0.0099509584764536831297 0.050046125849617428827 0.018349268382727563359 -0.066086841575882862565 -0.044151026990257483118 0.0093633969196611210872 0.015532953605424289212 0.01224478392234124545 0.023736811284611483708 0.019172719236105514873 -0.052148565694902331014 -0.045960337873509934936 0.050704523043035604202 0.03610224508130665394 -0.0018196761227797198738 0.025686461980798370314 0.025784238156710471979 -0.0089777247258516212902 -0.0021125417356585335545 0.010525919794891799852 -0.010027196153339613949 -0.045994395287711729858 -0.016182322698682329726 -0.0084729745047426394816 -0.0058576953679714384784 0.014156571510886098789 0.068904752111146008731 0.037087867580612776663 0.00061019767796808958588 -0.032618202231235446376 -0.01156638446924386672 0.015460574297285045037 -0.0099904931350791401773 -0.020894626094407394573 0.011443890207759809322 -0.0063309448291877408466 -0.019296569149208294552 -0.015835009895853249806 0.024372901890993416835 0.0052092278486042826319 0.0059460326958006596773 -0.012132261634269425263 0.0040112935295612940981 0.0099509584764536692519 0.050046125849617484338 0.018349268382727577237 -0.066086841575882862565 -0.011283087683023161271 0.0093633969193290672584 0.015532953605424285742 0.012244783922341247184 0.023736811284611504524 0.019172719236105507934 -0.052148565694902261625 0.018068520012610604641 0.050704523043565867535 0.036102245081306612307 -0.001819676122779719657 0.025686461980798235005 0.025784238156710468509 -0.0089777247258518311918 0.042485988567900721813 0.010525919794616433317 -0.010027196153339582724 -0.045994395287711667408 -0.016182322698767102193 -0.0084729745047426689719 -0.0058576953679714497542 0.091590147668543259174 0.068904752111146896909 0.037087867580612748908 0.00061019767796808156279 -0.032618202231235335353 -0.011566384469243894476 0.015460574297285046771 -0.0083944696412553056891 -0.020894626094483229745 0.011443890207759871772 -0.006330944829187816307 -0.0192965691492083119 -0.015835009895853274092 0.024372901890993413365 0.088562339668813105931 0.0059460326956100482618 -0.012132261634269449549 0.0040112935295705748687 0.0099509584764536692519 0.050046125849617456582 0.018349268382727518256 0.052558130664655575148 -0.011283087682407573829 0.0093633969193290481764 0.015532953605424292681 0.012244783922341248919 0.023736811284611504524 0.019172719236105511403;-0.012431113121687761142 -0.039019304167385811255 -0.02892551613435184743 -0.00055957670006252996971 0.011612496751101647821 0.055635373132061405332 0.041670262143976094515 6.8636165362753355089e-05 0.024966096626034488259 0.019166256513280483659 0.0034738040980333627188 0.063595579543255176258 0.04263436688692074511 0.0049885410644071774902 0.00036032318183060988055 -0.00036345255650975061106 -0.047185783308394867175 -0.016214442126501780322 0.034174322982039255503 0.044017586172431968916 0.023031298594734704588 0.014933371631738216398 0.0096432613325869859233 0.0096607030524972267033 0.0057467033542802211862 0.021067098287212152746 0.012018017123866584286 0.013647014904927238024 0.038682532568432827225 -0.024629446703514676353 -0.012268834879875111302 -0.013129043149245856956 0.010855640167924564612 0.070379010656468107832 0.070751707494411050781 0.05489265674082365043 -0.037200071169031720397 -0.01329071479294555852 -0.050218591113620043853 -0.023285654596152512152 0.029234489249205339312 0.022309330339303611729 -0.038452313455421820165 -0.012431113128018294461 -0.039019304156192063937 -0.028925516127490832202 -0.00055957670202659765858 0.011612496751656287489 0.055635373132990668943 -0.013873959278047220608 6.8636163603304973829e-05 0.024966096628730394258 0.019166256514528228622 0.0034738040980211784547 0.063595579542871469303 0.042634366887003873059 -0.0138795246597862975 0.00036032318208922462476 -0.00036345255661035373064 -0.047185783308076920117 -0.016214442124883540058 0.034174322982340403498 0.044017586172659058097 0.017899528342120104435 0.014933371631692856848 0.0096432613326115287911 0.0096607030517804424324 0.0057467033543458579184 0.021067098287140727242 0.012018017123923281989 0.017848099034246306394 0.038682532568435283593 -0.024629446703541290481 -0.012268834880298496587 -0.013129043149321128342 0.010855640167924547265 0.070379010656244009314 0.027005306841050381872 0.054892656740823699002 -0.037200071169032324081 -0.013290714792936466834 -0.050218591113643053225 -0.023285654595378534049 0.029234489249202993966 -0.018099616740733404097 -0.0384523134554542248 -0.01243111312801823895 -0.039019304156192119448 -0.028925516127490891183 -0.00055957670202663484672 0.011612496751656138302 -0.025455393348083700522 -0.013873959278047265711 6.8636163603309541031e-05 0.024966096628730432422 0.019166256514528242499 0.0034738040980211385561 0.063595579542871483181 -0.020304797919632976838 -0.013879524659759652147 0.00036032318208920348281 -0.00036345255661031675935 -0.047185783308076892362 -0.016214442124883519242 0.034174322982340334109 -0.017846112079672293849 0.017899528342120090557 0.014933371631686650008 0.0096432613326115773633 0.0096607030517803643699 0.005746703354345835367 0.021067098287140650914 0.030614331281850169775 0.017848099034246348027 0.038682532568435373799 -0.024629446703518517031 -0.012268834880298624956 -0.013129043149321093648 0.010855640167924594103 0.0072568805049316479835 0.027005306841050388811 0.054892656740823643491 -0.037200071169032344898 -0.013290714792936416527 -0.05021859111364302547 -0.023285654595378624254 0.0042559533591911098346 -0.018099616740733452669 -0.038452313455454217861 -0.012431113128018263236 -0.039019304156192050059 -0.028925516127490891183 -0.00055957670202661370477 -0.011235074269514467443 -0.02545539334809412621 -0.013873959278047237956 6.8636163603316479925e-05 0.024966096628730422013 0.019166256514528214744 0.0034738040980211667454 -0.0082095918128203982517 -0.02030479791953836155 -0.013879524659759823885 0.00036032318208925986133 -0.00036345255661031394042 -0.047185783308076892362 -0.016214442124952588992 -0.028073378660457531941 -0.017846112079672210582 0.017899528343717604345 0.01493337163168672807 0.0096432613326115496077 0.0096607030517803834518 0.0057467033543458414385 0.0012414106564111306117 0.030614331281850100386 0.017848099034246320271 0.038682532568435443188 -0.024629446703518454581 -0.01226883488029847924 -0.013129043149321041606 -0.032943894271003554275 0.0072568805049314831848 0.027005306841050364525 0.054892656740823705941 -0.037200071169032337959 -0.013290714792936470304 -0.050218591113643053225 -0.00026402447077598765633 0.0042559533591910708034 -0.018099616740733449199 -0.0384523134554542248 -0.012431113128018235481 -0.03901930415619210557 -0.02892551612749090853 -8.4935076437874326184e-05 -0.011235074269514463974 -0.025455393348094056821 -0.013873959278047227547 6.8636163603318539909e-05 0.024966096628730422013 0.019166256514528207805 -0.018850616148257347965 -0.0082095918126682109611 -0.020304797919538441348 -0.01387952465975969378 0.00036032318208924891088 -0.00036345255661036007322 -0.047185783308076913178 -0.0026062335937205409475 -0.02807337866045766725 -0.017846112079672297318 0.017899528342120052393 0.014933371631686646538 0.0096432613326115079744 0.0096607030517804285547 -0.0073074441640068330331 0.001241410647547652301 0.030614331281850173244 0.017848099034246299455 0.038682532568435380738 -0.024629446703518496214 -0.012268834880298624956 -0.010209423494988739689 -0.032943894270910219213 0.0072568805049315031341 0.027005306841050357586 0.054892656740823664308 -0.037200071169032261631 -0.013290714792936452956 0.033114899779077999753 -0.00026402447077871529215 0.0042559533591911080999 -0.018099616740733372872 -0.038452313455454238678 -0.012431113128018232011 -0.039019304156192063937 -0.011645796492922624518 -8.4935076441762695303e-05 -0.011235074269514443157 -0.025455393348129219666 -0.013873959278047257038 6.863616360333023574e-05 0.024966096628730435891 0.0049864602199346467343 -0.018850616148257230004 -0.0082095918126683879029 -0.020304797919538465634 -0.013879524659759695515 0.00036032318208926766758 -0.0003634525566103358413 0.016025365621035517899 -0.0026062335937245906595 -0.028073378660457646433 -0.017846112079672227929 0.017899528342120076679 0.014933371631686736744 0.0096432613326115322605 0.0077918400944546328812 -0.0073074441640061044492 0.0012414106558364499007 0.030614331281850083039 0.01784809903424633068 0.038682532568435422371 -0.024629446703518537848 0.037361822285321776016 -0.010209423494921548645 -0.032943894270910170641 0.0072568805049314953279 0.02700530684105039228 0.054892656740823629613 -0.037200071169032289387 0.057008058721445813155 0.033114899779049342121 -0.00026402447077868742816 0.0042559533591910760075 -0.01809961674073338328 -0.038452313455454231739 -0.012431113128018235481 -0.03634236472003458257 -0.011645796492905917396 -8.4935076441773821928e-05 -0.011235074269514450096 -0.025455393348094133149 -0.013873959278047251834 6.8636163603292248006e-05 0.0081524445114887419961 0.0049864602196834544381 -0.018850616148257198779 -0.0082095918126683983113 -0.020304797919538413592 -0.013879524659759666025 0.00036032318208920478386 0.014400460991325896715 0.016025365621026965712 -0.0026062335937245620365 -0.028073378660457674189 -0.017846112079672231399 0.017899528342120062802 0.014933371631686648273 0.039318153546929704434 0.0077918400942407180579 -0.0073074441640060480707 0.0012414106558363917875 0.030614331281850194061 0.017848099034246337619 0.038682532568435415432 0.056801227048746946724 0.037361822285321762138 -0.010209423494921526093 -0.032943894270910198396 0.0072568805049315256855 0.027005306841050409628 0.054892656740823622674];

% Layer 2
b2 = -0.11127826567888525477;
LW2_1 = [0.46841763954991694208 0.41865399993590091121 0.51822343632215195353 0.81473892059977492952 0.66203866284739099068 -0.47350615337128937332 -0.54730050217685866087 -0.50118492151495053211 0.39706607102084801042 -0.34013089880866737014];

% Output 1
y1_step1.ymin = -1;
y1_step1.gain = 0.0183150183150183;
y1_step1.xoffset = 0;

% ===== SIMULATION ========

% Dimensions
TS = size(x1,2); % timesteps

% Input 1 Delay States
xd1 = mapminmax_apply(xi1,x1_step1);
xd1 = [xd1 zeros(42,1)];

% Allocate Outputs
y1 = zeros(1,TS);

% Time loop
for ts=1:TS
    
    % Rotating delay state position
    xdts = mod(ts+6,8)+1;
    
    % Input 1
    xd1(:,xdts) = mapminmax_apply(x1(:,ts),x1_step1);
    
    % Layer 1
    tapdelay1 = reshape(xd1(:,mod(xdts-[1 2 3 4 5 6 7]-1,8)+1),294,1);
    a1 = tansig_apply(b1 + IW1_1*tapdelay1);
    
    % Layer 2
    a2 = b2 + LW2_1*a1;
    
    % Output 1
    y1(:,ts) = mapminmax_reverse(a2,y1_step1);
end

% Final delay states
finalxts = TS+(1: 7);
xits = finalxts(finalxts<=7);
xts = finalxts(finalxts>7)-7;
xf1 = [xi1(:,xits) x1(:,xts)];
end

% ===== MODULE FUNCTIONS ========

% Map Minimum and Maximum Input Processing Function
function y = mapminmax_apply(x,settings)
y = bsxfun(@minus,x,settings.xoffset);
y = bsxfun(@times,y,settings.gain);
y = bsxfun(@plus,y,settings.ymin);
end

% Sigmoid Symmetric Transfer Function
function a = tansig_apply(n,~)
a = 2 ./ (1 + exp(-2*n)) - 1;
end

% Map Minimum and Maximum Output Reverse-Processing Function
function x = mapminmax_reverse(y,settings)
x = bsxfun(@minus,y,settings.ymin);
x = bsxfun(@rdivide,x,settings.gain);
x = bsxfun(@plus,x,settings.xoffset);
end
